{"learner":{"attributes":{"scikit_learn":"{\"_estimator_type\": \"classifier\"}"},"feature_names":["absolute_magnitude_h","minimum_orbit_intersection","eccentricity","semi_major_axis","inclination","orbital_period","perihelion_distance","aphelion_distance","scaled_min_diameter_km","scaled_max_diameter_km","avg_diameter_km","relative_velocity.kilometers_per_hour","miss_distance.kilometers","earth_orbit_crossing_potential","orbit_stability","data_arc_in_days_scaled"],"feature_types":["float","float","float","float","float","float","float","float","float","float","float","float","float","float","float","float"],"gradient_booster":{"model":{"gbtree_model_param":{"num_parallel_tree":"1","num_trees":"100"},"iteration_indptr":[0,1,2,3,4,5,6,7,8,9,10,11,12,13,14,15,16,17,18,19,20,21,22,23,24,25,26,27,28,29,30,31,32,33,34,35,36,37,38,39,40,41,42,43,44,45,46,47,48,49,50,51,52,53,54,55,56,57,58,59,60,61,62,63,64,65,66,67,68,69,70,71,72,73,74,75,76,77,78,79,80,81,82,83,84,85,86,87,88,89,90,91,92,93,94,95,96,97,98,99,100],"tree_info":[0,0,0,0,0,0,0,0,0,0,0,0,0,0,0,0,0,0,0,0,0,0,0,0,0,0,0,0,0,0,0,0,0,0,0,0,0,0,0,0,0,0,0,0,0,0,0,0,0,0,0,0,0,0,0,0,0,0,0,0,0,0,0,0,0,0,0,0,0,0,0,0,0,0,0,0,0,0,0,0,0,0,0,0,0,0,0,0,0,0,0,0,0,0,0,0,0,0,0,0],"trees":[{"base_weights":[-0E0,1.1743737E0,-1.9778669E0,6.563707E-2,1.4488506E0,-1.98783E0,-1.3027523E0,-1.8075856E0,3.9352226E-1,1.4358975E-1,1.4662697E0,-1.9957009E-1,-1.7997775E0,-1.364486E0,1.20000005E-1,-1.887663E0,-8.181818E-1,7.9569894E-1,-1.3535005E0,-7.2527474E-1,4.0264025E-1,1.2374734E0,1.5530288E0,-1.8167598E0,1E-1,-1.847619E0,-1.1090909E0,-1.9693094E-1,-1.5616438E0,2E-1,-1.5384616E0,1.2048517E0,2.0408164E-1,-1.564409E0,-9.5098037E-1,-1.5238096E0,-3.773585E-2,-8.4210527E-1,5.724907E-1,1.3570336E0,1.006947E0,1.4110507E0,1.6717048E0,-1.8484501E0,-5.714286E-1,-1.8811882E-1,-5E-2,-1.8297873E-1,-8.926554E-1,-1.5868545E0,-4.0000003E-2,-6.666667E-1,6.2068963E-1,-1.7777778E-1,-8E-1,-1.25E0,1.229932E0,-1.2853829E0,5.9717965E-1,-1.471831E0,-1.8095238E0,-1.290909E0,-5.416667E-1,-0E0,-1.7777778E-1,-6.2857145E-1,9.0909094E-1,-1.5E-1,2.2222222E-1,-7.692308E-1,7.863248E-1,1.4047838E0,1.1171172E0,3.2941177E-1,1.1012923E0,1.5741248E0,1.1085986E0,1.5091547E0,1.7182715E0,-1.8603027E0,-7.5E-1,-1.3333334E-1,5.714286E-1,9.3333334E-1,-1.0361446E0,-1.3027523E-1,-1.8148148E-1,-1.20000005E-1,2.2222223E-2,1E-1,-6.666667E-2,-1.4666668E-1,6.666667E-2,-1.68E-1,1.818182E-2,1.0684931E-1,1.3705845E-1,-9.4736844E-2,-1.6328503E-1,-8.424069E-2,9.860031E-2,-1.5144509E-1,-9.4339624E-2,-1.827027E-1,-5E-2,5E-2,-1.4038461E-1,-3.1707317E-2,-1.6250001E-1,-9.52381E-3,-1.1111112E-1,1.5294118E-1,-6.666667E-2,1.07692316E-1,-1.1111112E-1,7.692308E-2,-1.3333334E-1,1.2758622E-1,2.9508198E-2,1.4151828E-1,8.095238E-2,1.149133E-1,-7.4074077E-3,-3.4965035E-2,8.059701E-2,4.895105E-2,1.18186116E-1,1.580755E-1,-0E0,8.123185E-2,1.4160584E-1,1.4283122E-1,1.9782017E-1,1.7246096E-1,4.1666668E-2,-1.20000005E-1,-1.879227E-1,5E-2,-1.3333334E-1,1.20000005E-1,-5E-2,1.2727273E-1,-0E0,-1.1194968E-1,5.454546E-2],"categories":[],"categories_nodes":[],"categories_segments":[],"categories_sizes":[],"default_left":[0,0,0,0,0,0,0,0,0,0,0,0,0,0,0,0,0,0,0,0,0,0,0,0,0,0,0,0,0,0,0,0,0,0,0,0,0,0,0,0,0,0,0,0,0,0,0,0,0,0,0,0,0,0,0,0,0,0,0,0,0,0,0,0,0,0,0,0,0,0,0,0,0,0,0,0,0,0,0,0,0,0,0,0,0,0,0,0,0,0,0,0,0,0,0,0,0,0,0,0,0,0,0,0,0,0,0,0,0,0,0,0,0,0,0,0,0,0,0,0,0,0,0,0,0,0,0,0,0,0,0,0,0,0,0,0,0,0,0,0,0,0,0,0,0],"id":0,"left_children":[1,3,5,7,9,11,13,15,17,19,21,-1,23,25,-1,27,29,31,33,35,37,39,41,43,-1,45,47,-1,49,51,53,55,57,59,61,63,65,67,69,71,73,75,77,79,81,-1,-1,-1,83,85,-1,87,89,-1,91,93,95,97,99,101,103,105,107,-1,-1,109,111,-1,113,115,117,119,121,123,125,127,129,131,133,135,137,-1,139,141,143,-1,-1,-1,-1,-1,-1,-1,-1,-1,-1,-1,-1,-1,-1,-1,-1,-1,-1,-1,-1,-1,-1,-1,-1,-1,-1,-1,-1,-1,-1,-1,-1,-1,-1,-1,-1,-1,-1,-1,-1,-1,-1,-1,-1,-1,-1,-1,-1,-1,-1,-1,-1,-1,-1,-1,-1,-1,-1,-1,-1],"loss_changes":[3.3803055E4,2.778751E3,3.3876953E1,1.1142595E3,1.6620312E2,4.314453E0,1.4268097E1,1.9867188E1,1.0857338E3,2.2237307E1,1.4145117E2,0E0,1.2502869E1,7.8528595E0,0E0,3.5592651E0,1.6441956E1,3.0366284E2,2.3068115E1,1.2432787E1,1.6497204E1,5.3502197E1,8.581445E1,7.773987E0,0E0,2.469101E-1,6.9457626E0,0E0,9.686432E-1,4.05977E0,8.7521553E-1,4.722107E1,3.0201022E2,1.6085205E0,1.349279E1,4.063492E0,7.98373E0,6.98538E0,1.9899279E1,1.3415283E1,4.3343994E1,1.1608545E2,1.8941406E1,1.4397583E0,6.8571434E0,0E0,0E0,0E0,1.2560997E1,1.0844269E0,0E0,2.0444446E0,4.206897E0,0E0,5.866667E0,5.2309093E0,1.5224976E1,1.1108215E1,2.2906665E2,1.7693787E0,1.6950989E-1,1.1826218E1,1.1163619E1,0E0,0E0,2.1460314E0,6.395722E0,0E0,6.324786E0,9.487179E0,1.3691696E1,5.583008E0,8.551544E0,2.778889E1,2.898352E1,1.6174072E1,7.53916E1,2.1508911E1,1.746582E1,4.2840576E-1,3.5833335E0,0E0,2.9571428E0,1.1878788E0,6.0815735E0,0E0,0E0,0E0,0E0,0E0,0E0,0E0,0E0,0E0,0E0,0E0,0E0,0E0,0E0,0E0,0E0,0E0,0E0,0E0,0E0,0E0,0E0,0E0,0E0,0E0,0E0,0E0,0E0,0E0,0E0,0E0,0E0,0E0,0E0,0E0,0E0,0E0,0E0,0E0,0E0,0E0,0E0,0E0,0E0,0E0,0E0,0E0,0E0,0E0,0E0,0E0,0E0,0E0,0E0,0E0,0E0,0E0,0E0,0E0,0E0],"parents":[2147483647,0,0,1,1,2,2,3,3,4,4,5,5,6,6,7,7,8,8,9,9,10,10,12,12,13,13,15,15,16,16,17,17,18,18,19,19,20,20,21,21,22,22,23,23,25,25,26,26,28,28,29,29,30,30,31,31,32,32,33,33,34,34,35,35,36,36,37,37,38,38,39,39,40,40,41,41,42,42,43,43,44,44,48,48,49,49,51,51,52,52,54,54,55,55,56,56,57,57,58,58,59,59,60,60,61,61,62,62,65,65,66,66,68,68,69,69,70,70,71,71,72,72,73,73,74,74,75,75,76,76,77,77,78,78,79,79,80,80,82,82,83,83,84,84],"right_children":[2,4,6,8,10,12,14,16,18,20,22,-1,24,26,-1,28,30,32,34,36,38,40,42,44,-1,46,48,-1,50,52,54,56,58,60,62,64,66,68,70,72,74,76,78,80,82,-1,-1,-1,84,86,-1,88,90,-1,92,94,96,98,100,102,104,106,108,-1,-1,110,112,-1,114,116,118,120,122,124,126,128,130,132,134,136,138,-1,140,142,144,-1,-1,-1,-1,-1,-1,-1,-1,-1,-1,-1,-1,-1,-1,-1,-1,-1,-1,-1,-1,-1,-1,-1,-1,-1,-1,-1,-1,-1,-1,-1,-1,-1,-1,-1,-1,-1,-1,-1,-1,-1,-1,-1,-1,-1,-1,-1,-1,-1,-1,-1,-1,-1,-1,-1,-1,-1,-1,-1,-1],"split_conditions":[1.5023986E-1,1.3445696E-1,1.684342E-3,7.508528E-2,6.048921E-4,1.466212E-3,1.788635E-3,7.175025E-2,1.3436145E-1,1.4997391E-1,1.2423231E-1,-1.9957009E-1,1.5514609E-1,3.496606E-1,1.20000005E-1,6.06981E-2,7.183093E-4,7.183093E-4,9.45632E-3,3.4025178E-4,1.8902877E-4,7.9392083E-4,9.1633685E-3,2.3636158E-1,1E-1,2.5284913E-1,1.0074901E-1,-1.9693094E-1,3.2361681E0,1.2035176E-1,1.4244314E-1,6.8050355E-4,9.1633685E-3,2.963653E-1,1.0215875E-1,7.68829E-2,1.4644842E-1,3.429491E-3,1.3479458E-1,1.5482151E-2,1.0989969E-1,7.183093E-4,1.311045E-1,3.1053782E-1,1.7093746E-1,-1.8811882E-1,-5E-2,-1.8297873E-1,1.0665048E-1,7.183093E-4,-4.0000003E-2,8.69129E-3,1.4028697E-1,-1.7777778E-1,7.997182E-2,1.285533E-1,1.2917002E-1,1.3875762E-1,1.0387535E-1,3.7117523E-1,1.4848445E-1,3.4584308E-1,7.183093E-4,-0E0,-1.7777778E-1,4.4497386E-1,1.4914958E-1,-1.5E-1,1.7166354E-1,1.6710342E-1,3.3802837E-1,3.8535E-1,3.6682484E-1,1.9467793E-1,5.7315435E-2,1.0465996E0,2.5707912E-3,5.2307853E-3,1.495857E-1,3.503109E-2,2.4150045E-1,-1.3333334E-1,1.2806267E-1,2.642358E-1,2.979796E-1,-1.3027523E-1,-1.8148148E-1,-1.20000005E-1,2.2222223E-2,1E-1,-6.666667E-2,-1.4666668E-1,6.666667E-2,-1.68E-1,1.818182E-2,1.0684931E-1,1.3705845E-1,-9.4736844E-2,-1.6328503E-1,-8.424069E-2,9.860031E-2,-1.5144509E-1,-9.4339624E-2,-1.827027E-1,-5E-2,5E-2,-1.4038461E-1,-3.1707317E-2,-1.6250001E-1,-9.52381E-3,-1.1111112E-1,1.5294118E-1,-6.666667E-2,1.07692316E-1,-1.1111112E-1,7.692308E-2,-1.3333334E-1,1.2758622E-1,2.9508198E-2,1.4151828E-1,8.095238E-2,1.149133E-1,-7.4074077E-3,-3.4965035E-2,8.059701E-2,4.895105E-2,1.18186116E-1,1.580755E-1,-0E0,8.123185E-2,1.4160584E-1,1.4283122E-1,1.9782017E-1,1.7246096E-1,4.1666668E-2,-1.20000005E-1,-1.879227E-1,5E-2,-1.3333334E-1,1.20000005E-1,-5E-2,1.2727273E-1,-0E0,-1.1194968E-1,5.454546E-2],"split_indices":[0,11,9,11,15,9,9,11,11,4,0,0,0,3,0,11,15,15,9,15,15,15,15,15,0,11,1,0,13,0,0,15,15,4,0,3,0,9,0,9,0,15,0,11,11,0,0,0,4,15,0,9,0,0,15,11,0,1,11,1,0,13,15,0,0,3,0,0,11,11,13,11,11,15,15,13,15,9,0,4,4,0,4,13,11,0,0,0,0,0,0,0,0,0,0,0,0,0,0,0,0,0,0,0,0,0,0,0,0,0,0,0,0,0,0,0,0,0,0,0,0,0,0,0,0,0,0,0,0,0,0,0,0,0,0,0,0,0,0,0,0,0,0,0,0],"split_type":[0,0,0,0,0,0,0,0,0,0,0,0,0,0,0,0,0,0,0,0,0,0,0,0,0,0,0,0,0,0,0,0,0,0,0,0,0,0,0,0,0,0,0,0,0,0,0,0,0,0,0,0,0,0,0,0,0,0,0,0,0,0,0,0,0,0,0,0,0,0,0,0,0,0,0,0,0,0,0,0,0,0,0,0,0,0,0,0,0,0,0,0,0,0,0,0,0,0,0,0,0,0,0,0,0,0,0,0,0,0,0,0,0,0,0,0,0,0,0,0,0,0,0,0,0,0,0,0,0,0,0,0,0,0,0,0,0,0,0,0,0,0,0,0,0],"sum_hessian":[1.4551E4,9.13025E3,5.42075E3,1.812E3,7.31825E3,5.34E3,8.075E1,2.6925E2,1.54275E3,9.65E1,7.22175E3,5.11625E3,2.2375E2,7.925E1,1.5E0,2.4825E2,2.1E1,1.2545E3,2.8825E2,2.175E1,7.475E1,1.98975E3,5.232E3,2.2275E2,1E0,2.525E1,5.4E1,1.945E2,5.375E1,9E0,1.2E1,7.41E2,5.135E2,1.8725E2,1.01E2,9.5E0,1.225E1,8.5E0,6.625E1,1.307E3,6.8275E2,2.388E3,2.844E3,2.1675E2,6E0,2.425E1,1E0,1.075E1,4.325E1,5.225E1,1.5E0,2.75E0,6.25E0,8E0,4E0,7E0,7.34E2,1.0675E2,4.0675E2,1.41E2,4.625E1,5.4E1,4.7E1,1.5E0,8E0,7.75E0,4.5E0,5E0,3.5E0,8.75E0,5.75E1,1.086E3,2.21E2,8.4E1,5.9875E2,1.54875E3,8.3925E2,6.4075E2,2.20325E3,2.1375E2,3E0,3.5E0,2.5E0,2.75E0,4.05E1,2.625E1,2.6E1,1.5E0,1.25E0,5E0,1.25E0,2.75E0,1.25E0,5.25E0,1.75E0,3.4575E2,3.8825E2,5.6E1,5.075E1,8.625E1,3.205E2,1.2875E2,1.225E1,4.525E1,1E0,3E0,5.1E1,4E1,7E0,4.25E0,3.5E0,3.25E0,1.25E0,2.25E0,1.25E0,2.25E0,6.5E0,2.8E1,2.95E1,1.066E3,2E1,2.1525E2,5.75E0,3.475E1,4.925E1,7.05E1,5.2825E2,1.54225E3,6.5E0,4.2925E2,4.1E2,5.5E2,9.075E1,2.19225E3,1.1E1,7.75E0,2.06E2,1E0,2E0,1.5E0,1E0,1.75E0,1E0,3.875E1,1.75E0],"tree_param":{"num_deleted":"0","num_feature":"16","num_nodes":"145","size_leaf_vector":"1"}},{"base_weights":[-1.9880639E-4,1.062743E0,-1.7984252E0,1.3140057E0,-7.338026E-1,-1.8075639E0,-1.1819222E0,1.5490912E0,1.1065536E0,-6.1977476E-2,-1.3095376E0,-1.8147765E-1,-1.6354945E0,-1.2393878E0,1.1305224E-1,6.5545464E-1,1.567603E0,-9.586778E-1,1.2744734E0,1.6652071E-1,-4.791055E-1,-1.1950619E0,-1.8033361E0,-1.6636821E0,-5.250167E-1,2.5010648E-1,-1.310657E0,9.4893265E-1,6.810123E-2,1.7763261E0,1.5152887E0,-8.769087E-1,-1.4056345E0,1.4904422E0,9.140325E-1,-1.190491E0,2.5853598E-1,-9.452292E-1,-2.9166752E-1,-1.4569714E0,-1.0820928E0,-1.5534135E0,-1.9642945E-1,-7.1468294E-1,-1.6870828E0,2.2816177E-1,-1.3432997E-1,1.0565181E-1,-3.8638726E-2,-1.1195107E0,-1.772351E-1,-3.3945745E-1,1.1095498E0,-1.4936797E-1,3.64305E-1,1.1094233E-2,1.7801784E0,1.2679799E0,1.640953E0,-9.541734E-1,-4.424123E-1,-1.5822983E-1,-8.755212E-1,1.5564069E0,1.3713738E0,1.0814348E0,6.078575E-1,-3.9831024E-1,-1.454299E0,-7.153823E-1,3.9692053E-1,-4.839436E-1,-1.1354686E0,-7.833893E-1,-7.354924E-3,9.5610774E-1,-1.5453751E0,-1.4599127E0,-8.8787013E-1,-1.2408584E0,-1.8085682E-1,-1.1649578E0,7.506195E-2,-9.79356E-1,-1.7054978E-1,-7.553896E-2,9.713997E-2,-1.5640925E-1,-7.848501E-1,8.761793E-2,-9.727313E-2,1.294317E-1,3.0991603E-2,-9.834037E-2,6.0985077E-2,1.7827474E-1,5.6205045E-2,4.909903E-2,1.3381365E-1,1.6467799E-1,2.4307506E-2,-1.0926306E-1,-7.319819E-2,5.6298967E-2,-8.5822165E-2,-5.2538246E-2,-1.4631991E-1,1.5649241E-1,8.513038E-2,-3.9972108E-2,1.3798693E-1,-8.7311536E-2,1.10362224E-1,7.3935024E-2,2.4795048E-2,-1.4756632E-1,8.570232E-2,-1.5923701E-1,-3.3613157E-2,-4.5808185E-2,-1.5056944E-1,-3.4344885E-3,5.4874297E-2,1.2548759E-2,-1.5527895E-1,-1.7241792E-1,-7.3195554E-2,5.4117363E-2,-1.0204035E-1,1.6076874E-2,-9.5009804E-2,1.5419729E-1,-6.4391E-2,-1.6802384E-1,-3.4789663E-2,-1.1069125E-1,-1.6965874E-1,-1.7759798E-1,-8.0511115E-2,-1.5219994E-1,-7.931692E-2,-1.3753147E-1,-4.33398E-2,-1.5109386E-1,3.6385223E-2,-2.9158881E-2,-1.1604407E-1],"categories":[],"categories_nodes":[],"categories_segments":[],"categories_sizes":[],"default_left":[0,0,0,0,0,0,0,0,0,0,0,0,0,0,0,0,0,0,0,0,0,0,0,0,0,0,0,0,0,0,0,0,0,0,0,0,0,0,0,0,0,0,0,0,0,0,0,0,0,0,0,0,0,0,0,0,0,0,0,0,0,0,0,0,0,0,0,0,0,0,0,0,0,0,0,0,0,0,0,0,0,0,0,0,0,0,0,0,0,0,0,0,0,0,0,0,0,0,0,0,0,0,0,0,0,0,0,0,0,0,0,0,0,0,0,0,0,0,0,0,0,0,0,0,0,0,0,0,0,0,0,0,0,0,0,0,0,0,0,0,0,0,0,0,0,0,0],"id":1,"left_children":[1,3,5,7,9,11,13,15,17,19,21,-1,23,25,-1,27,29,31,33,35,37,39,41,43,45,47,49,51,53,55,57,59,61,63,65,67,69,71,73,75,77,79,-1,81,83,85,-1,-1,-1,87,-1,89,91,-1,93,-1,95,97,99,101,103,-1,105,107,109,111,113,115,117,119,121,123,125,127,129,131,133,135,137,139,-1,141,-1,143,-1,-1,-1,-1,145,-1,-1,-1,-1,-1,-1,-1,-1,-1,-1,-1,-1,-1,-1,-1,-1,-1,-1,-1,-1,-1,-1,-1,-1,-1,-1,-1,-1,-1,-1,-1,-1,-1,-1,-1,-1,-1,-1,-1,-1,-1,-1,-1,-1,-1,-1,-1,-1,-1,-1,-1,-1,-1,-1,-1,-1,-1,-1],"loss_changes":[2.7622812E4,4.1009404E3,2.8113281E1,3.8690723E2,4.3122217E2,3.59375E0,1.2206314E1,6.0728516E1,1.4704497E3,4.9227367E1,3.178601E1,0E0,6.1030884E0,8.800812E0,0E0,1.3290878E1,3.72334E1,1.043103E1,3.036665E2,4.199934E1,1.56913185E1,1.2933105E1,1.4152222E0,3.611023E0,4.6074185E0,2.7099838E0,4.7522736E0,1.1051968E1,1.2984574E1,4.4665527E0,8.899463E1,8.724045E0,3.0815964E0,1.7098633E1,7.4725464E1,3.8890076E0,4.2537323E1,4.010788E0,1.8418392E1,3.2386963E1,2.4130524E1,1.6059341E0,0E0,5.463071E0,1.0789795E0,4.0150127E0,0E0,0E0,0E0,7.2081604E0,0E0,5.843855E0,6.4104347E0,0E0,8.346272E0,0E0,1.2678223E0,5.3405518E1,1.5399902E1,6.2895966E0,1.8458378E1,0E0,2.145154E0,8.086182E0,1.3812988E1,4.2143433E1,2.4528595E1,1.0351168E1,1.8828163E0,7.3143272E0,1.80344E1,1.1214058E1,7.301716E0,1.5706972E1,1.3548012E1,6.372036E0,2.2049927E1,7.821228E0,1.5578415E1,1.9247704E0,0E0,2.8291988E-1,0E0,6.046568E0,0E0,0E0,0E0,0E0,6.0263996E0,0E0,0E0,0E0,0E0,0E0,0E0,0E0,0E0,0E0,0E0,0E0,0E0,0E0,0E0,0E0,0E0,0E0,0E0,0E0,0E0,0E0,0E0,0E0,0E0,0E0,0E0,0E0,0E0,0E0,0E0,0E0,0E0,0E0,0E0,0E0,0E0,0E0,0E0,0E0,0E0,0E0,0E0,0E0,0E0,0E0,0E0,0E0,0E0,0E0,0E0,0E0,0E0,0E0,0E0,0E0,0E0,0E0,0E0],"parents":[2147483647,0,0,1,1,2,2,3,3,4,4,5,5,6,6,7,7,8,8,9,9,10,10,12,12,13,13,15,15,16,16,17,17,18,18,19,19,20,20,21,21,22,22,23,23,24,24,25,25,26,26,27,27,28,28,29,29,30,30,31,31,32,32,33,33,34,34,35,35,36,36,37,37,38,38,39,39,40,40,41,41,43,43,44,44,45,45,49,49,51,51,52,52,54,54,56,56,57,57,58,58,59,59,60,60,62,62,63,63,64,64,65,65,66,66,67,67,68,68,69,69,70,70,71,71,72,72,73,73,74,74,75,75,76,76,77,77,78,78,79,79,81,81,83,83,88,88],"right_children":[2,4,6,8,10,12,14,16,18,20,22,-1,24,26,-1,28,30,32,34,36,38,40,42,44,46,48,50,52,54,56,58,60,62,64,66,68,70,72,74,76,78,80,-1,82,84,86,-1,-1,-1,88,-1,90,92,-1,94,-1,96,98,100,102,104,-1,106,108,110,112,114,116,118,120,122,124,126,128,130,132,134,136,138,140,-1,142,-1,144,-1,-1,-1,-1,146,-1,-1,-1,-1,-1,-1,-1,-1,-1,-1,-1,-1,-1,-1,-1,-1,-1,-1,-1,-1,-1,-1,-1,-1,-1,-1,-1,-1,-1,-1,-1,-1,-1,-1,-1,-1,-1,-1,-1,-1,-1,-1,-1,-1,-1,-1,-1,-1,-1,-1,-1,-1,-1,-1,-1,-1,-1,-1],"split_conditions":[1.5023986E-1,1.6120723E-1,1.684342E-3,1.1994218E-1,1.749327E-1,1.466212E-3,1.788635E-3,6.8050355E-4,1.2021377E-1,1.6861908E-1,2.1128477E-1,-1.8147765E-1,2.3636158E-1,3.082843E-2,1.1305224E-1,3.9796123E-1,5.757915E-2,1.4384058E-1,1.415031E-1,2.092843E-3,1.0533619E-1,1.22001745E-1,7.183093E-4,3.082843E-2,1.3922073E-1,1.50785E-1,1.559889E-1,1.961265E-1,2.646403E-4,1.3457968E-2,9.249589E-2,4.612302E-3,1.311045E-1,1.3359645E-1,1.5245362E-1,1.80477E-1,1.1553363E-1,2.1616127E-1,1.2788923E-1,1.6593704E-1,1.0280718E-1,2.2407624E-1,-1.9642945E-1,2.497179E-2,1.2282661E-1,1.2939665E-1,-1.3432997E-1,1.0565181E-1,-3.8638726E-2,1.1009272E-1,-1.772351E-1,9.445142E-3,1.01523235E-1,-1.4936797E-1,1.3621257E-1,1.1094233E-2,4.5796442E-1,1.0459354E-1,1.495857E-1,9.45632E-3,4.2455863E-2,-1.5822983E-1,2.3636158E-1,1.4914958E-1,6.048921E-4,1.8246316E-3,3.5703698E-1,1.5109028E-1,2.0128453E-1,1.04857266E-1,1.0533619E-1,1.3696969E-1,4.4102556E-1,9.714348E-2,1.4632823E-1,8.7203816E-2,6.2481314E-1,1.8452837E-1,2.2729136E-1,1.2580974E-1,-1.8085682E-1,2.1003908E-2,7.506195E-2,3.1913627E-2,-1.7054978E-1,-7.553896E-2,9.713997E-2,-1.5640925E-1,1.50785E-1,8.761793E-2,-9.727313E-2,1.294317E-1,3.0991603E-2,-9.834037E-2,6.0985077E-2,1.7827474E-1,5.6205045E-2,4.909903E-2,1.3381365E-1,1.6467799E-1,2.4307506E-2,-1.0926306E-1,-7.319819E-2,5.6298967E-2,-8.5822165E-2,-5.2538246E-2,-1.4631991E-1,1.5649241E-1,8.513038E-2,-3.9972108E-2,1.3798693E-1,-8.7311536E-2,1.10362224E-1,7.3935024E-2,2.4795048E-2,-1.4756632E-1,8.570232E-2,-1.5923701E-1,-3.3613157E-2,-4.5808185E-2,-1.5056944E-1,-3.4344885E-3,5.4874297E-2,1.2548759E-2,-1.5527895E-1,-1.7241792E-1,-7.3195554E-2,5.4117363E-2,-1.0204035E-1,1.6076874E-2,-9.5009804E-2,1.5419729E-1,-6.4391E-2,-1.6802384E-1,-3.4789663E-2,-1.1069125E-1,-1.6965874E-1,-1.7759798E-1,-8.0511115E-2,-1.5219994E-1,-7.931692E-2,-1.3753147E-1,-4.33398E-2,-1.5109386E-1,3.6385223E-2,-2.9158881E-2,-1.1604407E-1],"split_indices":[0,12,8,12,12,8,8,15,12,12,12,0,15,12,0,3,12,15,12,8,14,0,15,12,12,0,12,2,15,14,12,15,0,12,12,3,0,2,0,2,14,12,0,12,2,12,0,0,0,14,0,14,12,0,0,0,14,0,0,8,15,0,15,0,15,8,3,3,14,15,14,0,2,0,0,3,2,12,3,0,0,12,0,14,0,0,0,0,0,0,0,0,0,0,0,0,0,0,0,0,0,0,0,0,0,0,0,0,0,0,0,0,0,0,0,0,0,0,0,0,0,0,0,0,0,0,0,0,0,0,0,0,0,0,0,0,0,0,0,0,0,0,0,0,0,0,0],"split_type":[0,0,0,0,0,0,0,0,0,0,0,0,0,0,0,0,0,0,0,0,0,0,0,0,0,0,0,0,0,0,0,0,0,0,0,0,0,0,0,0,0,0,0,0,0,0,0,0,0,0,0,0,0,0,0,0,0,0,0,0,0,0,0,0,0,0,0,0,0,0,0,0,0,0,0,0,0,0,0,0,0,0,0,0,0,0,0,0,0,0,0,0,0,0,0,0,0,0,0,0,0,0,0,0,0,0,0,0,0,0,0,0,0,0,0,0,0,0,0,0,0,0,0,0,0,0,0,0,0,0,0,0,0,0,0,0,0,0,0,0,0,0,0,0,0,0,0],"sum_hessian":[1.4449537E4,9.081701E3,5.367836E3,7.967627E3,1.1140745E3,5.287524E3,8.031169E1,3.7320208E3,4.2356064E3,5.1464404E2,5.994304E2,5.0656436E3,2.218806E2,7.8817085E1,1.4946129E0,7.647924E1,3.6555415E3,3.1813876E2,3.9174675E3,3.3289087E2,1.8175319E2,4.893956E2,1.1003484E2,2.1590211E2,5.978479E0,3.4844468E0,7.5332634E1,5.0587166E1,2.5892076E1,7.259994E2,2.9295422E3,2.714415E2,4.669726E1,2.4477134E3,1.4697542E3,2.0380966E1,3.1250992E2,5.0966366E1,1.3078683E2,1.4389354E2,3.4550208E2,4.7277416E1,6.2757427E1,5.9546967E0,2.0994742E2,3.4886053E0,2.4898734E0,1.2459613E0,2.2384856E0,5.5697887E1,1.9634747E1,5.4839783E0,4.5103188E1,3.4832656E0,2.2408812E1,1.7442861E0,7.242551E2,9.90774E2,1.9387682E3,2.2944434E2,4.1997173E1,3.353626E1,1.3161003E1,1.5673313E3,8.803821E2,9.4858154E2,5.211726E2,5.718604E0,1.4662363E1,3.836145E1,2.7414847E2,1.5916495E1,3.504987E1,4.727274E1,8.351409E1,4.7383995E0,1.3915514E2,1.15093925E2,2.3040814E2,2.3883808E1,2.3393608E1,4.7117786E0,1.242918E0,6.698333E0,2.0324908E2,1.4945147E0,1.9940907E0,2.2342796E1,3.335509E1,1.7469504E0,3.737028E0,3.613502E1,8.9681635E0,2.99044E0,1.9418371E1,7.222685E2,1.9866399E0,8.271353E1,9.080605E2,1.9305427E3,8.22539E0,1.3894447E2,9.049987E1,1.2183718E1,2.9813454E1,9.434137E0,3.7268658E0,1.5474199E3,1.9911406E1,3.982945E0,8.763992E2,1.0216624E1,9.383649E2,3.809408E2,1.4023178E2,2.9830093E0,2.7355947E0,1.26733675E1,1.9889951E0,3.0131283E1,8.2301655E0,7.1583305E1,2.0256516E2,1.0698853E1,5.217643E0,1.2922905E1,2.2126965E1,6.980222E0,4.029252E1,7.157862E1,1.19354725E1,3.4949574E0,1.2434418E0,1.2470714E2,1.4447994E1,4.8473175E1,6.662075E1,1.7896465E1,2.1251167E2,1.3196784E1,1.0687024E1,2.9760518E0,1.7357266E0,4.7096057E0,1.9887271E0,1.518675E1,1.816834E1],"tree_param":{"num_deleted":"0","num_feature":"16","num_nodes":"147","size_leaf_vector":"1"}},{"base_weights":[-6.365847E-4,-1.6572171E0,9.7320575E-1,-5.655058E-1,-1.6689777E0,6.4134668E-3,1.2134023E0,-1.4013628E0,-3.5381082E-1,-1.6787523E0,-1.4805232E0,-1.6323937E0,2.9224142E-1,1.0191154E0,1.2865548E0,-1.5811221E-1,-6.6835356E-1,6.367399E-2,-8.773078E-1,-1.3624533E0,-1.6805588E-1,-1.4944156E0,-4.498673E-1,-1.6993084E0,-7.9869574E-1,6.2309086E-1,-1.1433077E0,6.468497E-1,1.0638717E0,-2.3906752E-2,1.2923461E0,-9.898267E-2,-1.618894E-2,-5.0593007E-1,5.366899E-1,-1.4076861E0,-1.3845466E-1,-1.621456E-1,-1.6317186E-1,-1.5911609E0,-1.3308469E0,4.251909E-2,-1.1800454E-1,-1.746886E-1,-1.329536E0,-3.373534E-1,-1.6275007E-1,8.2603836E-1,-2.5213571E-2,-7.7325195E-1,-1.3281351E0,8.457112E-1,-5.656486E-1,1.089808E0,5.870467E-1,6.907625E-1,-1.868552E-1,1.3109041E0,9.9224955E-1,4.4871613E-1,-1.4587945E-1,-9.942149E-2,7.407213E-1,-8.222752E-1,-1.6154443E-1,-1.2304097E-1,3.3293873E-1,1.2417056E-1,-1.2985112E-1,-8.425619E-1,-1.6046713E-1,-4.1305076E-2,-1.5430335E0,-1.3954082E-1,-3.0654702E-2,-1.3459407E-1,2.1066658E-1,2.3370343E-1,1.0024899E0,-1.0025254E0,4.2036852E-1,-1.0984361E0,-3.515493E-1,-1.5718006E-1,-1.2321389E0,9.1830075E-1,-1.3744514E0,-8.352841E-1,5.838211E-1,1.0936743E0,-1.4241725E-1,-2.0657752E-1,8.2643145E-1,8.769124E-1,-6.692836E-2,1.3158225E0,2.756508E-1,6.8952E-1,1.2139983E0,-1.19067214E-1,1.2957567E-1,4.3447938E-2,1.4154054E-1,-1.2020729E-1,2.1929458E-2,9.171809E-2,-4.4606324E-2,-1.2774287E-1,2.5343383E-2,4.250558E-2,-1.3238879E-1,-1.5607743E-1,-5.821482E-2,-6.698183E-2,6.0000177E-2,-1.4332686E-1,5.2326698E-2,8.48345E-2,1.1377074E-1,-1.3444796E-1,-2.9876197E-2,-1.3615268E-1,4.902124E-2,5.2284975E-2,-1.2032429E-1,-8.4752224E-2,-2.3400106E-3,-1.2866531E-1,-3.1412058E-2,9.603096E-2,-1.3077284E-1,-2.6957283E-2,-1.5960172E-1,-4.6843585E-2,-1.5752147E-1,-1.17347054E-1,1.2311705E-1,9.809663E-2,1.1618521E-1,3.426947E-2,-1.2396488E-1,-3.437857E-2,9.332101E-2,1.0982629E-1,-2.1481293E-3,1.3077483E-1,1.6787496E-1,5.7126105E-2,-7.247251E-2,-1.5584636E-1,7.4473344E-2,1.3289338E-1,3.7350114E-2],"categories":[],"categories_nodes":[],"categories_segments":[],"categories_sizes":[],"default_left":[0,0,0,0,0,0,0,0,0,0,0,0,0,0,0,0,0,0,0,0,0,0,0,0,0,0,0,0,0,0,0,0,0,0,0,0,0,0,0,0,0,0,0,0,0,0,0,0,0,0,0,0,0,0,0,0,0,0,0,0,0,0,0,0,0,0,0,0,0,0,0,0,0,0,0,0,0,0,0,0,0,0,0,0,0,0,0,0,0,0,0,0,0,0,0,0,0,0,0,0,0,0,0,0,0,0,0,0,0,0,0,0,0,0,0,0,0,0,0,0,0,0,0,0,0,0,0,0,0,0,0,0,0,0,0,0,0,0,0,0,0,0,0,0,0,0,0,0,0,0,0,0,0],"id":2,"left_children":[1,3,5,7,9,11,13,15,17,19,21,23,25,27,29,-1,31,33,35,37,-1,39,41,43,45,47,49,51,53,55,57,-1,-1,59,61,63,65,-1,67,69,71,-1,-1,-1,73,75,-1,77,79,81,83,85,87,89,91,93,-1,95,97,99,-1,-1,101,103,-1,-1,105,-1,-1,107,-1,109,111,-1,-1,-1,113,115,117,119,121,123,125,-1,127,129,131,133,135,137,-1,139,141,143,-1,145,147,149,151,-1,-1,-1,-1,-1,-1,-1,-1,-1,-1,-1,-1,-1,-1,-1,-1,-1,-1,-1,-1,-1,-1,-1,-1,-1,-1,-1,-1,-1,-1,-1,-1,-1,-1,-1,-1,-1,-1,-1,-1,-1,-1,-1,-1,-1,-1,-1,-1,-1,-1,-1,-1,-1,-1],"loss_changes":[2.290453E4,6.6543945E1,2.076373E3,9.68457E0,7.091797E0,8.3444336E2,1.0048047E2,4.3074417E-1,1.0381281E1,5.3027344E-1,3.1201172E0,1.340155E1,7.211339E2,3.203174E1,3.9489258E1,0E0,4.8376393E-1,7.6043797E0,8.045645E0,1.0082951E1,0E0,2.0112305E0,3.666697E0,1.970398E0,7.688301E0,1.6229831E2,1.8428955E1,5.1913292E1,2.1021484E1,3.2742424E1,2.7526367E1,0E0,0E0,1.2354577E1,5.532264E0,1.4723206E-1,5.503736E0,0E0,1.28229265E1,2.5439453E-1,2.814148E1,0E0,0E0,0E0,1.7288246E0,8.630326E0,0E0,9.794574E1,1.2889478E2,1.2935375E1,2.4681702E0,3.086119E1,9.989038E0,1.7692871E1,1.7748627E1,5.1251755E0,0E0,2.4444336E1,1.967627E1,1.1526792E1,0E0,0E0,2.3027306E0,2.3264108E0,0E0,0E0,3.9133182E0,0E0,0E0,2.669295E0,0E0,9.889179E0,5.9988403E-1,0E0,0E0,0E0,4.0525036E0,1.0544858E2,1.4113831E1,2.1902603E1,2.5973839E1,9.869186E0,7.1032333E0,0E0,6.588089E0,1.7942825E1,1.0912905E0,6.1139793E0,8.740411E0,1.1600708E1,0E0,1.3045292E1,9.22794E0,3.2451963E0,0E0,1.2012695E1,7.6003146E0,1.748376E1,1.6415344E1,0E0,0E0,0E0,0E0,0E0,0E0,0E0,0E0,0E0,0E0,0E0,0E0,0E0,0E0,0E0,0E0,0E0,0E0,0E0,0E0,0E0,0E0,0E0,0E0,0E0,0E0,0E0,0E0,0E0,0E0,0E0,0E0,0E0,0E0,0E0,0E0,0E0,0E0,0E0,0E0,0E0,0E0,0E0,0E0,0E0,0E0,0E0,0E0,0E0,0E0,0E0,0E0,0E0,0E0],"parents":[2147483647,0,0,1,1,2,2,3,3,4,4,5,5,6,6,7,7,8,8,9,9,10,10,11,11,12,12,13,13,14,14,16,16,17,17,18,18,19,19,21,21,22,22,23,23,24,24,25,25,26,26,27,27,28,28,29,29,30,30,33,33,34,34,35,35,36,36,38,38,39,39,40,40,44,44,45,45,47,47,48,48,49,49,50,50,51,51,52,52,53,53,54,54,55,55,57,57,58,58,59,59,62,62,63,63,66,66,69,69,71,71,72,72,76,76,77,77,78,78,79,79,80,80,81,81,82,82,84,84,85,85,86,86,87,87,88,88,89,89,91,91,92,92,93,93,95,95,96,96,97,97,98,98],"right_children":[2,4,6,8,10,12,14,16,18,20,22,24,26,28,30,-1,32,34,36,38,-1,40,42,44,46,48,50,52,54,56,58,-1,-1,60,62,64,66,-1,68,70,72,-1,-1,-1,74,76,-1,78,80,82,84,86,88,90,92,94,-1,96,98,100,-1,-1,102,104,-1,-1,106,-1,-1,108,-1,110,112,-1,-1,-1,114,116,118,120,122,124,126,-1,128,130,132,134,136,138,-1,140,142,144,-1,146,148,150,152,-1,-1,-1,-1,-1,-1,-1,-1,-1,-1,-1,-1,-1,-1,-1,-1,-1,-1,-1,-1,-1,-1,-1,-1,-1,-1,-1,-1,-1,-1,-1,-1,-1,-1,-1,-1,-1,-1,-1,-1,-1,-1,-1,-1,-1,-1,-1,-1,-1,-1,-1,-1,-1,-1],"split_conditions":[1.788635E-3,1.50785E-1,1.3445696E-1,1.8967412E-1,1.466212E-3,7.508528E-2,1.2423231E-1,7.559204E-1,3.6623803E-1,5.0781228E-2,3.1053782E-1,7.175025E-2,1.3436145E-1,3.2321635E-1,5.578351E-3,-1.5811221E-1,1.913442E-1,1.6227736E-1,5.718104E-1,3.4933522E0,-1.6805588E-1,3.006337E-1,3.304052E-1,6.579282E-2,3.0506867E-1,3.5868344E-1,1.0989969E-1,7.5439465E-1,1.888437E0,6.31269E-1,2.917286E-1,-9.898267E-2,-1.618894E-2,1.14407815E-1,1.731702E-3,4.2284003E-1,1.3913976E-1,-1.621456E-1,1.7084606E-1,7.335486E-2,3.424547E-1,4.251909E-2,-1.1800454E-1,-1.746886E-1,1.1635222E-2,2.7623412E-1,-1.6275007E-1,3.4584308E-1,1.07580625E-1,1.0215875E-1,4.591949E-1,3.474439E-1,7.370093E-1,8.099701E-1,2.5128877E0,7.4246943E-1,-1.868552E-1,1.495857E-1,1.357392E-1,8.7948754E-2,-1.4587945E-1,-9.942149E-2,3.5868344E-1,4.113683E-1,-1.6154443E-1,-1.2304097E-1,6.2014616E-1,1.2417056E-1,-1.2985112E-1,1.5405582E-1,-1.6046713E-1,8.430433E-1,8.2651955E-1,-1.3954082E-1,-3.0654702E-2,-1.3459407E-1,1.2035176E-1,9.566849E-2,1.2917002E-1,1.6460891E0,1.17967725E-1,3.4584308E-1,1.0808296E-2,-1.5718006E-1,8.4714514E-1,7.65732E-1,4.2354658E-1,5.4401636E-1,1.973422E-1,1.10613376E-1,-1.4241725E-1,3.0863717E-1,1.4888531E-1,3.5682428E-1,-6.692836E-2,5.2307853E-3,5.6514627E-1,4.725534E-1,9.732481E-1,-1.19067214E-1,1.2957567E-1,4.3447938E-2,1.4154054E-1,-1.2020729E-1,2.1929458E-2,9.171809E-2,-4.4606324E-2,-1.2774287E-1,2.5343383E-2,4.250558E-2,-1.3238879E-1,-1.5607743E-1,-5.821482E-2,-6.698183E-2,6.0000177E-2,-1.4332686E-1,5.2326698E-2,8.48345E-2,1.1377074E-1,-1.3444796E-1,-2.9876197E-2,-1.3615268E-1,4.902124E-2,5.2284975E-2,-1.2032429E-1,-8.4752224E-2,-2.3400106E-3,-1.2866531E-1,-3.1412058E-2,9.603096E-2,-1.3077284E-1,-2.6957283E-2,-1.5960172E-1,-4.6843585E-2,-1.5752147E-1,-1.17347054E-1,1.2311705E-1,9.809663E-2,1.1618521E-1,3.426947E-2,-1.2396488E-1,-3.437857E-2,9.332101E-2,1.0982629E-1,-2.1481293E-3,1.3077483E-1,1.6787496E-1,5.7126105E-2,-7.247251E-2,-1.5584636E-1,7.4473344E-2,1.3289338E-1,3.7350114E-2],"split_indices":[8,0,11,5,8,11,0,6,5,2,11,11,11,13,13,0,2,11,7,13,0,5,11,11,5,13,0,6,13,2,11,0,0,11,8,7,13,0,0,2,5,0,0,0,8,5,0,13,11,0,2,11,7,5,13,6,0,0,0,11,0,0,13,5,0,0,7,0,0,0,0,13,5,0,0,0,0,11,0,13,0,13,8,0,6,7,2,7,11,0,0,2,11,5,0,8,2,6,13,0,0,0,0,0,0,0,0,0,0,0,0,0,0,0,0,0,0,0,0,0,0,0,0,0,0,0,0,0,0,0,0,0,0,0,0,0,0,0,0,0,0,0,0,0,0,0,0,0,0,0,0,0,0],"split_type":[0,0,0,0,0,0,0,0,0,0,0,0,0,0,0,0,0,0,0,0,0,0,0,0,0,0,0,0,0,0,0,0,0,0,0,0,0,0,0,0,0,0,0,0,0,0,0,0,0,0,0,0,0,0,0,0,0,0,0,0,0,0,0,0,0,0,0,0,0,0,0,0,0,0,0,0,0,0,0,0,0,0,0,0,0,0,0,0,0,0,0,0,0,0,0,0,0,0,0,0,0,0,0,0,0,0,0,0,0,0,0,0,0,0,0,0,0,0,0,0,0,0,0,0,0,0,0,0,0,0,0,0,0,0,0,0,0,0,0,0,0,0,0,0,0,0,0,0,0,0,0,0,0],"sum_hessian":[1.4195771E4,5.2553374E3,8.940434E3,5.6533627E1,5.1988037E3,1.7793931E3,7.161041E3,1.0288958E1,4.624467E1,4.934937E3,2.638668E2,2.6355838E2,1.5158347E3,1.9628403E3,5.1982007E3,7.3335E0,2.9554577E0,2.621599E1,2.002868E1,3.2312805E1,4.902624E3,2.599134E2,3.9533777E0,2.4301512E2,2.054327E1,1.2323762E3,2.8345844E2,2.1231738E2,1.750523E3,2.2857565E1,5.175343E3,1.2240913E0,1.7313665E0,1.1862103E1,1.4353887E1,1.1132264E1,8.896417E0,2.6284296E1,6.028508E0,1.5783289E2,1.0208052E2,1.9882786E0,1.9650991E0,2.1201195E2,3.1003174E1,1.4101121E1,6.44215E0,9.383559E2,2.9402042E2,9.614454E1,1.8731389E2,1.826616E2,2.9655767E1,1.6589987E3,9.1524254E1,1.692562E1,5.9319468E0,4.8707666E3,3.0457657E2,6.189808E0,5.672295E0,1.2325873E0,1.3121299E1,4.214552E0,6.9177127E0,2.1970124E0,6.699404E0,2.6525438E0,3.3759646E0,3.9213018E0,1.5391158E2,1.4592257E1,8.7488266E1,2.8785566E1,2.2176068E0,4.4518456E0,9.649275E0,2.1590457E2,7.224513E2,9.168166E1,2.0233875E2,5.3378464E1,4.276607E1,4.859435E1,1.3871954E2,1.7744627E2,5.2153344E0,2.4242453E1,5.413314E0,1.6570153E3,1.9834564E0,2.1241169E1,7.028308E1,1.5200374E1,1.7252461E0,4.8474653E3,2.3300943E1,1.3051208E2,1.7406448E2,1.9704512E0,4.219357E0,1.0155603E1,2.9656956E0,2.9754775E0,1.2390745E0,3.7268965E0,2.9725072E0,2.6888747E0,1.2324274E0,1.1191501E1,3.4007561E0,8.528925E1,2.1990092E0,2.7376468E0,6.9116282E0,3.1368912E1,1.8453568E2,3.4099646E2,3.814548E2,6.108867E1,3.0592997E1,6.9342566E0,1.954045E2,2.9988992E0,5.0379566E1,1.6398394E1,2.636768E1,1.3056474E2,8.154805E0,1.7471767E2,2.7286057E0,1.2414227E0,3.9739115E0,1.7298937E1,6.943516E0,1.2385153E0,4.174799E0,6.303463E2,1.026669E3,1.43041115E1,6.9370575E0,5.6912656E0,6.459182E1,1.2017076E1,3.1832979E0,4.7464707E3,1.0099477E2,1.8317184E1,4.9837584E0,2.4760206E0,1.2803607E2,1.5261388E2,2.145061E1],"tree_param":{"num_deleted":"0","num_feature":"16","num_nodes":"153","size_leaf_vector":"1"}},{"base_weights":[-1.3323922E-3,-1.5520064E0,8.9316356E-1,-1.5616456E0,-4.7189733E-1,1.1242924E0,-7.2672063E-1,-1.5691637E0,-1.2306225E0,1.304685E-1,-1.0499932E0,3.5594302E-1,1.2964745E0,-1.3211759E0,-1.7492133E-1,-1.2383425E0,-1.5711516E-1,-1.2753897E0,1.9036885E-1,-1.5777151E-1,9.7254896E-1,-1.4919625E-1,-3.9238998E-1,7.037589E-1,-1.049674E0,1.3764693E0,9.477846E-1,-5.8030194E-1,-1.5597395E0,3.680075E-1,-7.6866156E-1,-1.5306057E-1,1.6912852E-1,-1.0435965E0,-1.5028841E0,-9.178208E-2,8.911393E-2,2.4600066E-1,-9.572709E-1,1.4527208E-1,-5.4424662E-2,-1.2625122E-1,-5.883666E-2,-1.3168323E0,8.803343E-1,-1.0807241E0,1.3717102E-1,5.751096E-1,1.3901056E0,3.7161902E-1,1.0226036E0,-1.1834868E0,2.1043421E-1,-1.2360196E0,-1.7506545E0,5.547104E-1,-5.909672E-1,-5.9195685E-1,-1.5412087E0,-1.1364106E-1,1.2369004E0,-1.205999E0,-8.542173E-2,-1.5327363E0,-1.1482084E-2,-3.1750304E-1,9.7237545E-1,-1.2975177E-1,2.585798E-2,7.653016E-1,-6.008578E-1,1.3125792E0,-1.7549229E-1,1.1112071E0,1.774034E-1,-1.2797687E0,-7.1702087E-1,7.034078E-1,-2.5884902E-1,1.4235945E0,1.2936027E0,5.725977E-1,-8.628733E-1,-1.2314379E0,1.0389794E0,-1.6866578E-1,-7.364354E-1,-1.1683507E0,4.14928E-1,-1.4476868E0,-4.7386414E-1,-1.5348964E0,-1.9053248E0,1.0604648E-1,7.333815E-1,-8.1473607E-1,3.49242E-1,-1.1112862E0,-3.2207292E-1,-3.5777363E-1,-1.6426768E0,1.4475545E-1,3.9696556E-2,-4.0079113E-2,-1.2782398E-1,8.67508E-2,-1.1304406E-1,-1.5666355E-1,-4.048531E-2,1.381914E-2,-8.930337E-2,1.4538862E-1,-1.37747815E-2,1.9124078E-2,1.1217868E-1,-1.0598923E-1,6.23963E-2,1.6169654E-1,-4.864602E-2,1.5824224E-1,8.970638E-2,-1.0865547E-1,3.934759E-2,1.2884529E-1,-1.3088655E-1,-4.8027653E-2,-1.16079085E-1,-1.2146199E-1,8.267032E-2,9.286763E-2,-1.3945556E-1,4.873561E-2,1.4274545E-1,1.5139686E-1,1.2248913E-1,6.624921E-2,-9.8639786E-2,-1.2812096E-1,2.0317312E-2,-4.049476E-3,-1.5012811E-1,-1.1442696E-1,1.05154626E-1,-1.6173555E-1,-4.6739172E-2,-1.8412589E-1,5.1325906E-2,-6.820004E-2,5.2835196E-2,-1.0984959E-1,-1.7757696E-1,-1.269019E-1,3.7771508E-2,-1.6053122E-1,-1.1655722E-1,-1.918604E-1,-5.3709067E-2,3.468154E-2,-8.507939E-2,8.30751E-2,-6.2541375E-3,2.1225182E-2,-1.1834033E-1,8.1687875E-2,-5.009774E-2,-1.5002981E-1,-2.7280021E-2,-1.6181678E-1,-2.2494677E-2,6.680132E-2,-1.3452531E-1,-1.3793987E-1,-1.8724231E-1],"categories":[],"categories_nodes":[],"categories_segments":[],"categories_sizes":[],"default_left":[0,0,0,0,0,0,0,0,0,0,0,0,0,0,0,0,0,0,0,0,0,0,0,0,0,0,0,0,0,0,0,0,0,0,0,0,0,0,0,0,0,0,0,0,0,0,0,0,0,0,0,0,0,0,0,0,0,0,0,0,0,0,0,0,0,0,0,0,0,0,0,0,0,0,0,0,0,0,0,0,0,0,0,0,0,0,0,0,0,0,0,0,0,0,0,0,0,0,0,0,0,0,0,0,0,0,0,0,0,0,0,0,0,0,0,0,0,0,0,0,0,0,0,0,0,0,0,0,0,0,0,0,0,0,0,0,0,0,0,0,0,0,0,0,0,0,0,0,0,0,0,0,0,0,0,0,0,0,0,0,0,0,0,0,0,0,0,0,0,0,0,0,0],"id":3,"left_children":[1,3,5,7,9,11,13,15,17,19,21,23,25,27,29,31,-1,33,35,37,39,-1,41,43,45,47,49,51,53,55,57,-1,59,61,63,-1,-1,65,67,-1,-1,-1,69,71,73,75,-1,77,79,81,83,85,87,89,91,93,95,97,99,-1,101,103,105,107,-1,109,111,-1,-1,113,115,117,-1,119,121,123,125,127,129,131,133,135,137,139,141,-1,143,145,147,149,151,153,155,157,159,161,163,165,167,169,171,-1,-1,-1,-1,-1,-1,-1,-1,-1,-1,-1,-1,-1,-1,-1,-1,-1,-1,-1,-1,-1,-1,-1,-1,-1,-1,-1,-1,-1,-1,-1,-1,-1,-1,-1,-1,-1,-1,-1,-1,-1,-1,-1,-1,-1,-1,-1,-1,-1,-1,-1,-1,-1,-1,-1,-1,-1,-1,-1,-1,-1,-1,-1,-1,-1,-1,-1,-1,-1,-1,-1,-1],"loss_changes":[1.9194838E4,5.1969727E1,3.2865713E3,1.05546875E1,1.6228973E1,1.01564746E3,3.5942108E2,1.2763672E0,7.625366E0,5.8622794E0,6.300213E0,6.888367E2,1.7370215E2,9.2357056E1,1.8395331E2,1.424572E1,0E0,4.3711853E0,4.2462263E0,6.1697283E0,5.2606373E0,0E0,3.0832942E0,4.039234E2,2.2503021E1,5.4942383E1,5.022888E1,6.230942E1,2.246753E1,5.3735794E1,3.6283844E1,0E0,1.0811128E1,9.087944E0,2.0853806E0,0E0,0E0,5.6338186E0,2.971951E0,0E0,0E0,0E0,4.441512E0,1.0726874E2,1.6837805E2,1.9106903E1,0E0,9.4967E0,1.4366211E1,3.436077E1,3.9611816E1,1.5395302E1,1.6599442E1,2.3714386E1,5.361511E0,1.9979156E1,1.0613701E1,3.0950172E1,5.428093E0,0E0,1.6678905E-1,2.4210281E0,1.0576733E1,1.4053192E0,0E0,2.2425432E0,3.3698916E0,0E0,0E0,5.9918284E-1,3.9994843E0,8.226234E0,0E0,7.74635E1,7.089118E1,1.4950226E1,9.960106E0,1.8910221E1,1.7935457E1,1.2723145E1,1.7874023E1,1.7189232E1,8.96118E0,2.4934158E0,2.9505493E1,0E0,8.947201E0,9.594702E0,6.644661E0,1.1555145E1,2.374723E1,9.588318E-1,1.5218811E0,1.6981005E1,1.390657E1,1.5379606E1,4.440164E0,2.4373596E1,1.831694E1,6.201048E0,1.9132233E-1,0E0,0E0,0E0,0E0,0E0,0E0,0E0,0E0,0E0,0E0,0E0,0E0,0E0,0E0,0E0,0E0,0E0,0E0,0E0,0E0,0E0,0E0,0E0,0E0,0E0,0E0,0E0,0E0,0E0,0E0,0E0,0E0,0E0,0E0,0E0,0E0,0E0,0E0,0E0,0E0,0E0,0E0,0E0,0E0,0E0,0E0,0E0,0E0,0E0,0E0,0E0,0E0,0E0,0E0,0E0,0E0,0E0,0E0,0E0,0E0,0E0,0E0,0E0,0E0,0E0,0E0,0E0,0E0,0E0,0E0,0E0,0E0],"parents":[2147483647,0,0,1,1,2,2,3,3,4,4,5,5,6,6,7,7,8,8,9,9,10,10,11,11,12,12,13,13,14,14,15,15,17,17,18,18,19,19,20,20,22,22,23,23,24,24,25,25,26,26,27,27,28,28,29,29,30,30,32,32,33,33,34,34,37,37,38,38,42,42,43,43,44,44,45,45,47,47,48,48,49,49,50,50,51,51,52,52,53,53,54,54,55,55,56,56,57,57,58,58,60,60,61,61,62,62,63,63,65,65,66,66,69,69,70,70,71,71,73,73,74,74,75,75,76,76,77,77,78,78,79,79,80,80,81,81,82,82,83,83,84,84,86,86,87,87,88,88,89,89,90,90,91,91,92,92,93,93,94,94,95,95,96,96,97,97,98,98,99,99,100,100],"right_children":[2,4,6,8,10,12,14,16,18,20,22,24,26,28,30,32,-1,34,36,38,40,-1,42,44,46,48,50,52,54,56,58,-1,60,62,64,-1,-1,66,68,-1,-1,-1,70,72,74,76,-1,78,80,82,84,86,88,90,92,94,96,98,100,-1,102,104,106,108,-1,110,112,-1,-1,114,116,118,-1,120,122,124,126,128,130,132,134,136,138,140,142,-1,144,146,148,150,152,154,156,158,160,162,164,166,168,170,172,-1,-1,-1,-1,-1,-1,-1,-1,-1,-1,-1,-1,-1,-1,-1,-1,-1,-1,-1,-1,-1,-1,-1,-1,-1,-1,-1,-1,-1,-1,-1,-1,-1,-1,-1,-1,-1,-1,-1,-1,-1,-1,-1,-1,-1,-1,-1,-1,-1,-1,-1,-1,-1,-1,-1,-1,-1,-1,-1,-1,-1,-1,-1,-1,-1,-1,-1,-1,-1,-1,-1,-1],"split_conditions":[1.788635E-3,1.731702E-3,1.6120723E-1,1.630717E-3,1.2906629E-1,1.3445696E-1,1.7383859E-1,5.0781228E-2,2.3636158E-1,1.2474698E-1,1.6895673E-1,1.3436145E-1,1.415031E-1,1.6861908E-1,1.749327E-1,2.8692666E-2,-1.5711516E-1,1.3106301E-1,1.3445696E-1,1.0370678E-1,3.5868344E-1,-1.4919625E-1,1.6887441E-1,7.508528E-2,1.2021377E-1,6.8050355E-4,1.5773389E-1,1.376251E-1,3.091018E-3,7.271733E-3,2.1128477E-1,-1.5306057E-1,3.4933522E0,1.2571576E-1,2.8059474E-1,-9.178208E-2,8.911393E-2,1.8146762E-3,9.834517E-2,1.4527208E-1,-5.4424662E-2,-1.2625122E-1,1.9904539E-1,6.3613825E-2,1.3747707E-1,9.45632E-3,1.3717102E-1,3.4053843E-3,5.643295E-3,5.2307853E-3,6.048921E-4,8.37806E-2,2.359825E-3,9.834517E-2,9.342841E-2,1.0403395E-1,1.8607127E-2,2.1805865E-1,1.8080677E-1,-1.1364106E-1,5.1354587E-2,3.082843E-2,1.2097842E-3,7.895753E-1,-1.1482084E-2,3.8533857E-1,4.2284003E-1,-1.2975177E-1,2.585798E-2,1.1118762E-1,2.571193E-1,5.4590674E-3,-1.7549229E-1,5.9624594E-2,9.151151E-2,1.1877034E-1,1.8607127E-2,1.8902877E-4,1.7166354E-1,5.578351E-3,6.573136E-2,6.31269E-1,9.793034E-3,2.110043E-1,1.146824E-2,-1.6866578E-1,1.09125175E-1,4.4497386E-1,2.548605E-1,1.8233848E-1,1.14407815E-1,8.69129E-3,5.26673E-1,7.9087645E-2,2.917286E-1,1.6352248E-1,2.3547561E-1,9.263966E-2,2.494251E-3,7.183093E-4,2.2407624E-1,1.4475545E-1,3.9696556E-2,-4.0079113E-2,-1.2782398E-1,8.67508E-2,-1.1304406E-1,-1.5666355E-1,-4.048531E-2,1.381914E-2,-8.930337E-2,1.4538862E-1,-1.37747815E-2,1.9124078E-2,1.1217868E-1,-1.0598923E-1,6.23963E-2,1.6169654E-1,-4.864602E-2,1.5824224E-1,8.970638E-2,-1.0865547E-1,3.934759E-2,1.2884529E-1,-1.3088655E-1,-4.8027653E-2,-1.16079085E-1,-1.2146199E-1,8.267032E-2,9.286763E-2,-1.3945556E-1,4.873561E-2,1.4274545E-1,1.5139686E-1,1.2248913E-1,6.624921E-2,-9.8639786E-2,-1.2812096E-1,2.0317312E-2,-4.049476E-3,-1.5012811E-1,-1.1442696E-1,1.05154626E-1,-1.6173555E-1,-4.6739172E-2,-1.8412589E-1,5.1325906E-2,-6.820004E-2,5.2835196E-2,-1.0984959E-1,-1.7757696E-1,-1.269019E-1,3.7771508E-2,-1.6053122E-1,-1.1655722E-1,-1.918604E-1,-5.3709067E-2,3.468154E-2,-8.507939E-2,8.30751E-2,-6.2541375E-3,2.1225182E-2,-1.1834033E-1,8.1687875E-2,-5.009774E-2,-1.5002981E-1,-2.7280021E-2,-1.6181678E-1,-2.2494677E-2,6.680132E-2,-1.3452531E-1,-1.3793987E-1,-1.8724231E-1],"split_indices":[9,9,12,9,12,11,11,2,15,12,11,11,12,12,12,14,0,12,11,12,13,0,13,11,12,15,11,11,9,9,12,0,13,12,11,0,0,15,15,0,0,0,11,12,12,9,0,9,9,9,15,11,9,15,11,14,9,11,11,0,7,12,15,2,0,3,7,0,0,14,11,9,0,12,11,12,9,15,11,13,12,2,9,2,13,0,14,3,13,12,11,9,14,14,11,12,11,15,9,15,12,0,0,0,0,0,0,0,0,0,0,0,0,0,0,0,0,0,0,0,0,0,0,0,0,0,0,0,0,0,0,0,0,0,0,0,0,0,0,0,0,0,0,0,0,0,0,0,0,0,0,0,0,0,0,0,0,0,0,0,0,0,0,0,0,0,0,0,0,0,0,0,0],"split_type":[0,0,0,0,0,0,0,0,0,0,0,0,0,0,0,0,0,0,0,0,0,0,0,0,0,0,0,0,0,0,0,0,0,0,0,0,0,0,0,0,0,0,0,0,0,0,0,0,0,0,0,0,0,0,0,0,0,0,0,0,0,0,0,0,0,0,0,0,0,0,0,0,0,0,0,0,0,0,0,0,0,0,0,0,0,0,0,0,0,0,0,0,0,0,0,0,0,0,0,0,0,0,0,0,0,0,0,0,0,0,0,0,0,0,0,0,0,0,0,0,0,0,0,0,0,0,0,0,0,0,0,0,0,0,0,0,0,0,0,0,0,0,0,0,0,0,0,0,0,0,0,0,0,0,0,0,0,0,0,0,0,0,0,0,0,0,0,0,0,0,0,0,0],"sum_hessian":[1.3836391E4,5.0613813E3,8.775009E3,5.01617E3,4.5211422E1,7.6795757E3,1.0954337E3,4.901117E3,1.1505278E2,2.2520142E1,2.2691282E1,1.4064529E3,6.2731226E3,5.2666327E2,5.687704E2,3.3002163E1,4.868115E3,1.11638176E2,3.414602E0,1.7382751E1,5.1373897E0,1.2811799E1,9.879483E0,1.1278652E3,2.7858768E2,5.100127E3,1.1729955E3,1.2911647E2,3.9754678E2,2.972964E2,2.7147403E2,2.7255116E1,5.7470446E0,5.8064175E1,5.3574E1,1.2027915E0,2.2118106E0,1.2009756E1,5.372995E0,3.9341881E0,1.2032018E0,1.9659579E0,7.9135256E0,9.0121994E1,1.0377433E3,2.7560715E2,2.9805129E0,8.6056274E1,5.014071E3,1.3550056E2,1.0374949E3,7.296274E1,5.615372E1,1.502514E2,2.472954E2,2.4920097E2,4.809541E1,2.2237614E2,4.9097866E1,2.5567212E0,3.1903236E0,4.942792E1,8.636254E0,5.2344044E1,1.2299571E0,7.08009E0,4.929666E0,4.145687E0,1.227308E0,2.9762394E0,4.937286E0,1.2585845E1,7.753615E1,7.8073535E2,2.570079E2,1.7649669E2,9.911046E1,7.471802E1,1.133826E1,3.7121187E3,1.3019521E3,1.1699038E2,1.851018E1,6.947936E0,1.030547E3,3.3022263E1,3.994048E1,6.6439533E0,4.950977E1,1.1688924E2,3.3362164E1,1.07817924E2,1.3947748E2,7.1428696E1,1.7777228E2,3.8957108E1,9.138302E0,7.4978905E1,1.4739725E2,4.2346473E0,4.486322E1,1.9722697E0,1.218054E0,4.6085224E0,4.48194E1,4.606004E0,4.03025E0,5.0439064E1,1.9049807E0,4.375522E0,2.704568E0,3.2223325E0,1.7073334E0,1.7287822E0,1.2474574E0,3.6892831E0,1.2480029E0,1.0851111E1,1.7347333E0,2.4194771E2,5.387876E2,3.6932922E1,2.2007498E2,1.492361E0,1.7500433E2,6.5988754E1,3.3121704E1,3.9783301E0,7.0739685E1,5.6317954E0,5.7064643E0,1.5764087E1,3.6963547E3,3.0446426E2,9.974879E2,1.1115599E2,5.834395E0,1.3148596E1,5.361583E0,1.4959004E0,5.452036E0,5.3825164E0,1.0251644E3,8.171929E0,3.176855E1,4.6773434E0,1.9666103E0,4.169876E0,4.5339893E1,5.8729465E1,5.815977E1,1.6999155E1,1.6363008E1,8.7742256E1,2.0075672E1,1.3773843E2,1.7390356E0,5.757795E1,1.385075E1,1.5835597E2,1.94163E1,1.0402728E1,2.8554379E1,5.920906E0,3.217396E0,5.0677845E1,2.4301062E1,9.183816E0,1.3821342E2,2.2357168E0,1.9989302E0,2.4169802E1,2.0693417E1],"tree_param":{"num_deleted":"0","num_feature":"16","num_nodes":"173","size_leaf_vector":"1"}},{"base_weights":[-1.8431979E-3,8.231769E-1,-1.4733877E0,1.0520753E0,-5.889231E-1,-1.4819117E0,-9.28038E-1,1.2427238E0,8.811798E-1,3.0904137E-2,-1.0439737E0,-1.4890285E-1,-1.3158444E0,-9.770853E-1,9.706872E-2,2.3376301E-1,1.2566206E0,-7.3574334E-1,1.0181371E0,-1.0582031E0,1.0730386E-1,-7.4141353E-1,-1.276087E0,-1.3428063E0,-3.319707E-1,2.0864358E-2,-1.0748492E0,5.9513706E-1,-4.9858177E-1,1.4498483E0,1.2050997E0,-6.595018E-1,-1.1626669E0,1.1865469E0,7.2140557E-1,-2.9433084E-1,-1.2076515E0,-5.435377E-1,2.1943104E-1,4.2491013E-1,-7.681751E-1,-1.6054518E0,-1.1753391E0,-4.6071246E-1,-1.366242E0,3.2481608E-1,-1.1065109E-1,6.6619337E-1,-1.1256691E-1,-1.123879E0,1.08557284E-1,-2.4850439E-1,8.075174E-1,6.537873E-1,-1.0626408E0,-8.94415E-2,1.455032E0,9.561857E-1,1.3299861E0,-1.4111054E-1,-6.23151E-1,-1.3150918E-1,-7.108761E-1,1.2823646E0,1.1084828E0,-8.575668E-1,7.3974556E-1,-1.1634532E-1,5.3131765E-1,-1.5237521E0,-5.174975E-1,-3.7279645E-1,-1.1909308E0,2.792897E-1,-6.018998E-1,-1.4077969E-1,1.4756364E-1,-1.2191987E0,-6.752768E-1,-1.6631167E-1,-9.3500495E-1,-1.4641194E0,-1.0014609E0,9.15648E-2,-9.3344145E-2,-1.2584641E0,-1.467633E-1,-5.9407335E-2,9.6662275E-2,-8.482727E-2,1.2583654E-1,-8.535273E-1,-1.3114928E-1,-5.4780144E-2,7.737618E-2,-9.571918E-2,6.2272E-2,-6.923851E-2,9.388937E-2,9.5093556E-2,-2.9576743E-2,-1.2641005E-1,6.1637694E-3,1.4757256E-1,1.0650452E-1,3.227758E-2,1.0426594E-1,7.166374E-2,1.3422368E-1,-7.248208E-2,-4.0610693E-2,-4.169273E-2,-1.2130629E-1,1.2882864E-1,2.8131811E-2,-4.8381794E-2,1.1172012E-1,-2.6235698E-2,-1.0057966E-1,8.837923E-2,5.4063763E-2,-1.9494936E-2,9.038507E-2,-7.820096E-2,-1.7670074E-1,9.8899856E-2,-8.3486125E-2,-5.1905983E-3,-6.193746E-2,-1.466356E-1,5.0374895E-2,-1.6241211E-2,3.9416116E-2,-2.5188843E-2,-1.5948375E-1,-1.4513922E-1,-3.3163116E-3,-7.0697315E-2,1.0180985E-1,9.030023E-2,-1.5476842E-1,-1.5671127E-1,-4.5884494E-2,-8.378706E-2,-1.4295952E-1,-9.4450824E-2,-1.3842721E-1,-1.2566453E-1,5.0102543E-2],"categories":[],"categories_nodes":[],"categories_segments":[],"categories_sizes":[],"default_left":[0,0,0,0,0,0,0,0,0,0,0,0,0,0,0,0,0,0,0,0,0,0,0,0,0,0,0,0,0,0,0,0,0,0,0,0,0,0,0,0,0,0,0,0,0,0,0,0,0,0,0,0,0,0,0,0,0,0,0,0,0,0,0,0,0,0,0,0,0,0,0,0,0,0,0,0,0,0,0,0,0,0,0,0,0,0,0,0,0,0,0,0,0,0,0,0,0,0,0,0,0,0,0,0,0,0,0,0,0,0,0,0,0,0,0,0,0,0,0,0,0,0,0,0,0,0,0,0,0,0,0,0,0,0,0,0,0,0,0,0,0,0,0,0,0,0,0,0,0],"id":4,"left_children":[1,3,5,7,9,11,13,15,17,19,21,-1,23,25,-1,27,29,31,33,35,37,39,41,43,45,47,49,51,53,55,57,59,61,63,65,67,69,71,73,75,77,79,81,83,85,87,-1,89,-1,91,93,95,97,99,101,-1,103,105,107,-1,109,-1,111,113,115,117,119,-1,121,123,125,127,129,131,133,-1,-1,135,137,-1,139,141,143,-1,-1,145,-1,-1,-1,-1,-1,147,-1,-1,-1,-1,-1,-1,-1,-1,-1,-1,-1,-1,-1,-1,-1,-1,-1,-1,-1,-1,-1,-1,-1,-1,-1,-1,-1,-1,-1,-1,-1,-1,-1,-1,-1,-1,-1,-1,-1,-1,-1,-1,-1,-1,-1,-1,-1,-1,-1,-1,-1,-1,-1,-1,-1,-1,-1],"loss_changes":[1.6245146E4,2.7719512E3,2.0969727E1,2.3929883E2,3.3753564E2,3.631836E0,8.086914E0,4.8572754E1,8.631106E2,4.2345646E1,4.7514526E1,0E0,4.939972E0,7.361244E0,0E0,1.315314E1,3.2475098E1,9.149979E0,1.7857007E2,3.453186E0,3.479717E1,9.751053E0,1.1024292E1,3.448883E0,3.7899976E0,6.4415092E0,4.098175E0,6.110484E0,1.1481569E1,1.0034912E1,8.3278076E1,6.2464905E0,2.153965E0,1.5699951E1,3.8353516E1,5.4844384E0,5.2284775E0,7.307102E0,2.0131878E1,1.6359665E1,1.1559357E1,1.862915E0,1.36822815E1,5.15845E0,2.4752808E-1,3.1823096E0,0E0,6.0450687E0,0E0,2.2226868E0,2.01234E0,5.163889E0,5.8888264E0,1.9946957E0,2.6877022E0,0E0,4.218628E0,4.963153E1,1.262793E1,0E0,5.235016E0,0E0,1.4858603E0,5.6916504E0,1.8152954E1,1.0964642E0,3.646649E1,0E0,1.3028601E0,1.9385986E0,5.692068E0,4.4734945E0,7.3566227E0,1.9302505E1,9.294914E0,0E0,0E0,1.3510307E1,1.3993271E1,0E0,1.1854409E1,1.0795929E1,1.2212494E1,0E0,0E0,2.6393585E0,0E0,0E0,0E0,0E0,0E0,1.6932812E1,0E0,0E0,0E0,0E0,0E0,0E0,0E0,0E0,0E0,0E0,0E0,0E0,0E0,0E0,0E0,0E0,0E0,0E0,0E0,0E0,0E0,0E0,0E0,0E0,0E0,0E0,0E0,0E0,0E0,0E0,0E0,0E0,0E0,0E0,0E0,0E0,0E0,0E0,0E0,0E0,0E0,0E0,0E0,0E0,0E0,0E0,0E0,0E0,0E0,0E0,0E0,0E0,0E0,0E0,0E0,0E0,0E0],"parents":[2147483647,0,0,1,1,2,2,3,3,4,4,5,5,6,6,7,7,8,8,9,9,10,10,12,12,13,13,15,15,16,16,17,17,18,18,19,19,20,20,21,21,22,22,23,23,24,24,25,25,26,26,27,27,28,28,29,29,30,30,31,31,32,32,33,33,34,34,35,35,36,36,37,37,38,38,39,39,40,40,41,41,42,42,43,43,44,44,45,45,47,47,49,49,50,50,51,51,52,52,53,53,54,54,56,56,57,57,58,58,60,60,62,62,63,63,64,64,65,65,66,66,68,68,69,69,70,70,71,71,72,72,73,73,74,74,77,77,78,78,80,80,81,81,82,82,85,85,91,91],"right_children":[2,4,6,8,10,12,14,16,18,20,22,-1,24,26,-1,28,30,32,34,36,38,40,42,44,46,48,50,52,54,56,58,60,62,64,66,68,70,72,74,76,78,80,82,84,86,88,-1,90,-1,92,94,96,98,100,102,-1,104,106,108,-1,110,-1,112,114,116,118,120,-1,122,124,126,128,130,132,134,-1,-1,136,138,-1,140,142,144,-1,-1,146,-1,-1,-1,-1,-1,148,-1,-1,-1,-1,-1,-1,-1,-1,-1,-1,-1,-1,-1,-1,-1,-1,-1,-1,-1,-1,-1,-1,-1,-1,-1,-1,-1,-1,-1,-1,-1,-1,-1,-1,-1,-1,-1,-1,-1,-1,-1,-1,-1,-1,-1,-1,-1,-1,-1,-1,-1,-1,-1,-1,-1,-1,-1],"split_conditions":[1.5023986E-1,1.5909988E-1,1.684342E-3,1.1994218E-1,1.7078376E-1,1.466212E-3,1.788635E-3,5.292806E-4,1.2021377E-1,2.092843E-3,1.8452837E-1,-1.4890285E-1,2.3636158E-1,4.998779E-2,9.706872E-2,3.2728872E-1,5.8551494E-2,1.4384058E-1,1.415031E-1,4.1186105E-2,1.1700041E-1,2.53896E-2,2.4992315E-1,3.082843E-2,1.3922073E-1,1.1118762E-1,2.3636158E-1,5.4656748E-2,5.9624594E-2,1.0894693E-2,9.249589E-2,8.068033E-2,1.311045E-1,1.2939665E-1,1.8246316E-3,3.1913627E-2,1.4503516E-1,1.4725341E-1,6.507146E-1,3.287191E-2,1.1700041E-1,9.793034E-3,1.22001745E-1,4.120596E-2,1.3783784E-1,1.2939665E-1,-1.1065109E-1,2.5381663E-1,-1.1256691E-1,1.2906629E-1,1.6153727E-1,3.4025178E-4,6.0635872E-2,2.6006043E-1,1.12725876E-1,-8.94415E-2,4.965107E-1,1.091365E-1,1.8779715E-3,-1.4111054E-1,9.45632E-3,-1.3150918E-1,2.3636158E-1,7.65732E-1,6.426978E-4,1.5290329E-1,1.5049706E-1,-1.1634532E-1,1.8779715E-3,1.4718708E-1,2.7053046E-1,1.6352248E-1,3.358608E-1,2.0155658E-1,1.756687E-1,-1.4077969E-1,1.4756364E-1,1.8607127E-2,6.973055E-3,-1.6631167E-1,1.8165631E-2,2.5004727E-1,2.4063373E-2,9.15648E-2,-9.3344145E-2,8.303021E-2,-1.467633E-1,-5.9407335E-2,9.6662275E-2,-8.482727E-2,1.2583654E-1,1.2447216E-1,-1.3114928E-1,-5.4780144E-2,7.737618E-2,-9.571918E-2,6.2272E-2,-6.923851E-2,9.388937E-2,9.5093556E-2,-2.9576743E-2,-1.2641005E-1,6.1637694E-3,1.4757256E-1,1.0650452E-1,3.227758E-2,1.0426594E-1,7.166374E-2,1.3422368E-1,-7.248208E-2,-4.0610693E-2,-4.169273E-2,-1.2130629E-1,1.2882864E-1,2.8131811E-2,-4.8381794E-2,1.1172012E-1,-2.6235698E-2,-1.0057966E-1,8.837923E-2,5.4063763E-2,-1.9494936E-2,9.038507E-2,-7.820096E-2,-1.7670074E-1,9.8899856E-2,-8.3486125E-2,-5.1905983E-3,-6.193746E-2,-1.466356E-1,5.0374895E-2,-1.6241211E-2,3.9416116E-2,-2.5188843E-2,-1.5948375E-1,-1.4513922E-1,-3.3163116E-3,-7.0697315E-2,1.0180985E-1,9.030023E-2,-1.5476842E-1,-1.5671127E-1,-4.5884494E-2,-8.378706E-2,-1.4295952E-1,-9.4450824E-2,-1.3842721E-1,-1.2566453E-1,5.0102543E-2],"split_indices":[0,12,8,12,12,8,8,15,12,8,12,0,15,12,0,7,12,15,12,14,0,7,7,12,12,14,15,14,12,14,12,0,0,12,8,14,14,15,4,14,0,8,0,4,12,12,0,7,0,12,14,15,7,4,12,0,4,0,8,0,8,0,15,7,15,7,12,0,8,0,4,12,14,4,15,0,0,8,8,0,14,15,15,0,0,14,0,0,0,0,0,12,0,0,0,0,0,0,0,0,0,0,0,0,0,0,0,0,0,0,0,0,0,0,0,0,0,0,0,0,0,0,0,0,0,0,0,0,0,0,0,0,0,0,0,0,0,0,0,0,0,0,0,0,0,0,0,0,0],"split_type":[0,0,0,0,0,0,0,0,0,0,0,0,0,0,0,0,0,0,0,0,0,0,0,0,0,0,0,0,0,0,0,0,0,0,0,0,0,0,0,0,0,0,0,0,0,0,0,0,0,0,0,0,0,0,0,0,0,0,0,0,0,0,0,0,0,0,0,0,0,0,0,0,0,0,0,0,0,0,0,0,0,0,0,0,0,0,0,0,0,0,0,0,0,0,0,0,0,0,0,0,0,0,0,0,0,0,0,0,0,0,0,0,0,0,0,0,0,0,0,0,0,0,0,0,0,0,0,0,0,0,0,0,0,0,0,0,0,0,0,0,0,0,0,0,0,0,0,0,0],"sum_hessian":[1.3378912E4,8.57294E3,4.8059707E3,7.377344E3,1.1955966E3,4.730318E3,7.565285E1,3.4841748E3,3.8931697E3,5.065516E2,6.890449E2,4.5282915E3,2.0202664E2,7.422099E1,1.431855E0,4.7578865E1,3.436596E3,3.03669E2,3.5895005E3,3.2362396E1,4.741892E2,3.0095004E2,3.8809485E2,1.9628291E2,5.743724E0,6.6924763E0,6.752852E1,3.1983852E1,1.5595013E1,7.177084E2,2.7188875E3,2.5981506E2,4.385393E1,2.287967E3,1.3015336E3,5.781418E0,2.658098E1,6.9122215E1,4.05067E2,6.4167657E0,2.945333E2,8.740745E1,3.006874E2,5.6145816E0,1.9066833E2,3.4223273E0,2.3213966E0,4.550287E0,2.1421897E0,6.489035E1,2.6381721E0,6.398181E0,2.5585672E1,5.0726156E0,1.0522397E1,1.2049972E0,7.165034E2,9.112699E2,1.8076177E3,1.0241364E1,2.4957372E2,3.1362144E1,1.2491786E1,1.02025525E3,1.2677118E3,1.4418499E1,1.2871151E3,2.6172352E0,3.1641824E0,1.7402527E1,9.1784525E0,5.594367E1,1.317855E1,3.781662E2,2.6900814E1,2.2144413E0,4.2023244E0,4.8233654E1,2.4629964E2,7.912163E1,8.285821E0,1.1021679E2,1.9047061E2,1.1958623E0,4.4187193E0,9.8924324E1,9.174401E1,1.4379518E0,1.9843755E0,1.1575085E0,3.3927784E0,2.885691E1,3.6033436E1,1.4167517E0,1.2214203E0,3.4737914E0,2.9243894E0,1.7166541E0,2.3869019E1,3.862464E0,1.2101514E0,8.817943E0,1.7044545E0,6.777559E2,3.8747494E1,1.1003189E2,8.01238E2,3.6562115E1,1.7710555E3,1.6836644E2,8.1207275E1,9.034043E0,3.4577427E0,1.01397E3,6.285294E0,6.6065755E0,1.2611052E3,3.427095E0,1.0991404E1,7.4482495E2,5.422901E2,1.2343887E0,1.9297938E0,5.3386126E0,1.2063914E1,1.2288629E0,7.9495897E0,2.48348E1,3.1108868E1,1.1452052E1,1.7264972E0,7.796452E1,3.0020166E2,2.0816618E1,6.084196E0,4.01497E1,8.083955E0,2.4234595E2,3.9536827E0,1.9530151E0,6.3328056E0,9.94672E1,1.0749587E1,1.3995197E2,5.0518658E1,3.0734196E1,6.819013E1,2.2294344E1,6.5625668E0],"tree_param":{"num_deleted":"0","num_feature":"16","num_nodes":"149","size_leaf_vector":"1"}},{"base_weights":[-2.3377193E-3,-1.3989104E0,7.662694E-1,-1.4131291E0,-7.3337567E-1,9.8189366E-1,-5.3488374E-1,-1.4204697E-1,-1.2438147E0,-3.5936046E-1,-1.0924E0,2.7899104E-1,1.1416738E0,-1.0948837E0,-3.9968375E-2,-4.2173737E-1,-1.2656444E0,-6.385629E-1,7.541276E-1,-1.1834117E0,7.161824E-2,5.8295953E-1,-9.157149E-1,1.2106297E0,8.522553E-1,-4.9974948E-1,-1.3569423E0,4.0692696E-1,-5.633899E-1,8.575208E-2,-8.7649655E-1,-1.2778097E0,-1.9634414E-1,-9.8430336E-1,-1.6005273E-1,1.1986753E0,-8.0281615E-2,-1.2641997E0,2.5354528E-1,-1.3327839E0,7.300936E-1,-9.4375825E-1,1.1810173E-1,1.1166246E0,1.2425797E0,3.130378E-1,9.231655E-1,-1.5297529E0,-1.0145891E-1,-1.061631E0,-1.5329167E0,5.4728967E-1,-3.033672E-1,-4.1268274E-1,-1.2913938E0,-1.0845081E-1,-3.1310096E-2,-1.1384127E0,-1.4286125E-1,-8.256474E-2,5.1377084E-2,-2.3744425E-2,-1.2290658E0,-3.912665E-1,1.1565246E-1,1.334583E-1,2.0774128E-2,-3.4654206E-1,-1.3316493E-1,1.1301074E-1,-7.954969E-2,1.1129655E0,-1.6881758E-1,1.3302096E0,4.908535E-1,-1.1354071E0,-6.0397863E-1,1.2736655E0,8.884541E-1,1.2915007E0,1.1417832E0,5.173625E-1,-7.4263537E-1,1.0247009E0,7.1564585E-1,-1.5928373E-1,-8.1168854E-1,-9.103529E-1,4.8824064E-2,-1.5594533E-1,-8.17342E-1,-1.3790492E0,-1.6354111E0,9.661593E-2,7.2116834E-1,2.2213826E-1,-6.4230776E-1,-7.8637576E-1,-1.5961929E-1,-2.5467092E-1,-1.3826246E0,-1.2709193E-1,-6.944346E-2,-9.8491244E-2,6.747623E-2,-1.3699023E-1,1.6676284E-3,6.2409054E-2,-8.811589E-2,-1.0547351E-1,8.60846E-2,1.3269466E-1,-2.3668693E-2,-1.2656927E-1,1.3462518E-1,-2.2613859E-2,6.6632606E-2,1.1366385E-1,-1.1625215E-1,-3.9085697E-2,-1.0143695E-1,1.2808731E-1,-1.7156735E-2,1.0537364E-1,-1.1852506E-2,1.305307E-1,1.01230346E-1,8.0450445E-2,1.18251026E-1,-5.47745E-2,6.600254E-2,-1.0273599E-1,1.2588212E-2,1.275856E-2,1.0387426E-1,8.216622E-2,3.8866933E-2,-1.4913238E-2,-1.1618004E-1,-1.1948057E-1,-1.2440097E-2,-3.0024335E-2,3.44862E-2,-1.4878987E-1,-5.0819524E-2,-1.456217E-1,-9.885868E-2,-1.6473694E-1,-4.354627E-2,2.1515368E-2,-1.1524593E-1,-1.0683949E-2,8.4426634E-2,-1.0722046E-1,5.2652676E-2,-9.976558E-2,2.2739265E-2,-6.1274874E-3,-1.0510247E-1,-1.660877E-1,-6.6919005E-3,3.703102E-2,-1.0912385E-1,-1.139604E-1,-1.6031587E-1],"categories":[],"categories_nodes":[],"categories_segments":[],"categories_sizes":[],"default_left":[0,0,0,0,0,0,0,0,0,0,0,0,0,0,0,0,0,0,0,0,0,0,0,0,0,0,0,0,0,0,0,0,0,0,0,0,0,0,0,0,0,0,0,0,0,0,0,0,0,0,0,0,0,0,0,0,0,0,0,0,0,0,0,0,0,0,0,0,0,0,0,0,0,0,0,0,0,0,0,0,0,0,0,0,0,0,0,0,0,0,0,0,0,0,0,0,0,0,0,0,0,0,0,0,0,0,0,0,0,0,0,0,0,0,0,0,0,0,0,0,0,0,0,0,0,0,0,0,0,0,0,0,0,0,0,0,0,0,0,0,0,0,0,0,0,0,0,0,0,0,0,0,0,0,0,0,0,0,0,0,0,0,0,0,0],"id":5,"left_children":[1,3,5,7,9,11,13,-1,15,17,19,21,23,25,27,29,31,33,35,37,-1,39,41,43,45,47,49,51,53,-1,55,57,59,61,63,65,-1,67,69,71,73,75,-1,77,79,81,83,85,87,89,91,93,95,97,99,-1,-1,101,-1,-1,-1,103,105,107,-1,-1,-1,109,-1,-1,-1,111,-1,113,115,117,119,121,123,125,127,129,131,133,135,-1,137,139,141,-1,143,145,147,149,151,153,155,157,159,161,163,-1,-1,-1,-1,-1,-1,-1,-1,-1,-1,-1,-1,-1,-1,-1,-1,-1,-1,-1,-1,-1,-1,-1,-1,-1,-1,-1,-1,-1,-1,-1,-1,-1,-1,-1,-1,-1,-1,-1,-1,-1,-1,-1,-1,-1,-1,-1,-1,-1,-1,-1,-1,-1,-1,-1,-1,-1,-1,-1,-1,-1,-1,-1,-1],"loss_changes":[1.3836057E4,4.2262695E1,2.3331245E3,3.8007812E0,1.27387085E1,8.007324E2,3.277093E2,0E0,2.950409E0,1.58348675E1,8.979652E0,4.8075162E2,1.14941895E2,8.5843506E1,1.473158E2,4.545795E0,2.2029114E0,6.4643936E0,8.13223E0,5.8248367E0,0E0,2.982797E2,1.6907822E1,1.2700684E1,4.2593445E1,7.0071884E1,1.8358215E1,3.4041576E1,3.1287323E1,0E0,2.822714E-1,2.2904663E0,1.900427E0,5.3883266E0,5.9268956E0,8.6202335E-1,0E0,2.3274078E0,3.985723E0,6.757677E1,1.4007275E2,1.6610123E1,0E0,4.1856323E1,1.5744141E1,2.8826002E1,2.0140503E1,8.6628723E-1,1.5181458E1,1.6584534E1,1.5095825E0,2.2190796E1,1.0243341E1,2.2736599E1,4.308136E0,0E0,0E0,5.103256E0,0E0,0E0,0E0,4.49073E0,3.2411613E0,8.53062E0,0E0,0E0,0E0,4.701755E0,0E0,0E0,0E0,3.2576265E0,0E0,1.3314056E1,8.851927E1,1.1713196E1,8.168114E0,7.5977783E0,8.207681E1,7.711426E0,1.4840454E1,1.7238E1,5.5184956E0,8.21759E0,1.1077835E1,0E0,1.1926777E0,4.2244473E0,1.1053081E1,0E0,2.010099E1,1.628479E0,1.2615051E0,1.2128691E1,2.0967613E1,9.61745E0,1.09602585E1,1.8618164E1,2.0123169E1,3.128623E0,5.880585E-1,0E0,0E0,0E0,0E0,0E0,0E0,0E0,0E0,0E0,0E0,0E0,0E0,0E0,0E0,0E0,0E0,0E0,0E0,0E0,0E0,0E0,0E0,0E0,0E0,0E0,0E0,0E0,0E0,0E0,0E0,0E0,0E0,0E0,0E0,0E0,0E0,0E0,0E0,0E0,0E0,0E0,0E0,0E0,0E0,0E0,0E0,0E0,0E0,0E0,0E0,0E0,0E0,0E0,0E0,0E0,0E0,0E0,0E0,0E0,0E0,0E0,0E0,0E0,0E0],"parents":[2147483647,0,0,1,1,2,2,3,3,4,4,5,5,6,6,8,8,9,9,10,10,11,11,12,12,13,13,14,14,15,15,16,16,17,17,18,18,19,19,21,21,22,22,23,23,24,24,25,25,26,26,27,27,28,28,30,30,31,31,32,32,33,33,34,34,35,35,37,37,38,38,39,39,40,40,41,41,43,43,44,44,45,45,46,46,47,47,48,48,49,49,50,50,51,51,52,52,53,53,54,54,57,57,61,61,62,62,63,63,67,67,71,71,73,73,74,74,75,75,76,76,77,77,78,78,79,79,80,80,81,81,82,82,83,83,84,84,86,86,87,87,88,88,90,90,91,91,92,92,93,93,94,94,95,95,96,96,97,97,98,98,99,99,100,100],"right_children":[2,4,6,8,10,12,14,-1,16,18,20,22,24,26,28,30,32,34,36,38,-1,40,42,44,46,48,50,52,54,-1,56,58,60,62,64,66,-1,68,70,72,74,76,-1,78,80,82,84,86,88,90,92,94,96,98,100,-1,-1,102,-1,-1,-1,104,106,108,-1,-1,-1,110,-1,-1,-1,112,-1,114,116,118,120,122,124,126,128,130,132,134,136,-1,138,140,142,-1,144,146,148,150,152,154,156,158,160,162,164,-1,-1,-1,-1,-1,-1,-1,-1,-1,-1,-1,-1,-1,-1,-1,-1,-1,-1,-1,-1,-1,-1,-1,-1,-1,-1,-1,-1,-1,-1,-1,-1,-1,-1,-1,-1,-1,-1,-1,-1,-1,-1,-1,-1,-1,-1,-1,-1,-1,-1,-1,-1,-1,-1,-1,-1,-1,-1,-1,-1,-1,-1,-1,-1],"split_conditions":[1.788635E-3,1.684342E-3,1.5909988E-1,1.466212E-3,1.2906629E-1,1.3445696E-1,1.7383859E-1,-1.4204697E-1,3.082843E-2,1.2474698E-1,2.979796E-1,1.3436145E-1,1.4076225E-1,1.6861908E-1,1.7346074E-1,4.120596E-2,3.1053782E-1,1.731702E-3,2.4150045E-1,8.094648E-1,7.161824E-2,7.350748E-2,1.2021377E-1,9.249589E-2,1.5773389E-1,8.9107566E-2,3.091018E-3,7.271733E-3,2.1128477E-1,8.575208E-2,1.7093746E-1,1.3922073E-1,1.557048E-3,4.998779E-2,6.386034E-1,1.2877004E-1,-8.0281615E-2,3.6093247E-1,1.3818617E-1,6.177616E-2,6.573136E-2,9.45632E-3,1.1810173E-1,6.792424E-2,1.2774661E-1,4.6106544E-3,1.5147859E-1,8.37806E-2,2.146764E-1,1.0141278E-1,9.342841E-2,7.199882E-1,1.6352248E-1,2.2667961E-1,1.8080677E-1,-1.0845081E-1,-3.1310096E-2,1.2701242E-1,-1.4286125E-1,-8.256474E-2,5.1377084E-2,3.496606E-1,6.7476565E-1,9.924201E-2,1.1565246E-1,1.334583E-1,2.0774128E-2,3.2558155E-1,-1.3316493E-1,1.1301074E-1,-7.954969E-2,5.38903E-3,-1.6881758E-1,4.560327E-1,9.991287E-2,1.1877034E-1,1.8607127E-2,9.509181E-1,7.117783E-3,2.8358865E-1,1.5272559E-1,1.524031E-1,9.793034E-3,1.9043289E-3,3.801659E-1,-1.5928373E-1,3.558424E-3,7.9046476E-1,1.376251E-1,-1.5594533E-1,7.65132E-2,8.69129E-3,5.26673E-1,6.507146E-1,2.370745E-3,2.672091E-1,1.6743422E-2,1.8545005E-1,2.9848674E-2,3.830986E-3,2.2407624E-1,-1.2709193E-1,-6.944346E-2,-9.8491244E-2,6.747623E-2,-1.3699023E-1,1.6676284E-3,6.2409054E-2,-8.811589E-2,-1.0547351E-1,8.60846E-2,1.3269466E-1,-2.3668693E-2,-1.2656927E-1,1.3462518E-1,-2.2613859E-2,6.6632606E-2,1.1366385E-1,-1.1625215E-1,-3.9085697E-2,-1.0143695E-1,1.2808731E-1,-1.7156735E-2,1.0537364E-1,-1.1852506E-2,1.305307E-1,1.01230346E-1,8.0450445E-2,1.18251026E-1,-5.47745E-2,6.600254E-2,-1.0273599E-1,1.2588212E-2,1.275856E-2,1.0387426E-1,8.216622E-2,3.8866933E-2,-1.4913238E-2,-1.1618004E-1,-1.1948057E-1,-1.2440097E-2,-3.0024335E-2,3.44862E-2,-1.4878987E-1,-5.0819524E-2,-1.456217E-1,-9.885868E-2,-1.6473694E-1,-4.354627E-2,2.1515368E-2,-1.1524593E-1,-1.0683949E-2,8.4426634E-2,-1.0722046E-1,5.2652676E-2,-9.976558E-2,2.2739265E-2,-6.1274874E-3,-1.0510247E-1,-1.660877E-1,-6.6919005E-3,3.703102E-2,-1.0912385E-1,-1.139604E-1,-1.6031587E-1],"split_indices":[8,8,12,8,12,11,11,0,12,12,11,11,12,12,12,4,11,8,4,3,0,11,12,12,11,11,8,8,12,0,11,12,8,12,4,12,0,6,12,12,12,8,0,12,12,8,12,11,4,14,11,6,12,11,11,0,0,12,0,0,0,3,3,4,0,0,0,6,0,0,0,8,0,6,11,12,8,6,8,11,11,4,8,8,3,0,8,6,11,0,11,8,14,4,8,7,8,11,14,8,12,0,0,0,0,0,0,0,0,0,0,0,0,0,0,0,0,0,0,0,0,0,0,0,0,0,0,0,0,0,0,0,0,0,0,0,0,0,0,0,0,0,0,0,0,0,0,0,0,0,0,0,0,0,0,0,0,0,0,0,0,0,0,0,0],"split_type":[0,0,0,0,0,0,0,0,0,0,0,0,0,0,0,0,0,0,0,0,0,0,0,0,0,0,0,0,0,0,0,0,0,0,0,0,0,0,0,0,0,0,0,0,0,0,0,0,0,0,0,0,0,0,0,0,0,0,0,0,0,0,0,0,0,0,0,0,0,0,0,0,0,0,0,0,0,0,0,0,0,0,0,0,0,0,0,0,0,0,0,0,0,0,0,0,0,0,0,0,0,0,0,0,0,0,0,0,0,0,0,0,0,0,0,0,0,0,0,0,0,0,0,0,0,0,0,0,0,0,0,0,0,0,0,0,0,0,0,0,0,0,0,0,0,0,0,0,0,0,0,0,0,0,0,0,0,0,0,0,0,0,0,0,0],"sum_hessian":[1.2887747E4,4.57467E3,8.313077E3,4.4778804E3,9.678984E1,7.1315044E3,1.1815724E3,4.284728E3,1.9315207E2,4.8385235E1,4.8404606E1,1.3213567E3,5.810148E3,5.53768E2,6.278044E2,5.5219636E0,1.8763011E2,3.902612E1,9.359116E0,4.6414593E1,1.9900134E0,1.0537609E3,2.6759586E2,4.6896304E3,1.1205175E3,1.7018512E2,3.8358292E2,3.3877884E2,2.8902554E2,1.215906E0,4.306058E0,1.8532666E2,2.3034391E0,2.204257E1,1.698355E1,7.45938E0,1.8997355E0,4.4057816E1,2.3567767E0,7.458438E1,9.7917645E2,2.646067E2,2.9891627E0,1.1986993E3,3.4909312E3,1.3085805E2,9.8965936E2,4.666523E1,1.2351989E2,1.4585289E2,2.3773003E2,2.8307022E2,5.5708614E1,2.407531E2,4.8272446E1,2.4693856E0,1.8366721E0,1.00747795E2,8.457887E1,1.1349511E0,1.1684881E0,4.6989117E0,1.7343658E1,1.5044321E1,1.9392279E0,6.254742E0,1.204638E0,3.436852E0,4.0620964E1,1.2418402E0,1.1149365E0,9.192362E0,6.539202E1,2.777931E2,7.013834E2,1.6768456E2,9.692215E1,7.073059E2,4.913934E2,2.3422961E3,1.1486349E3,1.1006498E2,2.0793062E1,6.618775E2,3.2778186E2,4.1776768E1,4.8884635E0,1.8560564E1,1.0495932E2,4.6239822E1,9.961307E1,1.0082443E2,1.369056E2,7.9241325E1,2.0382889E2,2.1977903E1,3.3730713E1,9.635719E1,1.4439589E2,4.2110233E0,4.406142E1,7.6156204E1,2.4591595E1,1.8050618E0,2.8938498E0,1.5492497E1,1.8511612E0,4.8071103E0,1.023721E1,2.245933E0,1.1909189E0,7.9489202E0,1.2434413E0,1.2277305E0,2.7656534E2,1.3784624E2,5.635372E2,1.4949538E0,1.6618959E2,6.507843E1,3.1843718E1,7.039091E2,3.3967545E0,4.220698E2,6.9323616E1,2.2284265E3,1.1386964E2,1.25992E2,1.0226429E3,1.2665579E1,9.73994E1,1.5521718E1,5.2713447E0,1.0355435E1,6.515221E2,2.4638348E2,8.139836E1,2.1830976E0,2.7053657E0,1.3246258E1,5.3143063E0,4.8159164E1,5.680016E1,3.022987E1,6.9383194E1,8.190742E1,1.8917015E1,1.351855E2,1.7200836E0,7.31291E1,6.11223E0,2.6397888E1,1.77431E2,3.7041907E0,1.8273714E1,2.3842045E1,9.888667E0,2.6094221E1,7.026298E1,7.413849E0,1.3698204E2,2.7293396E0,1.4816835E0,2.3896172E1,2.016525E1],"tree_param":{"num_deleted":"0","num_feature":"16","num_nodes":"165","size_leaf_vector":"1"}},{"base_weights":[-2.808616E-3,-1.3415443E0,7.1461284E-1,-1.3561162E0,-6.8128365E-1,-3.4898948E-2,9.071414E-1,-1.3638326E0,-1.1806272E0,-9.911693E-1,-3.632522E-1,-1.3367348E0,1.82586E-1,9.690866E-1,7.615996E-1,-1.0293528E0,-1.3658331E-1,-1.3123116E0,-1.0171988E0,-6.7979944E-1,-1.3255342E0,-7.357639E-1,-2.7221335E-2,-1.4348197E-1,-9.298748E-1,4.168753E-1,-8.4894425E-1,-1.6848145E-1,9.7461545E-1,7.672166E-1,-1.6472445E-1,-1.3145871E-1,2.3027302E-1,-2.4634777E-2,-1.3271095E0,-6.325195E-2,-1.0920405E0,-1.0742416E0,3.4613034E-1,-1.3922927E-1,-5.0485337E-1,-9.631147E-1,2.9090452E-1,2.3805673E-1,-7.346821E-1,-7.1516424E-1,-1.4011508E-1,5.905817E-1,-1.4436725E-1,-1.0167129E0,-5.527168E-1,4.893353E-1,-1.7669459E-1,9.93051E-1,6.810533E-1,-2.759338E-1,7.776896E-1,1.5521155E-1,-1.0338556E-1,-1.3347976E-1,-3.3795048E-2,-1.1046227E-1,1.2690606E0,-7.116419E-1,-1.1853784E0,-6.572773E-2,-1.2316362E0,-8.168636E-2,6.804209E-1,-7.604722E-2,-2.1065709E-3,-1.02825224E-1,1.7833341E-3,-7.409572E-2,1.2638943E-1,-7.8117174E-1,5.843878E-1,1.8372651E-2,-1.0303121E0,-1.199076E0,-4.7406062E-1,-4.1696304E-3,7.2836965E-1,-9.5112956E-1,2.283922E-1,-1.2691782E-1,-9.1887534E-1,-3.547458E-1,-9.417444E-1,6.441023E-1,-8.334834E-2,5.476035E-1,1.0048635E0,7.698234E-1,-8.989345E-3,8.970157E-1,-7.935543E-1,7.8929025E-1,1.19827114E-1,1.6645336E-1,3.320223E-2,-1.1144604E-1,3.4089744E-2,-1.2180807E-1,-2.8620008E-2,-8.784992E-2,8.925938E-2,-1.3423222E-1,-6.620359E-2,3.1386405E-2,1.0808765E-1,-1.1890542E-1,-1.1962827E-2,-1.4373429E-2,8.746627E-2,-1.2532043E-1,-8.921854E-3,-1.3028829E-1,-2.7430823E-2,-8.0634855E-2,1.1993556E-2,-1.1574737E-1,3.440177E-2,7.584276E-2,-2.9868921E-2,-6.010253E-2,-1.6147994E-1,4.286212E-2,-1.8613826E-2,-9.794118E-2,-2.8284933E-4,-2.2920817E-2,-1.10484436E-1,8.62456E-2,-1.13777496E-1,-2.4298789E-2,7.985884E-2,-9.37472E-2,6.1234165E-2,9.004068E-2,1.0273244E-1,9.863967E-2,4.895623E-2,3.1154213E-2,-1.3003077E-1,7.636286E-3,1.05383925E-1,3.9921906E-2,-1.3949934E-1,8.287813E-2,5.8347143E-2,-1.417248E-1,3.039814E-2],"categories":[],"categories_nodes":[],"categories_segments":[],"categories_sizes":[],"default_left":[0,0,0,0,0,0,0,0,0,0,0,0,0,0,0,0,0,0,0,0,0,0,0,0,0,0,0,0,0,0,0,0,0,0,0,0,0,0,0,0,0,0,0,0,0,0,0,0,0,0,0,0,0,0,0,0,0,0,0,0,0,0,0,0,0,0,0,0,0,0,0,0,0,0,0,0,0,0,0,0,0,0,0,0,0,0,0,0,0,0,0,0,0,0,0,0,0,0,0,0,0,0,0,0,0,0,0,0,0,0,0,0,0,0,0,0,0,0,0,0,0,0,0,0,0,0,0,0,0,0,0,0,0,0,0,0,0,0,0,0,0,0,0,0,0,0,0,0,0,0,0,0,0],"id":6,"left_children":[1,3,5,7,9,11,13,15,17,19,21,23,25,27,29,31,-1,33,35,37,39,41,43,-1,45,47,49,51,53,55,-1,-1,57,-1,59,61,63,65,67,-1,69,71,73,75,77,79,-1,81,83,85,87,89,-1,91,93,95,97,-1,-1,-1,-1,-1,99,101,103,105,107,-1,109,-1,-1,-1,-1,-1,-1,111,113,-1,115,117,119,121,123,125,127,-1,129,131,133,135,-1,137,139,141,143,145,147,149,151,-1,-1,-1,-1,-1,-1,-1,-1,-1,-1,-1,-1,-1,-1,-1,-1,-1,-1,-1,-1,-1,-1,-1,-1,-1,-1,-1,-1,-1,-1,-1,-1,-1,-1,-1,-1,-1,-1,-1,-1,-1,-1,-1,-1,-1,-1,-1,-1,-1,-1,-1,-1,-1,-1],"loss_changes":[1.1859984E4,4.0529297E1,1.1602163E3,4.0966797E0,9.007023E0,4.6574344E2,5.6934082E1,1.2910156E0,2.6455383E0,4.050514E0,6.0490775E0,8.062653E0,3.4103345E2,2.8361816E1,2.7167114E1,1.0370735E1,0E0,1.2343597E0,6.140663E0,1.1168422E1,4.9588394E-1,5.638379E0,5.153694E0,0E0,3.913784E0,1.12142944E2,1.2421082E1,2.4562832E1,2.3471191E1,2.1088379E1,0E0,0E0,1.1671953E1,0E0,2.8956604E-1,1.1653336E1,2.0177689E0,3.0166874E0,3.7303524E0,0E0,3.8155007E-1,1.2340279E0,5.8860226E0,7.533781E0,2.2200522E0,3.563898E0,0E0,7.195001E1,8.2156265E1,2.923996E0,7.109434E0,3.966032E0,0E0,2.1527832E1,1.635151E1,1.2690799E1,1.4344116E1,0E0,0E0,0E0,0E0,0E0,8.2103634E-1,8.172748E0,1.5100327E0,3.6588852E0,1.7201805E-1,0E0,6.718321E-1,0E0,0E0,0E0,0E0,0E0,0E0,1.3453026E0,3.4094687E0,0E0,1.1068101E0,7.1052265E-1,5.0891204E0,6.711112E1,2.2231873E1,1.9081764E1,1.5614906E1,0E0,6.816208E0,5.9294224E0,1.229595E1,2.326377E0,0E0,1.12066765E1,8.663086E0,1.3867477E1,1.3402588E1,7.5739574E-1,1.0757841E1,1.4626221E1,1.0044444E1,0E0,0E0,0E0,0E0,0E0,0E0,0E0,0E0,0E0,0E0,0E0,0E0,0E0,0E0,0E0,0E0,0E0,0E0,0E0,0E0,0E0,0E0,0E0,0E0,0E0,0E0,0E0,0E0,0E0,0E0,0E0,0E0,0E0,0E0,0E0,0E0,0E0,0E0,0E0,0E0,0E0,0E0,0E0,0E0,0E0,0E0,0E0,0E0,0E0,0E0,0E0,0E0,0E0,0E0],"parents":[2147483647,0,0,1,1,2,2,3,3,4,4,5,5,6,6,7,7,8,8,9,9,10,10,11,11,12,12,13,13,14,14,15,15,17,17,18,18,19,19,20,20,21,21,22,22,24,24,25,25,26,26,27,27,28,28,29,29,32,32,34,34,35,35,36,36,37,37,38,38,40,40,41,41,42,42,43,43,44,44,45,45,47,47,48,48,49,49,50,50,51,51,53,53,54,54,55,55,56,56,62,62,63,63,64,64,65,65,66,66,68,68,75,75,76,76,78,78,79,79,80,80,81,81,82,82,83,83,84,84,86,86,87,87,88,88,89,89,91,91,92,92,93,93,94,94,95,95,96,96,97,97,98,98],"right_children":[2,4,6,8,10,12,14,16,18,20,22,24,26,28,30,32,-1,34,36,38,40,42,44,-1,46,48,50,52,54,56,-1,-1,58,-1,60,62,64,66,68,-1,70,72,74,76,78,80,-1,82,84,86,88,90,-1,92,94,96,98,-1,-1,-1,-1,-1,100,102,104,106,108,-1,110,-1,-1,-1,-1,-1,-1,112,114,-1,116,118,120,122,124,126,128,-1,130,132,134,136,-1,138,140,142,144,146,148,150,152,-1,-1,-1,-1,-1,-1,-1,-1,-1,-1,-1,-1,-1,-1,-1,-1,-1,-1,-1,-1,-1,-1,-1,-1,-1,-1,-1,-1,-1,-1,-1,-1,-1,-1,-1,-1,-1,-1,-1,-1,-1,-1,-1,-1,-1,-1,-1,-1,-1,-1,-1,-1,-1,-1],"split_conditions":[1.788635E-3,1.684342E-3,1.3445696E-1,1.466212E-3,1.5206277E-1,7.508528E-2,5.16999E-3,5.0781228E-2,1.5272559E-1,1.14407815E-1,1.731702E-3,6.579282E-2,1.3436145E-1,5.578351E-3,8.2651955E-1,4.472039E-1,-1.3658331E-1,7.335486E-2,1.571322E-1,1.07580625E-1,6.6190606E-1,5.552993E-1,4.2284003E-1,-1.4348197E-1,2.9746413E-1,3.8800535E-1,9.45632E-3,6.31269E-1,2.917286E-1,4.941275E-3,-1.6472445E-1,-1.3145871E-1,8.6562806E-1,-2.4634777E-2,8.2651955E-1,7.5439465E-1,1.3915177E-1,7.893979E-2,2.7162138E-1,-1.3922927E-1,2.7623412E-1,2.8358865E-1,5.047045E-1,2.0267682E-1,1.04031555E-1,2.8116438E-1,-1.4011508E-1,1.03650466E-1,1.07580625E-1,4.591949E-1,1.8607127E-2,7.441743E-1,-1.7669459E-1,1.8779715E-3,3.623188E-1,3.2525182E-1,3.8535E-1,1.5521155E-1,-1.0338556E-1,-1.3347976E-1,-3.3795048E-2,-1.1046227E-1,1.2411164E-1,1.14560984E-1,3.0431852E-1,5.6832445E-1,9.151151E-2,-8.168636E-2,1.731702E-3,-7.604722E-2,-2.1065709E-3,-1.02825224E-1,1.7833341E-3,-7.409572E-2,1.2638943E-1,6.897157E-1,1.9336438E-1,1.8372651E-2,6.9697815E-1,3.018884E0,7.175025E-2,1.0387535E-1,5.0687337E-1,3.64899E-3,3.259789E-3,-1.2691782E-1,8.4714514E-1,3.5868344E-1,3.4584308E-1,5.5433714E-1,-8.334834E-2,1.376251E-1,1.5645005E-1,3.200179E-3,5.351139E-1,6.212651E-1,4.3755165E-1,7.3911524E-1,6.897157E-1,1.6645336E-1,3.320223E-2,-1.1144604E-1,3.4089744E-2,-1.2180807E-1,-2.8620008E-2,-8.784992E-2,8.925938E-2,-1.3423222E-1,-6.620359E-2,3.1386405E-2,1.0808765E-1,-1.1890542E-1,-1.1962827E-2,-1.4373429E-2,8.746627E-2,-1.2532043E-1,-8.921854E-3,-1.3028829E-1,-2.7430823E-2,-8.0634855E-2,1.1993556E-2,-1.1574737E-1,3.440177E-2,7.584276E-2,-2.9868921E-2,-6.010253E-2,-1.6147994E-1,4.286212E-2,-1.8613826E-2,-9.794118E-2,-2.8284933E-4,-2.2920817E-2,-1.10484436E-1,8.62456E-2,-1.13777496E-1,-2.4298789E-2,7.985884E-2,-9.37472E-2,6.1234165E-2,9.004068E-2,1.0273244E-1,9.863967E-2,4.895623E-2,3.1154213E-2,-1.3003077E-1,7.636286E-3,1.05383925E-1,3.9921906E-2,-1.3949934E-1,8.287813E-2,5.8347143E-2,-1.417248E-1,3.039814E-2],"split_indices":[9,9,11,9,11,11,9,2,11,11,9,11,11,13,5,1,0,2,11,11,4,7,7,0,7,13,9,2,11,1,0,0,6,0,5,6,4,4,7,0,5,11,13,5,4,7,0,1,11,2,9,6,0,9,1,2,11,0,0,0,0,0,1,4,11,2,11,0,9,0,0,0,0,0,0,6,13,0,2,13,11,11,5,9,9,0,6,13,13,6,0,11,11,9,4,6,6,6,6,0,0,0,0,0,0,0,0,0,0,0,0,0,0,0,0,0,0,0,0,0,0,0,0,0,0,0,0,0,0,0,0,0,0,0,0,0,0,0,0,0,0,0,0,0,0,0,0,0,0,0,0,0,0],"split_type":[0,0,0,0,0,0,0,0,0,0,0,0,0,0,0,0,0,0,0,0,0,0,0,0,0,0,0,0,0,0,0,0,0,0,0,0,0,0,0,0,0,0,0,0,0,0,0,0,0,0,0,0,0,0,0,0,0,0,0,0,0,0,0,0,0,0,0,0,0,0,0,0,0,0,0,0,0,0,0,0,0,0,0,0,0,0,0,0,0,0,0,0,0,0,0,0,0,0,0,0,0,0,0,0,0,0,0,0,0,0,0,0,0,0,0,0,0,0,0,0,0,0,0,0,0,0,0,0,0,0,0,0,0,0,0,0,0,0,0,0,0,0,0,0,0,0,0,0,0,0,0,0,0],"sum_hessian":[1.2346522E4,4.3075674E3,8.038955E3,4.213522E3,9.4045616E1,1.6431207E3,6.395834E3,4.0295667E3,1.8395532E2,4.656081E1,4.7484802E1,2.3446977E2,1.408651E3,4.482389E3,1.9134448E3,2.7022104E1,4.0025447E3,9.797826E1,8.5977066E1,2.5679998E1,2.0880812E1,2.195581E1,2.5528994E1,1.8688849E2,4.7581272E1,1.1484108E3,2.6024026E2,2.1537592E1,4.4608516E3,1.9096733E3,3.7715373E0,2.1997318E1,5.0247865E0,1.5831481E0,9.63951E1,6.388836E0,7.958823E1,1.851456E1,7.1654377E0,1.8665922E1,2.2148893E0,1.8025953E1,3.929857E0,1.9049477E1,6.479517E0,3.44181E1,1.3163174E1,8.769421E2,2.714687E2,1.6459154E2,9.564873E1,1.57499E1,5.7876916E0,4.1950234E3,2.658282E2,1.873007E1,1.8909432E3,2.3449562E0,2.67983E0,9.530493E1,1.0901717E0,3.6818798E0,2.7069564E0,1.7380081E1,6.2208145E1,2.690789E0,1.5823771E1,1.2774892E0,5.8879485E0,1.0749861E0,1.1399032E0,1.6858295E1,1.1676584E0,2.0229645E0,1.9068925E0,4.5128636E0,1.45366125E1,1.6699988E0,4.8095183E0,1.0124413E1,2.4293684E1,1.6513197E2,7.1181006E2,8.53008E1,1.8616788E2,4.262564E1,1.219659E2,6.465734E1,3.0991385E1,1.4559547E1,1.1903524E0,1.09593956E2,4.0854297E3,2.3542632E2,3.0401865E1,5.510374E0,1.3219696E1,1.85798E3,3.2963337E1,1.3576068E0,1.3493495E0,1.252702E1,4.85306E0,5.9682873E1,2.5252726E0,1.5010297E0,1.1897591E0,1.2113286E1,3.7104855E0,4.0053873E0,1.8825612E0,2.298378E0,2.214486E0,4.2872815E0,1.02493305E1,3.6204014E0,1.189117E0,8.735016E0,1.3893961E0,1.5349506E1,8.944179E0,3.775418E1,1.273778E2,6.918247E2,1.9985397E1,5.70899E1,2.8210896E1,1.2550952E2,6.065836E1,1.1434058E2,7.6253085E0,5.6505985E1,8.151359E0,2.7041051E0,2.828728E1,2.0744967E0,1.248505E1,4.0147934E0,1.0557916E2,7.3028284E2,3.3551467E3,1.313812E2,1.0404513E2,2.4964027E1,5.4378386E0,1.1226286E0,4.3877454E0,4.544089E0,8.675607E0,1.5563353E3,3.0164456E2,2.810344E0,3.0152994E1],"tree_param":{"num_deleted":"0","num_feature":"16","num_nodes":"153","size_leaf_vector":"1"}},{"base_weights":[-3.6459411E-3,6.6829693E-1,-1.2855854E0,8.9071757E-1,-4.6792597E-1,-4.062289E-1,-1.3043371E0,2.7867967E-1,1.0336288E0,1.4094433E-2,-9.209763E-1,-1.2272381E-1,-1.1497564E0,-1.3150883E0,-1.0576247E0,5.555711E-1,-7.942398E-1,1.0924538E0,7.661724E-1,-8.596146E-1,2.871091E-1,-1.3001316E0,-5.1985985E-1,-2.7143598E-1,7.126501E-1,-1.3812666E0,-3.4154075E-1,-9.27735E-1,-1.317514E-1,-1.0952947E0,7.59328E-2,-1.11499E0,6.7115265E-1,-8.194944E-1,1.1097099E-1,3.3508605E-1,1.1059651E0,2.6715478E-1,8.338152E-1,-1.4792882E-1,-4.530148E-1,-3.815021E-1,3.7743652E-1,-1.4515041E0,-1.0215477E0,-1.5428554E-1,-8.078024E-1,-8.5282797E-1,-6.779021E-2,1.1472625E0,-4.0381265E-1,-4.05544E-2,-1.4207494E-1,3.4072036E-1,-1.1361231E-1,-1.2668869E-1,3.4847644E-1,-1.1123614E0,7.725259E-2,-9.515787E-2,6.5992147E-1,1.0974835E0,-1.5011711E-1,1.2345147E0,4.5422548E-1,-4.9230736E-1,-1.0012515E0,-5.083787E-1,4.8412675E-1,9.8232824E-1,1.1482323E0,-9.0418166E-1,4.6054465E-1,-1.4429979E-1,8.462174E-1,-1.6934398E0,-2.02326E-1,-9.7134376E-1,6.815674E-2,6.331534E-2,6.056291E-1,-1.2565929E0,-1.5672017E0,-1.2349888E0,-2.1835163E-1,-1.1453371E0,-7.590262E-2,-1.4614191E0,-6.3730884E-1,2.4448082E-1,-1.4200816E0,-9.41749E-1,1.7012788E-1,1.3933995E-1,3.8325906E-2,-8.788553E-2,2.9137192E-2,-3.1540338E-2,1.0886168E-1,1.4782892E-1,-9.9178635E-2,-1.1330293E0,-1.0910657E-2,-7.1153246E-2,1.2346224E-1,1.294032E-1,-1.690468E-2,4.1411895E-2,1.2661776E-1,5.1717807E-2,-1.0967807E-1,-3.6692183E-2,-1.3120908E-1,1.1332708E-1,-1.0285387E-1,6.680353E-2,-1.4895299E-1,-1.1735355E-1,5.9484478E-2,1.2204434E-1,9.0569735E-2,1.06025755E-1,1.21861495E-1,-1.3508393E-1,3.3598706E-2,1.2051719E-2,7.557815E-2,-7.279237E-2,8.623784E-2,-1.815917E-1,-3.0440098E-2,4.4986125E-2,-9.265539E-2,-1.305688E-1,4.34227E-2,5.7967313E-2,-8.2312785E-2,-7.030379E-3,6.9775544E-2,2.3943806E-2,7.556574E-2,-1.3465813E-1,-8.2454465E-2,-1.6057287E-1,-2.3926063E-2,-8.78542E-2,-1.5229887E-1,-1.220511E-1,2.9132932E-2,-1.4850412E-1,7.7581764E-3,-3.6276057E-2,2.0912543E-2,-5.97469E-2,-1.6512373E-1,-1.21299624E-1,-3.1915825E-2,-7.2654925E-2,1.2380139E-1,-1.5620455E-1,-4.458518E-2,-1.36162E-1,-5.4405583E-3,3.284754E-2,-1.02277815E-1,-5.2500445E-2,-1.1841648E-1,9.9871755E-2,-9.622895E-2],"categories":[],"categories_nodes":[],"categories_segments":[],"categories_sizes":[],"default_left":[0,0,0,0,0,0,0,0,0,0,0,0,0,0,0,0,0,0,0,0,0,0,0,0,0,0,0,0,0,0,0,0,0,0,0,0,0,0,0,0,0,0,0,0,0,0,0,0,0,0,0,0,0,0,0,0,0,0,0,0,0,0,0,0,0,0,0,0,0,0,0,0,0,0,0,0,0,0,0,0,0,0,0,0,0,0,0,0,0,0,0,0,0,0,0,0,0,0,0,0,0,0,0,0,0,0,0,0,0,0,0,0,0,0,0,0,0,0,0,0,0,0,0,0,0,0,0,0,0,0,0,0,0,0,0,0,0,0,0,0,0,0,0,0,0,0,0,0,0,0,0,0,0,0,0,0,0,0,0,0,0,0,0,0,0,0,0,0,0],"id":7,"left_children":[1,3,5,7,9,11,13,15,17,19,21,23,25,27,29,31,33,35,37,39,41,43,45,47,49,51,53,55,-1,57,59,61,63,65,-1,67,69,71,73,-1,75,77,79,81,83,85,87,89,91,93,95,-1,-1,97,-1,-1,99,101,-1,-1,103,105,-1,107,109,111,113,115,117,119,121,123,125,-1,127,129,131,133,135,137,139,141,143,145,147,149,151,153,155,157,159,161,163,-1,-1,-1,-1,-1,-1,-1,-1,165,167,-1,-1,-1,-1,-1,-1,-1,-1,-1,-1,-1,-1,-1,-1,-1,-1,-1,-1,-1,-1,-1,-1,-1,-1,-1,-1,-1,-1,-1,-1,-1,-1,-1,-1,-1,-1,-1,-1,-1,-1,-1,-1,-1,-1,-1,-1,-1,-1,-1,-1,-1,-1,-1,-1,-1,-1,-1,-1,-1,-1,-1,-1,-1,-1,-1,-1],"loss_changes":[1.0199942E4,1.9638025E3,6.661963E1,5.680322E2,2.7790256E2,1.808765E1,9.183105E0,3.6625217E2,8.203174E1,1.475487E2,9.9089294E1,8.110001E0,3.972437E0,2.3632812E0,7.41008E0,1.8984613E2,1.3074646E1,4.378711E1,3.1944519E1,3.643653E1,2.8604866E1,1.2709717E1,3.3604744E1,6.4326663E0,5.2698283E0,1.2245178E-1,3.9743533E0,1.2184355E1,0E0,6.155182E0,4.500634E0,5.61159E1,1.11454956E2,1.4389984E1,0E0,9.934362E0,2.1024902E1,2.6518333E1,2.4904846E1,0E0,2.7757637E1,1.5074122E1,2.9756855E1,2.8946533E0,2.0622353E1,1.0976229E1,1.9016853E1,9.145065E0,8.827791E0,8.5574627E-1,1.4169589E0,0E0,0E0,2.4678998E0,0E0,0E0,1.1279104E1,3.7446747E0,0E0,0E0,4.58727E0,2.7208757E0,0E0,6.0798035E0,6.533713E1,8.907661E0,1.0480316E1,1.4916071E1,1.2812558E1,1.8727905E1,1.8232422E1,9.685631E0,9.9037895E0,0E0,2.1865356E1,2.0087852E0,3.6460094E1,1.2100668E1,1.554139E1,1.4970874E1,1.304007E1,2.209488E0,6.333496E0,8.523712E0,1.4044621E1,4.4221077E0,1.0954342E1,4.959877E0,2.5941082E1,6.3694406E0,6.125374E-1,3.3061352E0,6.685095E0,0E0,0E0,0E0,0E0,0E0,0E0,0E0,0E0,4.4147644E0,4.8507376E0,0E0,0E0,0E0,0E0,0E0,0E0,0E0,0E0,0E0,0E0,0E0,0E0,0E0,0E0,0E0,0E0,0E0,0E0,0E0,0E0,0E0,0E0,0E0,0E0,0E0,0E0,0E0,0E0,0E0,0E0,0E0,0E0,0E0,0E0,0E0,0E0,0E0,0E0,0E0,0E0,0E0,0E0,0E0,0E0,0E0,0E0,0E0,0E0,0E0,0E0,0E0,0E0,0E0,0E0,0E0,0E0,0E0,0E0,0E0,0E0,0E0,0E0,0E0,0E0,0E0,0E0],"parents":[2147483647,0,0,1,1,2,2,3,3,4,4,5,5,6,6,7,7,8,8,9,9,10,10,11,11,12,12,13,13,14,14,15,15,16,16,17,17,18,18,19,19,20,20,21,21,22,22,23,23,24,24,25,25,26,26,27,27,29,29,30,30,31,31,32,32,33,33,35,35,36,36,37,37,38,38,40,40,41,41,42,42,43,43,44,44,45,45,46,46,47,47,48,48,49,49,50,50,53,53,56,56,57,57,60,60,61,61,63,63,64,64,65,65,66,66,67,67,68,68,69,69,70,70,71,71,72,72,74,74,75,75,76,76,77,77,78,78,79,79,80,80,81,81,82,82,83,83,84,84,85,85,86,86,87,87,88,88,89,89,90,90,91,91,92,92,101,101,102,102],"right_children":[2,4,6,8,10,12,14,16,18,20,22,24,26,28,30,32,34,36,38,40,42,44,46,48,50,52,54,56,-1,58,60,62,64,66,-1,68,70,72,74,-1,76,78,80,82,84,86,88,90,92,94,96,-1,-1,98,-1,-1,100,102,-1,-1,104,106,-1,108,110,112,114,116,118,120,122,124,126,-1,128,130,132,134,136,138,140,142,144,146,148,150,152,154,156,158,160,162,164,-1,-1,-1,-1,-1,-1,-1,-1,166,168,-1,-1,-1,-1,-1,-1,-1,-1,-1,-1,-1,-1,-1,-1,-1,-1,-1,-1,-1,-1,-1,-1,-1,-1,-1,-1,-1,-1,-1,-1,-1,-1,-1,-1,-1,-1,-1,-1,-1,-1,-1,-1,-1,-1,-1,-1,-1,-1,-1,-1,-1,-1,-1,-1,-1,-1,-1,-1,-1,-1,-1,-1,-1,-1,-1,-1],"split_conditions":[1.495857E-1,1.5650213E-1,1.50785E-1,1.3445696E-1,1.7078376E-1,1.4900595E-1,1.500507E-3,1.3436145E-1,1.4076225E-1,1.376251E-1,1.7656924E-1,1.1108535E-1,1.7240836E-1,5.0781228E-2,2.3636158E-1,7.350748E-2,1.2021377E-1,6.8050355E-4,1.5773389E-1,8.490733E-2,2.370745E-3,1.3715656E-1,1.8452837E-1,1.0920528E-1,1.5023986E-1,4.266246E-2,4.6180055E-1,4.472039E-1,-1.317514E-1,1.731702E-3,6.973862E-1,6.177616E-2,6.461811E-2,1.0989969E-1,1.1097099E-1,1.3479458E-1,1.2276018E-1,1.2608078E-1,5.292806E-4,-1.4792882E-1,1.2608078E-1,2.5707912E-3,1.2788923E-1,9.2492096E-2,9.834517E-2,5.596527E-1,2.4800408E-1,3.823042E-1,2.7623412E-1,5.8760375E-1,1.9007486E-1,-4.05544E-2,-1.4207494E-1,1.6352248E-1,-1.1361231E-1,-1.2668869E-1,8.6562806E-1,3.1053782E-1,7.725259E-2,-9.515787E-2,1.3016495E-1,5.38903E-3,-1.5011711E-1,3.3890375E-1,9.45632E-3,7.183093E-4,1.1877034E-1,1.7166354E-1,1.8902877E-4,6.573136E-2,9.1633685E-3,1.0461663E-2,3.6081497E-2,-1.4429979E-1,5.610955E-3,3.1582928E-1,7.183093E-4,2.4892014E-1,6.881497E-2,3.1053782E-1,7.24412E-1,8.69129E-3,2.9964662E-1,1.8233848E-1,7.777126E-2,5.3928125E-1,2.1171223E-3,1.6593704E-1,1.22001745E-1,3.6099693E-1,9.786042E-2,1.2668885E-1,7.4917173E-1,1.3933995E-1,3.8325906E-2,-8.788553E-2,2.9137192E-2,-3.1540338E-2,1.0886168E-1,1.4782892E-1,-9.9178635E-2,4.998779E-2,1.242795E-1,-7.1153246E-2,1.2346224E-1,1.294032E-1,-1.690468E-2,4.1411895E-2,1.2661776E-1,5.1717807E-2,-1.0967807E-1,-3.6692183E-2,-1.3120908E-1,1.1332708E-1,-1.0285387E-1,6.680353E-2,-1.4895299E-1,-1.1735355E-1,5.9484478E-2,1.2204434E-1,9.0569735E-2,1.06025755E-1,1.21861495E-1,-1.3508393E-1,3.3598706E-2,1.2051719E-2,7.557815E-2,-7.279237E-2,8.623784E-2,-1.815917E-1,-3.0440098E-2,4.4986125E-2,-9.265539E-2,-1.305688E-1,4.34227E-2,5.7967313E-2,-8.2312785E-2,-7.030379E-3,6.9775544E-2,2.3943806E-2,7.556574E-2,-1.3465813E-1,-8.2454465E-2,-1.6057287E-1,-2.3926063E-2,-8.78542E-2,-1.5229887E-1,-1.220511E-1,2.9132932E-2,-1.4850412E-1,7.7581764E-3,-3.6276057E-2,2.0912543E-2,-5.97469E-2,-1.6512373E-1,-1.21299624E-1,-3.1915825E-2,-7.2654925E-2,1.2380139E-1,-1.5620455E-1,-4.458518E-2,-1.36162E-1,-5.4405583E-3,3.284754E-2,-1.02277815E-1,-5.2500445E-2,-1.1841648E-1,9.9871755E-2,-9.622895E-2],"split_indices":[0,12,0,11,12,12,8,11,12,11,11,15,11,2,15,11,12,15,11,11,8,0,12,1,0,5,2,1,0,8,6,12,12,0,0,0,0,0,15,0,0,15,0,11,15,6,5,2,5,5,15,0,0,12,0,0,6,11,0,0,11,8,0,2,8,15,12,11,15,12,15,8,15,0,1,15,15,11,15,11,6,8,15,12,11,1,15,2,0,2,1,12,1,0,0,0,0,0,0,0,0,12,1,0,0,0,0,0,0,0,0,0,0,0,0,0,0,0,0,0,0,0,0,0,0,0,0,0,0,0,0,0,0,0,0,0,0,0,0,0,0,0,0,0,0,0,0,0,0,0,0,0,0,0,0,0,0,0,0,0,0,0,0,0,0,0,0,0,0],"split_type":[0,0,0,0,0,0,0,0,0,0,0,0,0,0,0,0,0,0,0,0,0,0,0,0,0,0,0,0,0,0,0,0,0,0,0,0,0,0,0,0,0,0,0,0,0,0,0,0,0,0,0,0,0,0,0,0,0,0,0,0,0,0,0,0,0,0,0,0,0,0,0,0,0,0,0,0,0,0,0,0,0,0,0,0,0,0,0,0,0,0,0,0,0,0,0,0,0,0,0,0,0,0,0,0,0,0,0,0,0,0,0,0,0,0,0,0,0,0,0,0,0,0,0,0,0,0,0,0,0,0,0,0,0,0,0,0,0,0,0,0,0,0,0,0,0,0,0,0,0,0,0,0,0,0,0,0,0,0,0,0,0,0,0,0,0,0,0,0,0],"sum_hessian":[1.183926E4,7.768036E3,4.071224E3,6.4965283E3,1.2715076E3,8.5476685E1,3.9857473E3,1.230346E3,5.266182E3,6.165265E2,6.549811E2,6.27249E1,2.2751781E1,3.815162E3,1.7058525E2,9.783441E2,2.5200186E2,4.314218E3,9.519646E2,1.4627254E2,4.7025397E2,3.355558E2,3.194253E2,5.3819157E1,8.905744E0,1.713461E1,5.617173E0,2.6130486E1,3.7890317E3,1.651314E2,5.4538527E0,6.27493E1,9.1559485E2,2.492651E2,2.7367556E0,7.606785E1,4.23815E3,1.1422773E2,8.377369E2,5.6906563E1,8.9365974E1,5.558507E1,4.146689E2,2.1469035E2,1.20865425E2,1.4141695E2,1.7800835E2,1.3134224E1,4.0684933E1,6.3904905E0,2.5152528E0,1.1047503E0,1.6029858E1,3.3295124E0,2.2876608E0,2.065006E1,5.480425E0,1.6403702E2,1.0943826E0,1.7483077E0,3.705545E0,9.051332E0,5.3697964E1,2.5323923E2,6.623556E2,9.034339E1,1.589217E2,1.1060762E1,6.500709E1,1.0859261E3,3.1522236E3,1.5665921E1,9.8561806E1,3.913633E0,8.3382324E2,1.4056805E1,7.5309166E1,2.3542685E1,3.2042385E1,1.750202E2,2.396487E2,8.4387344E1,1.3030301E2,9.506522E1,2.5800205E1,9.367306E0,1.3204965E2,3.5260265E1,1.427481E2,4.6698213E0,8.464402E0,8.072702E0,3.2612232E1,4.210267E0,2.1802235E0,1.3372568E0,1.1779959E0,2.0816107E0,1.2479018E0,2.9177985E0,2.5626264E0,1.6098753E2,3.0494792E0,1.0239413E0,2.6816037E0,7.8165894E0,1.2347436E0,9.933668E0,2.4330556E2,6.3716095E2,2.5194666E1,7.961404E1,1.0729353E1,1.494378E0,1.5742732E2,5.174998E0,5.885764E0,3.4690723E0,6.1538013E1,2.6075525E2,8.2517096E2,1.4081582E3,1.7440654E3,1.1452106E1,4.213815E0,4.6460716E1,5.2101093E1,8.025939E0,8.257973E2,1.2635373E1,1.4214315E0,3.9824734E1,3.5484432E1,1.90761E1,4.4665847E0,2.0580608E1,1.1461779E1,1.4530646E2,2.9713741E1,7.040333E1,1.6924538E2,6.808887E1,1.6298481E1,1.2642588E2,3.877131E0,4.4294292E1,5.077093E1,8.227749E0,1.7572456E1,7.1631684E0,2.204137E0,6.5677635E1,6.637201E1,7.098642E0,2.8161625E1,4.9808292E1,9.29398E1,2.4975557E0,2.1722655E0,6.861226E0,1.6031761E0,5.1169744E0,2.955728E0,2.9430271E1,3.1819599E0,1.3362907E1,1.4762462E2,1.455309E0,1.5941702E0],"tree_param":{"num_deleted":"0","num_feature":"16","num_nodes":"169","size_leaf_vector":"1"}},{"base_weights":[-4.136359E-3,6.187347E-1,-1.2582954E0,8.3058167E-1,-4.3592712E-1,-1.2713511E0,-8.305129E-1,9.9119383E-1,6.856138E-1,-5.8505226E-2,-9.2282987E-1,-9.036348E-1,-1.2737164E0,-6.02022E-1,-1.1380252E0,1.8834195E-1,1.0101377E0,-5.343192E-1,7.9637545E-1,-5.494683E-1,3.0047063E-2,-8.2956237E-1,-1.3272852E0,-1.2286025E-1,1.9498357E-1,-1.120945E0,-1.2794375E-1,-1.0479419E0,-3.7742785E-1,-1.1842195E-1,-1.0727313E-1,1.1202102E0,3.8091585E-2,1.2249752E0,9.577763E-1,-4.6179247E-1,-9.6391916E-1,9.4324124E-1,5.5887103E-1,-1.2864665E0,-1.9013456E-1,1.5143009E-1,-3.5150695E-1,-7.7135026E-1,-1.2628456E0,-1.385616E-1,-7.7036345E-1,-9.687538E-2,1.1197742E0,7.500255E-2,-1.1559815E0,-1.1743611E0,7.4365795E-2,9.565689E-1,-5.4580444E-1,5.0578147E-2,-7.017323E-2,1.2936215E-1,-9.465997E-3,-5.4314417E-1,2.2186579E-1,1.2572227E0,9.1531384E-1,7.1454144E-1,1.0887663E0,-1.1948063E-1,-4.2748848E-1,-1.0980576E-1,-5.751853E-1,-7.927772E-1,9.496286E-1,3.9508712E-1,7.290139E-1,-1.6873727E0,-9.843401E-1,-5.3702217E-2,-8.277964E-1,-8.7148225E-1,2.2274287E-1,-1.6147117E-1,-7.837327E-1,-1.0068736E0,-6.0765463E-1,-1.0730742E0,-1.5298353E-1,-1.0538977E-1,8.5586056E-2,1.4831921E-1,2.4698453E-3,-9.048948E-2,1.0344108E-1,-1.1810949E0,-1.823448E-1,-2.6012424E-2,-1.2498682E0,1.9112633E-1,2.1532184E-2,-7.7505827E-1,2.9356876E-2,-1.2106084E-1,7.876575E-3,9.233811E-2,-2.6962895E-2,1.2634537E-1,5.1292833E-2,-3.787614E-2,1.0424731E-1,-1.46736E-2,7.752694E-2,5.156188E-2,1.1009189E-1,-7.4340366E-2,-3.645451E-2,-3.25333E-2,-1.0126203E-1,1.146062E-2,-1.791379E-1,8.571058E-2,1.0343076E-1,5.997345E-2,-3.4825537E-2,-7.609286E-2,7.9144895E-2,-7.6737516E-2,-1.903935E-1,-1.6069327E-1,-4.1131284E-2,4.465584E-2,-3.2967787E-2,-1.058081E-1,4.2962376E-2,6.383857E-2,-1.2060996E-1,-3.6586173E-2,3.2941397E-2,-5.068816E-2,2.707584E-2,-1.5098295E-1,-3.7630733E-2,5.927682E-2,-1.0888275E-1,-1.3283765E-1,-5.3632416E-2,-6.610242E-2,-1.4064528E-1,-9.740018E-2,-1.2515281E-1,6.278912E-2,-9.082225E-2,-2.4342662E-2,-1.2923394E-1,8.497739E-2,-8.182644E-2,7.7055492E-3,-1.0507108E-1,6.2154222E-2,-5.918486E-2],"categories":[],"categories_nodes":[],"categories_segments":[],"categories_sizes":[],"default_left":[0,0,0,0,0,0,0,0,0,0,0,0,0,0,0,0,0,0,0,0,0,0,0,0,0,0,0,0,0,0,0,0,0,0,0,0,0,0,0,0,0,0,0,0,0,0,0,0,0,0,0,0,0,0,0,0,0,0,0,0,0,0,0,0,0,0,0,0,0,0,0,0,0,0,0,0,0,0,0,0,0,0,0,0,0,0,0,0,0,0,0,0,0,0,0,0,0,0,0,0,0,0,0,0,0,0,0,0,0,0,0,0,0,0,0,0,0,0,0,0,0,0,0,0,0,0,0,0,0,0,0,0,0,0,0,0,0,0,0,0,0,0,0,0,0,0,0,0,0,0,0,0,0,0,0,0,0],"id":8,"left_children":[1,3,5,7,9,11,13,15,17,19,21,23,25,27,29,31,33,35,37,39,41,43,45,-1,47,49,-1,51,53,-1,55,57,59,61,63,65,67,69,71,73,75,77,79,81,83,-1,85,-1,87,89,91,93,-1,95,97,-1,-1,-1,-1,99,101,103,105,107,109,-1,111,-1,113,115,117,119,121,123,125,127,129,131,133,135,137,139,141,143,-1,-1,-1,-1,-1,-1,-1,145,147,-1,149,-1,151,153,155,-1,-1,-1,-1,-1,-1,-1,-1,-1,-1,-1,-1,-1,-1,-1,-1,-1,-1,-1,-1,-1,-1,-1,-1,-1,-1,-1,-1,-1,-1,-1,-1,-1,-1,-1,-1,-1,-1,-1,-1,-1,-1,-1,-1,-1,-1,-1,-1,-1,-1,-1,-1,-1,-1,-1,-1,-1,-1],"loss_changes":[8.817246E3,1.6853594E3,1.9862793E1,1.4555225E2,2.3188445E2,2.0083008E0,7.311554E0,4.5090576E1,4.469016E2,3.0974237E1,1.9686401E1,9.757418E0,1.71875E0,6.356367E0,2.1295357E0,9.738633E0,3.1543701E1,8.14283E0,1.0514966E2,2.8584198E1,2.8036617E1,1.0387695E1,2.2330017E0,0E0,8.563077E0,5.880707E0,0E0,5.860466E0,1.094375E1,0E0,1.4964956E0,2.1585398E0,6.657119E0,4.5046997E0,7.3873535E1,5.467243E0,1.3964195E0,2.1494629E1,3.203882E1,2.6397057E0,6.424037E0,3.3682663E1,1.1875969E1,1.4797592E1,9.820633E-1,0E0,6.3816795E0,0E0,1.6888452E0,5.518833E0,3.070877E0,1.1214638E0,0E0,4.925061E0,5.5390024E0,0E0,0E0,0E0,0E0,6.317976E0,1.652464E1,1.7183838E0,9.789719E0,4.316159E1,1.0026245E1,0E0,4.2759933E0,0E0,9.9056244E-1,6.912522E0,1.371875E1,9.045678E1,5.3421448E1,1.3000832E0,7.4188366E0,8.750741E0,4.2290716E0,1.5988867E1,2.7116419E1,1.5478818E1,1.2556822E1,2.1930786E1,1.1539406E1,3.688366E0,0E0,0E0,0E0,0E0,0E0,0E0,0E0,6.8943787E-1,3.2533417E0,0E0,5.0157356E-1,0E0,3.3537354E0,7.115507E0,5.1082845E0,0E0,0E0,0E0,0E0,0E0,0E0,0E0,0E0,0E0,0E0,0E0,0E0,0E0,0E0,0E0,0E0,0E0,0E0,0E0,0E0,0E0,0E0,0E0,0E0,0E0,0E0,0E0,0E0,0E0,0E0,0E0,0E0,0E0,0E0,0E0,0E0,0E0,0E0,0E0,0E0,0E0,0E0,0E0,0E0,0E0,0E0,0E0,0E0,0E0,0E0,0E0,0E0,0E0,0E0,0E0,0E0,0E0,0E0],"parents":[2147483647,0,0,1,1,2,2,3,3,4,4,5,5,6,6,7,7,8,8,9,9,10,10,11,11,12,12,13,13,14,14,15,15,16,16,17,17,18,18,19,19,20,20,21,21,22,22,24,24,25,25,27,27,28,28,30,30,31,31,32,32,33,33,34,34,35,35,36,36,37,37,38,38,39,39,40,40,41,41,42,42,43,43,44,44,46,46,48,48,49,49,50,50,51,51,53,53,54,54,59,59,60,60,61,61,62,62,63,63,64,64,66,66,68,68,69,69,70,70,71,71,72,72,73,73,74,74,75,75,76,76,77,77,78,78,79,79,80,80,81,81,82,82,83,83,91,91,92,92,94,94,96,96,97,97,98,98],"right_children":[2,4,6,8,10,12,14,16,18,20,22,24,26,28,30,32,34,36,38,40,42,44,46,-1,48,50,-1,52,54,-1,56,58,60,62,64,66,68,70,72,74,76,78,80,82,84,-1,86,-1,88,90,92,94,-1,96,98,-1,-1,-1,-1,100,102,104,106,108,110,-1,112,-1,114,116,118,120,122,124,126,128,130,132,134,136,138,140,142,144,-1,-1,-1,-1,-1,-1,-1,146,148,-1,150,-1,152,154,156,-1,-1,-1,-1,-1,-1,-1,-1,-1,-1,-1,-1,-1,-1,-1,-1,-1,-1,-1,-1,-1,-1,-1,-1,-1,-1,-1,-1,-1,-1,-1,-1,-1,-1,-1,-1,-1,-1,-1,-1,-1,-1,-1,-1,-1,-1,-1,-1,-1,-1,-1,-1,-1,-1,-1,-1,-1,-1],"split_conditions":[1.5023986E-1,1.5650213E-1,1.630717E-3,1.1994218E-1,1.749327E-1,5.0781228E-2,1.3783784E-1,6.8050355E-4,1.2021377E-1,2.1286006E-1,2.1128477E-1,3.4933522E0,1.5514609E-1,2.950498E-1,7.895753E-1,3.6414497E-2,5.757915E-2,1.4384058E-1,1.4033316E-1,3.850379E-2,1.6861908E-1,1.4424334E-1,1.2183644E-2,-1.2286025E-1,6.386034E-1,3.082843E-2,-1.2794375E-1,1.788635E-3,4.538929E-1,-1.1842195E-1,8.47025E-1,5.973233E-1,1.4997391E-1,5.5658054E-1,9.249589E-2,8.068033E-2,1.311045E-1,7.5024897E-3,9.1633685E-3,3.8024825E-1,1.4446875E-1,2.1711523E-3,8.1106097E-1,1.2483646E-1,1.8692954E-1,-1.385616E-1,1.0341832E-1,-9.687538E-2,7.853756E-1,2.1003908E-2,2.3636158E-1,1.2282661E-1,7.4365795E-2,3.1500602E-1,1.2542291E-1,5.0578147E-2,-7.017323E-2,1.2936215E-1,-9.465997E-3,4.158633E-4,2.5342456E-1,3.1582928E-1,9.4514387E-4,1.0063236E-1,1.8779715E-3,-1.1948063E-1,2.950498E-1,-1.0980576E-1,2.3636158E-1,6.216746E-1,9.1633685E-3,7.183093E-4,1.1460708E-1,4.8159674E-2,1.3825925E-1,4.6500728E-1,1.4508246E-1,3.5396042E-1,1.1553363E-1,1.3621257E-1,1.3545738E0,5.7783052E-2,9.924201E-2,1.9658993E-3,-1.5298353E-1,-1.0538977E-1,8.5586056E-2,1.4831921E-1,2.4698453E-3,-9.048948E-2,1.0344108E-1,1.7544587E-1,1.4446875E-1,-2.6012424E-2,2.397115E-2,1.9112633E-1,1.4181685E-1,4.998779E-2,2.9746413E-1,-1.2106084E-1,7.876575E-3,9.233811E-2,-2.6962895E-2,1.2634537E-1,5.1292833E-2,-3.787614E-2,1.0424731E-1,-1.46736E-2,7.752694E-2,5.156188E-2,1.1009189E-1,-7.4340366E-2,-3.645451E-2,-3.25333E-2,-1.0126203E-1,1.146062E-2,-1.791379E-1,8.571058E-2,1.0343076E-1,5.997345E-2,-3.4825537E-2,-7.609286E-2,7.9144895E-2,-7.6737516E-2,-1.903935E-1,-1.6069327E-1,-4.1131284E-2,4.465584E-2,-3.2967787E-2,-1.058081E-1,4.2962376E-2,6.383857E-2,-1.2060996E-1,-3.6586173E-2,3.2941397E-2,-5.068816E-2,2.707584E-2,-1.5098295E-1,-3.7630733E-2,5.927682E-2,-1.0888275E-1,-1.3283765E-1,-5.3632416E-2,-6.610242E-2,-1.4064528E-1,-9.740018E-2,-1.2515281E-1,6.278912E-2,-9.082225E-2,-2.4342662E-2,-1.2923394E-1,8.497739E-2,-8.182644E-2,7.7055492E-3,-1.0507108E-1,6.2154222E-2,-5.918486E-2],"split_indices":[0,12,9,12,12,2,12,15,12,13,12,13,0,7,2,12,12,15,12,15,12,0,9,0,4,12,0,9,2,0,2,2,4,13,12,0,0,13,15,7,13,9,13,0,12,0,0,0,4,12,15,2,0,7,12,0,0,0,0,15,4,15,15,0,9,0,7,0,15,2,15,15,0,13,0,2,0,13,0,0,13,7,4,15,0,0,0,0,0,0,0,4,13,0,13,0,4,12,7,0,0,0,0,0,0,0,0,0,0,0,0,0,0,0,0,0,0,0,0,0,0,0,0,0,0,0,0,0,0,0,0,0,0,0,0,0,0,0,0,0,0,0,0,0,0,0,0,0,0,0,0,0,0,0,0,0,0],"split_type":[0,0,0,0,0,0,0,0,0,0,0,0,0,0,0,0,0,0,0,0,0,0,0,0,0,0,0,0,0,0,0,0,0,0,0,0,0,0,0,0,0,0,0,0,0,0,0,0,0,0,0,0,0,0,0,0,0,0,0,0,0,0,0,0,0,0,0,0,0,0,0,0,0,0,0,0,0,0,0,0,0,0,0,0,0,0,0,0,0,0,0,0,0,0,0,0,0,0,0,0,0,0,0,0,0,0,0,0,0,0,0,0,0,0,0,0,0,0,0,0,0,0,0,0,0,0,0,0,0,0,0,0,0,0,0,0,0,0,0,0,0,0,0,0,0,0,0,0,0,0,0,0,0,0,0,0,0],"sum_hessian":[1.1285098E4,7.540605E3,3.744493E3,6.279477E3,1.261128E3,3.6316836E3,1.1280928E2,2.9762285E3,3.3032485E3,7.110663E2,5.5006177E2,2.5659512E1,3.6060242E3,6.64171E1,4.639218E1,6.88597E1,2.907369E3,2.746308E2,3.0286177E3,1.0785846E2,6.032078E2,4.4946585E2,1.0059589E2,1.9710804E1,5.948708E0,1.3727484E2,3.4687493E3,2.1019014E1,4.5398083E1,4.4259743E1,2.1324377E0,8.664701E0,6.0195E1,5.6535114E2,2.3420176E3,2.3673862E2,3.789218E1,1.8695634E3,1.1590543E3,3.450602E1,7.335244E1,4.5808218E2,1.4512566E2,3.9868262E2,5.078323E1,8.971168E1,1.0884207E1,2.613011E0,3.3356972E0,3.8746893E0,1.3340015E2,1.9955433E1,1.063581E0,4.5633006E0,4.083478E1,1.1232374E0,1.0092002E0,7.525661E0,1.1390406E0,1.3990561E1,4.620444E1,5.092581E2,5.6093052E1,8.2203656E2,1.5199812E3,9.071315E0,2.276673E2,2.681467E1,1.1077509E1,6.402174E0,1.8631613E3,5.9225586E2,5.6679846E2,1.2858483E1,2.1647533E1,6.1317368E1,1.2035073E1,2.912285E1,4.2895935E2,1.01759056E2,4.3366604E1,1.6136365E2,2.3731898E2,3.2618057E1,1.8165173E1,9.567957E0,1.3162497E0,2.2384224E0,1.0972749E0,1.9449861E0,1.9297032E0,1.2983812E2,3.56203E0,1.8614998E0,1.8093933E1,1.7413205E0,2.8219802E0,2.8948595E1,1.1886187E1,6.2915564E0,7.6990047E0,1.8673231E1,2.7531208E1,5.0433847E2,4.919627E0,4.841671E0,5.125138E1,5.405024E1,7.6798627E2,3.246077E1,1.4875204E3,3.6028465E1,1.9163884E2,8.160282E0,2.9172266E0,3.8180873E0,2.5840867E0,8.956589E2,9.675024E2,4.645541E2,1.2770178E2,2.2346106E1,5.444524E2,3.315793E0,9.54269E0,9.510316E0,1.2137218E1,2.1580437E1,3.973693E1,1.0306132E1,1.7289407E0,5.1186323E0,2.4004217E1,6.543932E1,3.6352002E2,5.6463943E1,4.5295113E1,1.4614847E1,2.8751755E1,7.560418E0,1.5380322E2,1.9785343E1,2.1753363E2,1.5921797E1,1.6696262E1,3.6714935E1,9.3123184E1,1.7469963E0,1.8150339E0,1.0052001E0,1.7088734E1,1.414783E0,1.4071972E0,7.251812E0,2.1696783E1,6.084954E0,5.801233E0],"tree_param":{"num_deleted":"0","num_feature":"16","num_nodes":"157","size_leaf_vector":"1"}},{"base_weights":[-4.607E-3,-1.2169563E0,5.804661E-1,-1.2330322E0,-5.685608E-1,7.824607E-1,-3.9806977E-1,-1.2423706E0,-1.0309047E0,-2.3707806E-1,-9.017631E-1,1.9811885E-1,9.2379296E-1,-8.575446E-1,-2.2803463E-2,-9.9396074E-1,-1.2453717E-1,-1.0604995E0,-1.2926562E-1,-4.874866E-1,7.108851E-1,-9.957581E-1,6.934636E-2,1.0954047E0,-4.129549E-2,9.83475E-1,6.640709E-1,-3.6859658E-1,-1.1346608E0,1.9954044E-1,-6.576398E-1,-1.2173849E-1,4.939195E-2,-2.6073223E-1,-1.086361E0,-7.880022E-2,6.561184E-1,2.0904468E-1,-6.7416626E-1,1.2287643E-1,-7.707078E-2,-1.0792061E0,5.3270932E-2,1.1121386E0,-8.7911114E-2,1.9268586E-1,-7.1215177E-1,2.2397597E-1,9.985275E-1,1.843891E-1,7.351413E-1,-1.2984753E0,-5.6479562E-2,-8.136978E-1,-1.2628859E0,2.860496E-1,-2.3064801E-1,-1.2978427E0,-4.956638E-1,1.1683347E0,-1.0344856E-1,-7.212619E-1,8.794317E-2,-1.101181E0,-5.4146346E-2,-2.6416394E-3,1.0097634E-1,-9.567552E-2,7.277737E-1,-1.0083996E0,8.642151E-2,-1.1504962E-1,-4.268819E-2,1.1974641E0,7.4058676E-1,-1.3497794E0,3.6625797E-1,-1.1748664E0,-5.997564E-1,1.0466566E0,1.1645058E-1,1.0352964E0,8.749324E-1,3.4856358E-1,-6.65407E-1,-9.899583E-1,7.506159E-1,-1.4100836E-1,-7.121487E-1,-1.0700735E0,1.1045207E-1,-1.3438512E-1,-5.2481306E-1,-6.0386E-1,-1.2872916E0,-2.4722241E-1,3.6863717E-1,-6.3801324E-1,6.7802495E-1,-1.2448618E-1,-1.4709553E-1,-1.0320828E0,-1.4330919E-1,-6.520628E-2,1.8445307E-1,-9.716948E-2,-1.0303065E-2,-9.018097E-2,-1.21004544E-1,-7.030177E-2,5.8794063E-2,1.2215419E-1,-8.20405E-2,-1.2421189E-3,-1.2211478E-1,-1.0677838E-1,7.06316E-2,-7.978133E-2,8.048805E-2,1.2180167E-1,7.5033307E-3,-2.3204798E-2,1.0123991E-1,-1.4839856E-1,-7.8771174E-2,4.070542E-2,-1.9382875E-1,-3.29961E-2,-1.2271901E-1,-6.259046E-2,1.173079E-1,-1.2568801E-2,1.2312068E-1,-7.7578776E-2,2.3573598E-2,9.524261E-2,1.1055461E-1,1.127879E-1,7.947443E-2,4.3358415E-2,-9.935192E-2,-9.331482E-2,2.7297989E-2,-1.4637245E-1,-2.160111E-2,-9.448584E-2,7.631272E-2,-1.2166763E-2,-1.4878653E-1,-1.4573725E-1,2.152961E-2,-9.263487E-2,1.9745473E-2,-1.3074097E-1,-1.7711356E-2,-1.1780485E-1,2.7467877E-2,-1.1819279E-1,-1.4759044E-1,6.760011E-3,-1.3400434E-1,4.9810294E-2,3.7654513E-3,-8.7924294E-2,5.2400893E-3,1.337257E-1,9.666673E-3,-1.1167375E-1,1.0300561E-1,-1.768375E-2,-1.2956078E-1,2.400065E-2,-7.568627E-2],"categories":[],"categories_nodes":[],"categories_segments":[],"categories_sizes":[],"default_left":[0,0,0,0,0,0,0,0,0,0,0,0,0,0,0,0,0,0,0,0,0,0,0,0,0,0,0,0,0,0,0,0,0,0,0,0,0,0,0,0,0,0,0,0,0,0,0,0,0,0,0,0,0,0,0,0,0,0,0,0,0,0,0,0,0,0,0,0,0,0,0,0,0,0,0,0,0,0,0,0,0,0,0,0,0,0,0,0,0,0,0,0,0,0,0,0,0,0,0,0,0,0,0,0,0,0,0,0,0,0,0,0,0,0,0,0,0,0,0,0,0,0,0,0,0,0,0,0,0,0,0,0,0,0,0,0,0,0,0,0,0,0,0,0,0,0,0,0,0,0,0,0,0,0,0,0,0,0,0,0,0,0,0,0,0,0,0,0,0,0,0,0,0],"id":9,"left_children":[1,3,5,7,9,11,13,15,17,19,21,23,25,27,29,31,-1,33,35,37,39,41,-1,43,45,47,49,51,53,55,57,-1,59,61,63,-1,65,67,69,-1,-1,71,-1,73,-1,75,77,79,81,83,85,87,89,91,93,95,97,99,101,103,-1,105,-1,107,109,-1,-1,-1,111,113,115,-1,117,119,121,123,125,127,129,131,133,135,137,139,141,143,145,-1,147,149,151,-1,153,155,157,159,161,163,165,167,-1,169,171,-1,-1,-1,-1,-1,-1,-1,-1,-1,-1,-1,-1,-1,-1,-1,-1,-1,-1,-1,-1,-1,-1,-1,-1,-1,-1,-1,-1,-1,-1,-1,-1,-1,-1,-1,-1,-1,-1,-1,-1,-1,-1,-1,-1,-1,-1,-1,-1,-1,-1,-1,-1,-1,-1,-1,-1,-1,-1,-1,-1,-1,-1,-1,-1,-1,-1,-1,-1,-1,-1],"loss_changes":[7.6366904E3,3.5828613E1,1.435675E3,5.1723633E0,9.355932E0,4.969558E2,2.1433899E2,1.1948242E0,4.048416E0,1.0978697E1,7.115963E0,2.5217323E2,7.4478516E1,7.530527E1,9.686717E1,1.0294369E1,0E0,2.8550262E0,3.6851878E0,4.8250637E0,8.440317E0,5.7888527E0,0E0,9.1466675E0,1.4571236E2,4.481079E1,3.084494E1,5.9030647E1,1.3632751E1,1.8983627E1,1.7814957E1,0E0,1.1765144E1,3.8207476E0,2.1839294E0,0E0,8.326237E-1,5.7624674E0,7.3694696E0,0E0,0E0,2.8395882E0,0E0,6.8993225E0,0E0,1.8479527E2,1.1778793E1,6.764029E0,1.664624E1,1.67788E1,2.186316E1,2.341774E0,2.6092836E1,1.5298897E1,3.2874756E0,1.8750217E1,3.214137E1,6.992012E0,2.7008408E1,7.0527906E0,0E0,6.5419006E-1,0E0,2.045807E0,1.7163949E0,0E0,0E0,0E0,5.8683853E0,4.2184544E0,7.670375E0,0E0,2.9169326E0,4.47876E0,1.3053976E1,4.0994186E0,5.9036537E1,1.622818E0,9.781418E0,2.07446E0,7.6298614E0,1.6245361E1,1.7197083E1,1.1847612E1,5.165825E0,2.42102E0,1.7366272E1,0E0,4.489595E0,1.1166832E1,1.2154171E1,0E0,1.8620348E1,5.8262873E0,3.0809631E0,1.9843266E1,1.5718487E1,9.982584E0,1.021868E1,7.604578E0,0E0,1.2572281E1,2.084906E1,0E0,0E0,0E0,0E0,0E0,0E0,0E0,0E0,0E0,0E0,0E0,0E0,0E0,0E0,0E0,0E0,0E0,0E0,0E0,0E0,0E0,0E0,0E0,0E0,0E0,0E0,0E0,0E0,0E0,0E0,0E0,0E0,0E0,0E0,0E0,0E0,0E0,0E0,0E0,0E0,0E0,0E0,0E0,0E0,0E0,0E0,0E0,0E0,0E0,0E0,0E0,0E0,0E0,0E0,0E0,0E0,0E0,0E0,0E0,0E0,0E0,0E0,0E0,0E0,0E0,0E0,0E0,0E0,0E0,0E0],"parents":[2147483647,0,0,1,1,2,2,3,3,4,4,5,5,6,6,7,7,8,8,9,9,10,10,11,11,12,12,13,13,14,14,15,15,17,17,18,18,19,19,20,20,21,21,23,23,24,24,25,25,26,26,27,27,28,28,29,29,30,30,32,32,33,33,34,34,36,36,37,37,38,38,41,41,43,43,45,45,46,46,47,47,48,48,49,49,50,50,51,51,52,52,53,53,54,54,55,55,56,56,57,57,58,58,59,59,61,61,63,63,64,64,68,68,69,69,70,70,72,72,73,73,74,74,75,75,76,76,77,77,78,78,79,79,80,80,81,81,82,82,83,83,84,84,85,85,86,86,88,88,89,89,90,90,92,92,93,93,94,94,95,95,96,96,97,97,98,98,99,99,101,101,102,102],"right_children":[2,4,6,8,10,12,14,16,18,20,22,24,26,28,30,32,-1,34,36,38,40,42,-1,44,46,48,50,52,54,56,58,-1,60,62,64,-1,66,68,70,-1,-1,72,-1,74,-1,76,78,80,82,84,86,88,90,92,94,96,98,100,102,104,-1,106,-1,108,110,-1,-1,-1,112,114,116,-1,118,120,122,124,126,128,130,132,134,136,138,140,142,144,146,-1,148,150,152,-1,154,156,158,160,162,164,166,168,-1,170,172,-1,-1,-1,-1,-1,-1,-1,-1,-1,-1,-1,-1,-1,-1,-1,-1,-1,-1,-1,-1,-1,-1,-1,-1,-1,-1,-1,-1,-1,-1,-1,-1,-1,-1,-1,-1,-1,-1,-1,-1,-1,-1,-1,-1,-1,-1,-1,-1,-1,-1,-1,-1,-1,-1,-1,-1,-1,-1,-1,-1,-1,-1,-1,-1,-1,-1,-1,-1,-1,-1],"split_conditions":[1.788635E-3,1.684342E-3,1.5650213E-1,1.466212E-3,1.2906629E-1,1.3445696E-1,1.7383859E-1,7.335486E-2,2.3636158E-1,1.2474698E-1,2.979796E-1,6.573136E-2,1.4076225E-1,1.6766423E-1,1.8452837E-1,3.4933522E0,-1.2453717E-1,3.082843E-2,1.7093746E-1,4.998779E-2,3.5868344E-1,2.3636158E-1,6.934636E-2,4.1241488E-1,1.3436145E-1,6.8050355E-4,1.5888362E-1,9.2492096E-2,2.7034252E-3,7.571831E-3,3.1410635E-1,-1.2173849E-1,3.812194E0,2.497179E-2,3.1053782E-1,-7.880022E-2,4.060764E-1,3.496606E-1,1.3216943E-1,1.2287643E-1,-7.707078E-2,7.895753E-1,5.3270932E-2,5.9624594E-2,-8.7911114E-2,7.9053916E-2,4.591949E-1,3.6414497E-2,6.216931E-3,4.6106544E-3,6.8050355E-4,8.490733E-2,2.3884511E-1,2.068724E-3,1.6861908E-1,2.370745E-3,3.1053782E-1,1.8165631E-2,2.2934905E-1,5.35895E-4,-1.0344856E-1,2.1003908E-2,8.794317E-2,4.538929E-1,1.3530199E-1,-2.6416394E-3,1.0097634E-1,-9.567552E-2,1.1118762E-1,6.2253267E-2,6.2429774E-1,-1.1504962E-1,1.4204933E-1,2.6620418E-1,9.887793E-2,7.508528E-2,1.2183644E-2,7.561151E-5,1.2021377E-1,9.607622E-2,1.9043289E-3,9.1633685E-3,6.573136E-2,6.31269E-1,1.0461663E-2,4.914748E-4,1.146824E-2,-1.4100836E-1,3.6861866E-3,1.8447778E-1,2.1711523E-3,-1.3438512E-1,1.0533619E-1,1.3312253E-1,1.3509823E-1,7.512456E-1,1.7078376E-1,1.5482151E-2,1.618927E-1,8.047724E-3,-1.4709553E-1,1.8315874E-1,5.8072405E-3,-6.520628E-2,1.8445307E-1,-9.716948E-2,-1.0303065E-2,-9.018097E-2,-1.21004544E-1,-7.030177E-2,5.8794063E-2,1.2215419E-1,-8.20405E-2,-1.2421189E-3,-1.2211478E-1,-1.0677838E-1,7.06316E-2,-7.978133E-2,8.048805E-2,1.2180167E-1,7.5033307E-3,-2.3204798E-2,1.0123991E-1,-1.4839856E-1,-7.8771174E-2,4.070542E-2,-1.9382875E-1,-3.29961E-2,-1.2271901E-1,-6.259046E-2,1.173079E-1,-1.2568801E-2,1.2312068E-1,-7.7578776E-2,2.3573598E-2,9.524261E-2,1.1055461E-1,1.127879E-1,7.947443E-2,4.3358415E-2,-9.935192E-2,-9.331482E-2,2.7297989E-2,-1.4637245E-1,-2.160111E-2,-9.448584E-2,7.631272E-2,-1.2166763E-2,-1.4878653E-1,-1.4573725E-1,2.152961E-2,-9.263487E-2,1.9745473E-2,-1.3074097E-1,-1.7711356E-2,-1.1780485E-1,2.7467877E-2,-1.1819279E-1,-1.4759044E-1,6.760011E-3,-1.3400434E-1,4.9810294E-2,3.7654513E-3,-8.7924294E-2,5.2400893E-3,1.337257E-1,9.666673E-3,-1.1167375E-1,1.0300561E-1,-1.768375E-2,-1.2956078E-1,2.400065E-2,-7.568627E-2],"split_indices":[9,9,12,9,12,11,11,2,15,12,11,12,12,12,12,13,0,12,11,12,13,15,0,14,11,15,11,11,9,9,3,0,13,12,11,0,3,3,14,0,0,2,0,12,0,11,2,12,9,9,15,11,13,9,12,9,11,14,11,9,0,12,0,2,12,0,0,0,14,13,13,0,11,15,11,11,9,15,12,13,9,15,12,2,9,15,13,0,9,15,9,0,14,11,11,13,12,9,12,9,0,11,9,0,0,0,0,0,0,0,0,0,0,0,0,0,0,0,0,0,0,0,0,0,0,0,0,0,0,0,0,0,0,0,0,0,0,0,0,0,0,0,0,0,0,0,0,0,0,0,0,0,0,0,0,0,0,0,0,0,0,0,0,0,0,0,0,0,0,0,0,0,0],"split_type":[0,0,0,0,0,0,0,0,0,0,0,0,0,0,0,0,0,0,0,0,0,0,0,0,0,0,0,0,0,0,0,0,0,0,0,0,0,0,0,0,0,0,0,0,0,0,0,0,0,0,0,0,0,0,0,0,0,0,0,0,0,0,0,0,0,0,0,0,0,0,0,0,0,0,0,0,0,0,0,0,0,0,0,0,0,0,0,0,0,0,0,0,0,0,0,0,0,0,0,0,0,0,0,0,0,0,0,0,0,0,0,0,0,0,0,0,0,0,0,0,0,0,0,0,0,0,0,0,0,0,0,0,0,0,0,0,0,0,0,0,0,0,0,0,0,0,0,0,0,0,0,0,0,0,0,0,0,0,0,0,0,0,0,0,0,0,0,0,0,0,0,0,0],"sum_hessian":[1.0764325E4,3.5035088E3,7.260816E3,3.4178665E3,8.564238E1,6.0186206E3,1.2421956E3,3.262012E3,1.5585439E2,4.378994E1,4.185244E1,1.172654E3,4.8459663E3,5.5786383E2,6.843318E2,4.290299E1,3.2191091E3,1.5073068E2,5.1237016E0,3.5023964E1,8.765977E0,3.9878483E1,1.9739591E0,2.4623396E2,9.2642004E2,3.9382102E3,9.077562E2,2.0264465E2,3.5521918E2,5.0733084E2,1.7700093E2,3.519871E1,7.704276E0,5.068506E0,1.4566217E2,2.784709E0,2.3389928E0,7.3775086E0,2.7646454E1,6.621967E0,2.1440103E0,3.809271E1,1.7857747E0,2.4459776E2,1.6362021E0,6.8738617E2,2.3903389E2,7.684294E1,3.8613672E3,1.1760289E2,7.901534E2,5.0131004E1,1.5251364E2,1.0349774E2,2.5172145E2,4.226689E2,8.466195E1,3.4324062E1,1.4267686E2,3.7524781E0,3.951798E0,3.871965E0,1.196541E0,1.4353456E2,2.1276107E0,1.1140939E0,1.2248989E0,2.0117803E0,5.3657284E0,1.8980036E1,8.666419E0,3.5538464E1,2.5542428E0,1.9710947E2,4.74883E1,6.884166E1,6.185445E2,4.4867615E1,1.9416628E2,7.8729177E0,6.8970024E1,2.970331E3,8.9103625E2,9.905585E1,1.8547049E1,6.4650235E0,7.8368835E2,4.0934162E1,9.196839E0,2.0801083E1,1.3171257E2,3.5216866E1,6.8280876E1,9.908391E0,2.4181305E2,5.641313E1,3.6625577E2,5.866143E1,2.6000517E1,4.6339893E0,2.9690073E1,5.5799503E1,8.687736E1,1.0260155E0,2.7264626E0,2.348786E0,1.5231788E0,5.3973236E1,8.956133E1,1.0110166E0,1.116594E0,4.228192E0,1.1375363E0,3.5269663E0,1.545307E1,2.775704E0,5.8907146E0,1.3818308E0,1.172412E0,1.9348152E2,3.6279438E0,1.0404357E1,3.7083942E1,5.42484E1,1.4593255E1,6.0859424E2,9.950273E0,3.0426114E0,4.1825005E1,1.9198163E2,2.1846507E0,1.114169E0,