{"learner":{"attributes":{"scikit_learn":"{\"_estimator_type\": \"classifier\"}"},"feature_names":["absolute_magnitude_h","minimum_orbit_intersection","eccentricity","semi_major_axis","inclination","orbital_period","perihelion_distance","aphelion_distance","scaled_min_diameter_km","scaled_max_diameter_km","avg_diameter_km","relative_velocity.kilometers_per_hour","miss_distance.kilometers","earth_orbit_crossing_potential","orbit_stability","data_arc_in_days_scaled"],"feature_types":["float","float","float","float","float","float","float","float","float","float","float","float","float","float","float","float"],"gradient_booster":{"model":{"gbtree_model_param":{"num_parallel_tree":"1","num_trees":"400"},"iteration_indptr":[0,1,2,3,4,5,6,7,8,9,10,11,12,13,14,15,16,17,18,19,20,21,22,23,24,25,26,27,28,29,30,31,32,33,34,35,36,37,38,39,40,41,42,43,44,45,46,47,48,49,50,51,52,53,54,55,56,57,58,59,60,61,62,63,64,65,66,67,68,69,70,71,72,73,74,75,76,77,78,79,80,81,82,83,84,85,86,87,88,89,90,91,92,93,94,95,96,97,98,99,100,101,102,103,104,105,106,107,108,109,110,111,112,113,114,115,116,117,118,119,120,121,122,123,124,125,126,127,128,129,130,131,132,133,134,135,136,137,138,139,140,141,142,143,144,145,146,147,148,149,150,151,152,153,154,155,156,157,158,159,160,161,162,163,164,165,166,167,168,169,170,171,172,173,174,175,176,177,178,179,180,181,182,183,184,185,186,187,188,189,190,191,192,193,194,195,196,197,198,199,200,201,202,203,204,205,206,207,208,209,210,211,212,213,214,215,216,217,218,219,220,221,222,223,224,225,226,227,228,229,230,231,232,233,234,235,236,237,238,239,240,241,242,243,244,245,246,247,248,249,250,251,252,253,254,255,256,257,258,259,260,261,262,263,264,265,266,267,268,269,270,271,272,273,274,275,276,277,278,279,280,281,282,283,284,285,286,287,288,289,290,291,292,293,294,295,296,297,298,299,300,301,302,303,304,305,306,307,308,309,310,311,312,313,314,315,316,317,318,319,320,321,322,323,324,325,326,327,328,329,330,331,332,333,334,335,336,337,338,339,340,341,342,343,344,345,346,347,348,349,350,351,352,353,354,355,356,357,358,359,360,361,362,363,364,365,366,367,368,369,370,371,372,373,374,375,376,377,378,379,380,381,382,383,384,385,386,387,388,389,390,391,392,393,394,395,396,397,398,399,400],"tree_info":[0,0,0,0,0,0,0,0,0,0,0,0,0,0,0,0,0,0,0,0,0,0,0,0,0,0,0,0,0,0,0,0,0,0,0,0,0,0,0,0,0,0,0,0,0,0,0,0,0,0,0,0,0,0,0,0,0,0,0,0,0,0,0,0,0,0,0,0,0,0,0,0,0,0,0,0,0,0,0,0,0,0,0,0,0,0,0,0,0,0,0,0,0,0,0,0,0,0,0,0,0,0,0,0,0,0,0,0,0,0,0,0,0,0,0,0,0,0,0,0,0,0,0,0,0,0,0,0,0,0,0,0,0,0,0,0,0,0,0,0,0,0,0,0,0,0,0,0,0,0,0,0,0,0,0,0,0,0,0,0,0,0,0,0,0,0,0,0,0,0,0,0,0,0,0,0,0,0,0,0,0,0,0,0,0,0,0,0,0,0,0,0,0,0,0,0,0,0,0,0,0,0,0,0,0,0,0,0,0,0,0,0,0,0,0,0,0,0,0,0,0,0,0,0,0,0,0,0,0,0,0,0,0,0,0,0,0,0,0,0,0,0,0,0,0,0,0,0,0,0,0,0,0,0,0,0,0,0,0,0,0,0,0,0,0,0,0,0,0,0,0,0,0,0,0,0,0,0,0,0,0,0,0,0,0,0,0,0,0,0,0,0,0,0,0,0,0,0,0,0,0,0,0,0,0,0,0,0,0,0,0,0,0,0,0,0,0,0,0,0,0,0,0,0,0,0,0,0,0,0,0,0,0,0,0,0,0,0,0,0,0,0,0,0,0,0,0,0,0,0,0,0,0,0,0,0,0,0,0,0,0,0,0,0,0,0,0,0,0,0,0,0,0,0,0,0,0,0,0,0,0,0,0,0,0,0,0,0,0,0,0,0,0,0,0,0,0,0,0,0],"trees":[{"base_weights":[-6.4977515E-1,-1.1663849E0,5.1874435E-1,-4.6013355E-1,-1.1708454E0,1.3285595E0,-6.410634E-1,-7.604199E-1,1.8318351E-3,-1.1721891E-2,-6.0114807E-1,-5.791476E-2,2.2819383E0,-1.3335922E-1,-9.082848E-1,1.5051222E-3,-9.20434E-3,8.745878E-1,-6.382105E-1,-7.716803E-1,2.6289395E-3,4.180376E-2,-3.0279166E-1,2.5511982E0,1.0226068E0,-1.0393568E0,1.2303462E-1,-1.0702703E-2,-6.4128715E-1,-1.5441462E-3,1.3702195E-2,-6.7839824E-4,-7.24413E-3,-8.465411E-3,-1.1288463E-3,1.6238497E-3,-7.631924E-3,4.248067E-2,2.359605E-2,3.0423587E-3,1.7258048E-2,-6.7839824E-4,-1.0674827E-2,-6.8437896E-4,5.228965E-3,-1.94772E-3,-7.7445344E-3],"categories":[],"categories_nodes":[],"categories_segments":[],"categories_sizes":[],"default_left":[0,0,0,0,0,0,0,0,0,0,0,0,0,0,0,0,0,0,0,0,0,0,0,0,0,0,0,0,0,0,0,0,0,0,0,0,0,0,0,0,0,0,0,0,0,0,0],"id":0,"left_children":[1,3,5,7,9,11,13,15,17,-1,19,21,23,25,27,-1,-1,29,31,33,-1,-1,35,37,39,41,43,-1,45,-1,-1,-1,-1,-1,-1,-1,-1,-1,-1,-1,-1,-1,-1,-1,-1,-1,-1],"loss_changes":[1.9330562E3,5.914551E0,9.2446094E2,2.3923755E0,2.788086E-1,7.658333E2,5.47433E1,1.79949E0,6.021537E0,0E0,1.775037E0,2.4947488E2,1.1116931E2,3.3265064E1,1.0096603E1,0E0,0E0,2.7482576E0,2.0764494E-1,2.1670914E-1,0E0,0E0,4.8821888E1,7.144995E1,3.117823E1,7.174187E-1,8.688431E0,0E0,5.949173E0,0E0,0E0,0E0,0E0,0E0,0E0,0E0,0E0,0E0,0E0,0E0,0E0,0E0,0E0,0E0,0E0,0E0,0E0],"parents":[2147483647,0,0,1,1,2,2,3,3,4,4,5,5,6,6,7,7,8,8,10,10,11,11,12,12,13,13,14,14,17,17,18,18,19,19,22,22,23,23,24,24,25,25,26,26,28,28],"right_children":[2,4,6,8,10,12,14,16,18,-1,20,22,24,26,28,-1,-1,30,32,34,-1,-1,36,38,40,42,44,-1,46,-1,-1,-1,-1,-1,-1,-1,-1,-1,-1,-1,-1,-1,-1,-1,-1,-1,-1],"split_conditions":[1.788635E-3,1.5067597E-1,1.5177213E-1,1.6408291E-1,2.5681448E-1,1.3785362E-1,1.6724339E-1,1.1726025E-1,1.9891106E-1,-1.1721891E-2,4.623641E-1,5.6772437E-2,1.4154783E-1,9.254054E-2,1.7326939E-1,1.5051222E-3,-9.20434E-3,6.864176E-1,6.86897E-2,1.7148118E-1,2.6289395E-3,4.180376E-2,1.3431875E-1,5.6772437E-2,2.1492688E-1,5.4475583E-2,2.307861E-1,-1.0702703E-2,1.7499097E-1,-1.5441462E-3,1.3702195E-2,-6.7839824E-4,-7.24413E-3,-8.465411E-3,-1.1288463E-3,1.6238497E-3,-7.631924E-3,4.248067E-2,2.359605E-2,3.0423587E-3,1.7258048E-2,-6.7839824E-4,-1.0674827E-2,-6.8437896E-4,5.228965E-3,-1.94772E-3,-7.7445344E-3],"split_indices":[8,0,12,11,15,11,12,12,11,0,1,12,12,11,11,0,0,6,1,11,0,0,11,12,11,3,11,0,12,0,0,0,0,0,0,0,0,0,0,0,0,0,0,0,0,0,0],"split_type":[0,0,0,0,0,0,0,0,0,0,0,0,0,0,0,0,0,0,0,0,0,0,0,0,0,0,0,0,0,0,0,0,0,0,0,0,0,0,0,0,0,0,0,0,0,0,0],"sum_hessian":[3.198176E3,2.217714E3,9.804618E2,1.5225754E1,2.2024885E3,5.771712E2,4.0329056E2,8.444535E0,6.781218E0,2.1951953E3,7.293008E0,2.3593521E2,3.41236E2,1.4010252E2,2.6318802E2,1.2794751E0,7.1650605E0,2.5589502E0,4.2222676E0,6.269428E0,1.0235801E0,1.11314335E1,2.2480377E2,2.7943735E2,6.179865E1,2.9555874E1,1.10546646E2,1.6006233E2,1.03125694E2,1.2794751E0,1.2794751E0,1.0235801E0,3.1986878E0,5.1179004E0,1.1515276E0,1.1246586E2,1.1233791E2,2.4054132E1,2.5538322E2,3.1986877E1,2.981177E1,1.0235801E0,2.8532295E1,7.587287E1,3.4673775E1,2.4821817E1,7.830388E1],"tree_param":{"num_deleted":"0","num_feature":"16","num_nodes":"47","size_leaf_vector":"1"}},{"base_weights":[-6.4758134E-1,5.085236E-1,-1.1651305E0,2.2454648E0,-1.0365408E-2,-4.6889383E-1,-1.1687255E0,4.246166E0,1.8064717E0,6.035874E-1,-7.58794E-1,4.4442755E-3,-6.7667514E-1,-1.1700814E-2,-4.9586818E-1,5.005468E-3,4.3364744E0,-1.1829501E-1,2.3529255E0,-5.159078E-1,1.5721647E0,-2.8911725E-1,-9.3376E-1,-7.187198E-1,-6.538601E-4,1.9074067E-3,-7.809345E-3,4.4653773E-2,1.0958874E-2,-7.888564E-3,2.6243073E-3,1.1141224E-2,3.2628857E-2,-7.501471E-4,-8.822853E-3,2.2769155E-2,7.4292603E-3,-8.944853E-3,1.4295712E-3,-1.0630863E-2,-7.0868465E-3,-8.716191E-3,-2.79715E-3],"categories":[],"categories_nodes":[],"categories_segments":[],"categories_sizes":[],"default_left":[0,0,0,0,0,0,0,0,0,0,0,0,0,0,0,0,0,0,0,0,0,0,0,0,0,0,0,0,0,0,0,0,0,0,0,0,0,0,0,0,0,0,0],"id":1,"left_children":[1,3,5,7,9,11,13,15,17,19,21,-1,23,-1,25,-1,27,29,31,33,35,37,39,41,-1,-1,-1,-1,-1,-1,-1,-1,-1,-1,-1,-1,-1,-1,-1,-1,-1,-1,-1],"loss_changes":[1.9042319E3,8.87735E2,4.404541E0,1.836466E2,3.5030048E2,3.377638E0,8.327637E-1,8.947754E0,1.9963617E2,4.557552E2,2.7691238E1,0E0,2.3269224E-1,0E0,1.837317E0,0E0,6.128174E0,1.1585518E1,1.5902008E2,3.1492634E1,1.2813116E2,2.5402195E1,5.7527924E0,2.972293E-1,0E0,0E0,0E0,0E0,0E0,0E0,0E0,0E0,0E0,0E0,0E0,0E0,0E0,0E0,0E0,0E0,0E0,0E0,0E0],"parents":[2147483647,0,0,1,1,2,2,3,3,4,4,5,5,6,6,7,7,8,8,9,9,10,10,12,12,14,14,16,16,17,17,18,18,19,19,20,20,21,21,22,22,23,23],"right_children":[2,4,6,8,10,12,14,16,18,20,22,-1,24,-1,26,-1,28,30,32,34,36,38,40,42,-1,-1,-1,-1,-1,-1,-1,-1,-1,-1,-1,-1,-1,-1,-1,-1,-1,-1,-1],"split_conditions":[1.4991277E-1,1.1994218E-1,1.5067597E-1,5.6772437E-2,1.5843688E-1,7.06775E-2,2.5681448E-1,1.4200024E-1,1.2923415E-1,1.355866E-1,1.6875549E-1,4.4442755E-3,6.9867516E-1,-1.1700814E-2,1.5470998E-1,5.005468E-3,3.285925E-1,8.731282E-2,9.242981E-2,1.3431875E-1,1.4154783E-1,1.373085E-1,1.7326939E-1,1.7237483E-1,-6.538601E-4,1.9074067E-3,-7.809345E-3,4.4653773E-2,1.0958874E-2,-7.888564E-3,2.6243073E-3,1.1141224E-2,3.2628857E-2,-7.501471E-4,-8.822853E-3,2.2769155E-2,7.4292603E-3,-8.944853E-3,1.4295712E-3,-1.0630863E-2,-7.0868465E-3,-8.716191E-3,-2.79715E-3],"split_indices":[0,12,0,12,12,12,15,2,11,11,12,0,2,0,0,0,14,11,12,11,12,11,11,11,0,0,0,0,0,0,0,0,0,0,0,0,0,0,0,0,0,0,0],"split_type":[0,0,0,0,0,0,0,0,0,0,0,0,0,0,0,0,0,0,0,0,0,0,0,0,0,0,0,0,0,0,0,0,0,0,0,0,0,0,0,0,0,0,0],"sum_hessian":[3.1785386E3,9.8292E2,2.1956187E3,2.2456177E2,7.583582E2,1.2629053E1,2.1829895E3,3.7286114E1,1.8727567E2,4.1681915E2,3.4153906E2,1.9184587E0,1.0710594E1,2.1771245E3,5.864979E0,1.185882E0,3.610023E1,4.1758232E1,1.4551743E2,1.937801E2,2.2303905E2,9.413879E1,2.4740028E2,9.692456E0,1.0181383E0,1.9147956E0,3.950183E0,3.3992195E1,2.1080368E0,1.4346386E1,2.7411846E1,6.35078E1,8.200963E1,8.904009E1,1.04740005E2,1.18682205E2,1.0435685E2,3.8315506E1,5.582328E1,1.5239117E2,9.500912E1,5.7269516E0,3.9655044E0],"tree_param":{"num_deleted":"0","num_feature":"16","num_nodes":"43","size_leaf_vector":"1"}},{"base_weights":[-6.4096767E-1,5.0903076E-1,-1.1630801E0,-4.9278873E-1,1.1653757E0,-3.980044E-1,-1.167135E0,-1.0803682E-2,-2.6559407E-1,8.903027E-1,1.5722046E0,-7.0335335E-1,9.218905E-2,-1.1684893E-2,-5.713085E-1,8.9617535E-2,-8.572654E-1,-7.3249555E-1,9.1917306E-1,1.2126088E0,2.1138852E0,-8.6462265E-3,1.674497E-4,7.593407E-1,-5.132488E-1,1.8954406E-3,-8.362014E-3,5.324704E-3,-2.468373E-3,4.038839E-3,-8.966311E-3,-7.831223E-4,-8.146128E-3,1.1868854E-2,7.315677E-3,1.52001E-2,5.359125E-3,2.3026266E-3,2.1459652E-2,-6.8344345E-4,1.0588634E-2,-6.674808E-4,-5.9315055E-3],"categories":[],"categories_nodes":[],"categories_segments":[],"categories_sizes":[],"default_left":[0,0,0,0,0,0,0,0,0,0,0,0,0,0,0,0,0,0,0,0,0,0,0,0,0,0,0,0,0,0,0,0,0,0,0,0,0,0,0,0,0,0,0],"id":2,"left_children":[1,3,5,7,9,11,13,-1,15,17,19,21,23,-1,25,27,29,31,33,35,37,-1,-1,39,41,-1,-1,-1,-1,-1,-1,-1,-1,-1,-1,-1,-1,-1,-1,-1,-1,-1,-1],"loss_changes":[1.914608E3,6.563537E2,5.8720703E0,5.2266983E1,6.463867E1,2.3139572E0,4.2407227E-1,0E0,6.070424E1,1.840689E1,4.171588E1,1.1000886E0,3.756091E0,0E0,2.1020663E0,2.7356514E1,6.0993576E0,2.741294E-1,1.6277008E1,2.9411957E1,4.647003E0,0E0,0E0,1.2138784E0,1.01222515E-1,0E0,0E0,0E0,0E0,0E0,0E0,0E0,0E0,0E0,0E0,0E0,0E0,0E0,0E0,0E0,0E0,0E0,0E0],"parents":[2147483647,0,0,1,1,2,2,3,3,4,4,5,5,6,6,8,8,9,9,10,10,11,11,12,12,14,14,15,15,16,16,17,17,18,18,19,19,20,20,23,23,24,24],"right_children":[2,4,6,8,10,12,14,-1,16,18,20,22,24,-1,26,28,30,32,34,36,38,-1,-1,40,42,-1,-1,-1,-1,-1,-1,-1,-1,-1,-1,-1,-1,-1,-1,-1,-1,-1,-1],"split_conditions":[1.4991277E-1,1.355866E-1,1.5067597E-1,7.561535E-2,1.3464893E-1,1.6408291E-1,2.5681448E-1,-1.0803682E-2,1.3436145E-1,6.8050355E-4,6.9940644E-3,3.898275E-1,1.9891106E-1,-1.1684893E-2,1.5470998E-1,7.183093E-4,7.561151E-5,1.2870671E-1,5.241997E-3,3.1462276E-1,1.3680395E-1,-8.6462265E-3,1.674497E-4,2.998901E-1,7.578581E-2,1.8954406E-3,-8.362014E-3,5.324704E-3,-2.468373E-3,4.038839E-3,-8.966311E-3,-7.831223E-4,-8.146128E-3,1.1868854E-2,7.315677E-3,1.52001E-2,5.359125E-3,2.3026266E-3,2.1459652E-2,-6.8344345E-4,1.0588634E-2,-6.674808E-4,-5.9315055E-3],"split_indices":[0,11,0,11,0,11,15,0,11,15,15,1,11,0,0,15,15,5,8,7,11,0,0,13,1,0,0,0,0,0,0,0,0,0,0,0,0,0,0,0,0,0,0],"split_type":[0,0,0,0,0,0,0,0,0,0,0,0,0,0,0,0,0,0,0,0,0,0,0,0,0,0,0,0,0,0,0,0,0,0,0,0,0,0,0,0,0,0,0],"sum_hessian":[3.1847644E3,9.9445026E2,2.1903142E3,3.9382675E2,6.0062354E2,1.2592956E1,2.1777212E3,1.0772186E2,2.861049E2,3.621419E2,2.3848161E2,7.2235804E0,5.369375E0,2.1708643E3,6.856965E0,1.7983656E2,1.06268326E2,5.478035E0,3.5666385E2,1.4722389E2,9.125771E1,5.5738826E0,1.6496979E0,2.3126209E0,3.056754E0,1.9176875E0,4.939277E0,7.713879E1,1.02697784E2,2.6560915E0,1.03612236E2,1.0467192E0,4.431316E0,1.4256741E2,2.1409645E2,9.952187E1,4.770202E1,1.8020828E0,8.9455635E1,1.0246904E0,1.2879305E0,1.0211576E0,2.0355966E0],"tree_param":{"num_deleted":"0","num_feature":"16","num_nodes":"43","size_leaf_vector":"1"}},{"base_weights":[-6.4425236E-1,-1.1636715E0,4.709104E-1,-1.1650307E-2,-6.3698334E-1,1.2595314E0,-5.751931E-1,-9.108724E-3,5.934092E-3,-1.2944256E-1,2.155943E0,-9.683296E-2,-8.654078E-1,3.741615E-2,-3.7399217E-1,2.5073986E0,1.2966139E0,-7.532736E-1,2.943694E-1,-1.0533391E-2,-5.7545555E-1,1.1050781E-3,-8.623566E-3,3.8412757E-2,2.303858E-2,3.0621279E-3,1.5081621E-2,-1.0454601E-2,-3.781847E-3,1.3828707E-4,6.8143466E-3,-1.9438136E-3,-7.1217916E-3],"categories":[],"categories_nodes":[],"categories_segments":[],"categories_sizes":[],"default_left":[0,0,0,0,0,0,0,0,0,0,0,0,0,0,0,0,0,0,0,0,0,0,0,0,0,0,0,0,0,0,0,0,0],"id":3,"left_children":[1,3,5,-1,7,9,11,-1,-1,13,15,17,19,-1,21,23,25,27,29,-1,31,-1,-1,-1,-1,-1,-1,-1,-1,-1,-1,-1,-1],"loss_changes":[1.8293849E3,5.7861328E-2,8.300757E2,0E0,4.436374E0,7.143909E2,5.9959015E1,0E0,0E0,2.1746707E2,9.876672E1,4.3019207E1,1.3462799E1,0E0,5.1087532E1,4.8881958E1,2.114215E1,6.055794E0,1.1417779E1,0E0,5.4708557E0,0E0,0E0,0E0,0E0,0E0,0E0,0E0,0E0,0E0,0E0,0E0,0E0],"parents":[2147483647,0,0,1,1,2,2,4,4,5,5,6,6,9,9,10,10,11,11,12,12,14,14,15,15,16,16,17,17,18,18,20,20],"right_children":[2,4,6,-1,8,10,12,-1,-1,14,16,18,20,-1,22,24,26,28,30,-1,32,-1,-1,-1,-1,-1,-1,-1,-1,-1,-1,-1,-1],"split_conditions":[1.747782E-3,2.4324222E-1,1.4967842E-1,-1.1650307E-2,1.645862E-3,1.355866E-1,1.6724339E-1,-9.108724E-3,5.934092E-3,5.6772437E-2,1.3326377E-1,1.4087544E-1,1.7326939E-1,3.741615E-2,1.3431875E-1,5.7987142E-2,1.5894629E-1,9.201323E-2,2.307861E-1,-1.0533391E-2,1.7589328E-1,1.1050781E-3,-8.623566E-3,3.8412757E-2,2.303858E-2,3.0621279E-3,1.5081621E-2,-1.0454601E-2,-3.781847E-3,1.3828707E-4,6.8143466E-3,-1.9438136E-3,-7.1217916E-3],"split_indices":[8,15,12,0,8,11,12,0,0,12,12,11,11,0,11,12,11,11,11,0,12,0,0,0,0,0,0,0,0,0,0,0,0],"split_type":[0,0,0,0,0,0,0,0,0,0,0,0,0,0,0,0,0,0,0,0,0,0,0,0,0,0,0,0,0,0,0,0,0],"sum_hessian":[3.1543748E3,2.1519534E3,1.0024214E3,2.1439966E3,7.9567404E0,5.713172E2,4.3110416E2,6.9328465E0,1.0238937E0,2.2476265E2,3.4655453E2,1.6379259E2,2.6731158E2,1.16559925E1,2.1310666E2,2.4323749E2,1.03317055E2,6.047089E1,1.033217E2,1.5899442E2,1.0831716E2,1.0775337E2,1.0535329E2,2.747023E1,2.1576726E2,1.904578E1,8.427127E1,3.1982624E1,2.8488268E1,6.110495E1,4.2216747E1,2.9879856E1,7.843731E1],"tree_param":{"num_deleted":"0","num_feature":"16","num_nodes":"33","size_leaf_vector":"1"}},{"base_weights":[-6.2523276E-1,5.2031183E-1,-1.1579647E0,1.3032414E0,-6.147129E-1,-4.2745167E-1,-1.162078E0,-1.0582469E-1,2.170189E0,-1.6737714E-1,-8.937114E-1,-5.8544976E-1,5.9725917E-3,-1.1634526E-2,-5.657267E-1,3.5488534E0,-3.193425E-1,2.5300248E0,1.3918219E0,-8.1704503E-1,1.9125952E-1,-1.0704849E-2,-6.1317426E-1,6.729935E-2,-7.2348976E-1,1.470121E-1,-8.24896E-3,3.8258735E-2,2.2062548E-3,1.420341E-3,-8.291617E-3,1.8442601E-2,2.8158741E-2,9.290038E-3,1.8906306E-2,-1.0474862E-2,-4.1360664E-3,1.1410838E-3,9.94603E-3,-6.437847E-3,5.627908E-3,-4.5972643E-3,5.949779E-3,-8.850485E-3,-2.3925384E-3,-3.9749793E-3,5.9373365E-3],"categories":[],"categories_nodes":[],"categories_segments":[],"categories_sizes":[],"default_left":[0,0,0,0,0,0,0,0,0,0,0,0,0,0,0,0,0,0,0,0,0,0,0,0,0,0,0,0,0,0,0,0,0,0,0,0,0,0,0,0,0,0,0,0,0,0,0],"id":4,"left_children":[1,3,5,7,9,11,13,15,17,19,21,23,-1,-1,25,27,29,31,33,35,37,-1,39,41,43,45,-1,-1,-1,-1,-1,-1,-1,-1,-1,-1,-1,-1,-1,-1,-1,-1,-1,-1,-1,-1,-1],"loss_changes":[1.9196879E3,8.895973E2,5.4560547E0,7.236358E2,5.0780365E1,3.1572685E0,4.3237305E-1,1.7971773E2,9.563489E1,3.7514725E1,1.116452E1,1.3735886E0,0E0,0E0,1.8678958E0,1.0037064E1,5.1203968E1,3.8277466E1,2.426918E1,4.448635E0,6.249714E0,0E0,4.394085E0,1.7434877E0,5.044389E-1,1.4556541E0,0E0,0E0,0E0,0E0,0E0,0E0,0E0,0E0,0E0,0E0,0E0,0E0,0E0,0E0,0E0,0E0,0E0,0E0,0E0,0E0,0E0],"parents":[2147483647,0,0,1,1,2,2,3,3,4,4,5,5,6,6,7,7,8,8,9,9,10,10,11,11,14,14,15,15,16,16,17,17,18,18,19,19,20,20,22,22,23,23,24,24,25,25],"right_children":[2,4,6,8,10,12,14,16,18,20,22,24,-1,-1,26,28,30,32,34,36,38,-1,40,42,44,46,-1,-1,-1,-1,-1,-1,-1,-1,-1,-1,-1,-1,-1,-1,-1,-1,-1,-1,-1,-1,-1],"split_conditions":[1.4991277E-1,1.5177213E-1,1.5067597E-1,1.355866E-1,1.6875549E-1,6.893485E-1,2.5681448E-1,5.6772437E-2,1.3326377E-1,1.3242102E-1,1.7326939E-1,4.764436E-2,5.9725917E-3,-1.1634526E-2,1.5470998E-1,2.1278381E-1,1.3431875E-1,1.2276494E-1,2.1492688E-1,9.201323E-2,3.2055244E-1,-1.0704849E-2,3.0921325E-1,3.405934E-2,1.7148118E-1,5.9478223E-1,-8.24896E-3,3.8258735E-2,2.2062548E-3,1.420341E-3,-8.291617E-3,1.8442601E-2,2.8158741E-2,9.290038E-3,1.8906306E-2,-1.0474862E-2,-4.1360664E-3,1.1410838E-3,9.94603E-3,-6.437847E-3,5.627908E-3,-4.5972643E-3,5.949779E-3,-8.850485E-3,-2.3925384E-3,-3.9749793E-3,5.9373365E-3],"split_indices":[0,12,0,11,12,4,15,12,12,11,11,14,0,0,0,14,11,0,11,11,11,0,15,14,11,6,0,0,0,0,0,0,0,0,0,0,0,0,0,0,0,0,0,0,0,0,0],"split_type":[0,0,0,0,0,0,0,0,0,0,0,0,0,0,0,0,0,0,0,0,0,0,0,0,0,0,0,0,0,0,0,0,0,0,0,0,0,0,0,0,0,0,0,0,0,0,0],"sum_hessian":[3.1416714E3,9.9726935E2,2.144402E3,5.8999786E2,4.0727148E2,1.3181609E1,2.1312205E3,2.2540265E2,3.6459525E2,1.5766966E2,2.4960182E2,1.2163483E1,1.0181258E0,2.1244214E3,6.799023E0,1.0717349E1,2.146853E2,2.4625275E2,1.1834248E2,5.517113E1,1.0249853E2,1.4966345E2,9.993837E1,2.3021672E0,9.861316E0,2.0438275E0,4.7551956E0,9.617782E0,1.0995673E0,1.13454216E2,1.0123108E2,7.683238E1,1.6942036E2,6.435541E1,5.3987076E1,3.3082085E1,2.2089046E1,9.5601295E1,6.897229E0,9.82851E1,1.6532698E0,1.2806513E0,1.021516E0,6.153005E0,3.7083108E0,1.0204165E0,1.0234112E0],"tree_param":{"num_deleted":"0","num_feature":"16","num_nodes":"47","size_leaf_vector":"1"}},{"base_weights":[-6.2363666E-1,-1.1563892E0,5.07856E-1,-3.6427137E-1,-1.1614704E-2,1.3373313E0,-5.259847E-1,3.0850083E-1,-6.017488E-1,-8.29459E-2,2.239536E0,-4.442799E-2,-9.0931976E-1,8.240017E-3,-3.282356E-3,-9.034109E-3,2.7832363E-2,3.6861331E0,-3.4580293E-1,2.494951E0,1.4534872E0,-7.350621E-1,3.7284967E-1,-1.0265156E0,-5.692445E-1,8.201174E-3,-6.4422423E-3,3.9049E-2,6.816147E-3,1.5807737E-3,-8.403028E-3,1.9347262E-2,2.8820978E-2,8.006217E-3,1.759441E-2,-1.065307E-2,-3.2672673E-3,1.391094E-3,6.9850376E-3,-1.0348747E-2,-3.7908768E-3,-8.5530285E-4,-6.899957E-3],"categories":[],"categories_nodes":[],"categories_segments":[],"categories_sizes":[],"default_left":[0,0,0,0,0,0,0,0,0,0,0,0,0,0,0,0,0,0,0,0,0,0,0,0,0,0,0,0,0,0,0,0,0,0,0,0,0,0,0,0,0,0,0],"id":5,"left_children":[1,3,5,7,-1,9,11,13,15,17,19,21,23,-1,-1,-1,25,27,29,31,33,35,37,39,41,-1,-1,-1,-1,-1,-1,-1,-1,-1,-1,-1,-1,-1,-1,-1,-1,-1,-1],"loss_changes":[1.8850272E3,7.7075195E0,8.604948E2,3.0011075E0,0E0,7.133343E2,8.2507614E1,2.3844914E0,2.489582E0,2.1859927E2,6.107483E1,5.829975E1,8.755341E0,0E0,0E0,0E0,4.3050923E0,4.134094E0,5.1515495E1,4.3953857E1,1.4811539E1,9.57267E0,9.415428E0,2.040863E-1,3.8717155E0,0E0,0E0,0E0,0E0,0E0,0E0,0E0,0E0,0E0,0E0,0E0,0E0,0E0,0E0,0E0,0E0,0E0,0E0],"parents":[2147483647,0,0,1,1,2,2,3,3,5,5,6,6,7,7,8,8,9,9,10,10,11,11,12,12,16,16,17,17,18,18,19,19,20,20,21,21,22,22,23,23,24,24],"right_children":[2,4,6,8,-1,10,12,14,16,18,20,22,24,-1,-1,-1,26,28,30,32,34,36,38,40,42,-1,-1,-1,-1,-1,-1,-1,-1,-1,-1,-1,-1,-1,-1,-1,-1,-1,-1],"split_conditions":[1.788635E-3,1.5067597E-1,1.469158E-1,1.1726025E-1,-1.1614704E-2,1.355866E-1,1.6875549E-1,1.7588058E-1,1.6984144E-1,5.6772437E-2,1.3326377E-1,1.373085E-1,2.1170789E-1,8.240017E-3,-3.282356E-3,-9.034109E-3,1.9891106E-1,5.137893E-1,1.3431875E-1,9.893501E-2,1.2603576E-1,9.201323E-2,2.307861E-1,4.2798468E-1,6.570136E-1,8.201174E-3,-6.4422423E-3,3.9049E-2,6.816147E-3,1.5807737E-3,-8.403028E-3,1.9347262E-2,2.8820978E-2,8.006217E-3,1.759441E-2,-1.065307E-2,-3.2672673E-3,1.391094E-3,6.9850376E-3,-1.0348747E-2,-3.7908768E-3,-8.5530285E-4,-6.899957E-3],"split_indices":[8,0,12,12,0,11,12,11,11,12,12,11,11,0,0,0,11,2,11,12,0,11,11,14,6,0,0,0,0,0,0,0,0,0,0,0,0,0,0,0,0,0,0],"split_type":[0,0,0,0,0,0,0,0,0,0,0,0,0,0,0,0,0,0,0,0,0,0,0,0,0,0,0,0,0,0,0,0,0,0,0,0,0,0,0,0,0,0,0],"sum_hessian":[3.1231401E3,2.123341E3,9.99799E2,1.4460265E1,2.1088809E3,5.544019E2,4.453971E2,3.616525E0,1.084374E1,2.1607167E2,3.3833026E2,1.983969E2,2.470002E2,1.6734769E0,1.9430479E0,6.74298E0,4.10076E0,1.2388443E1,2.0368323E2,2.5207436E2,8.625591E1,7.414942E1,1.2424747E2,1.806932E2,6.630699E1,1.6798137E0,2.4209464E0,1.0988956E1,1.399487E0,1.01558685E2,1.0212455E2,1.0791286E2,1.441615E2,2.9831985E1,5.6423923E1,3.921563E1,3.4933796E1,7.399292E1,5.0254543E1,1.7720834E2,3.4848583E0,1.3928357E1,5.2378635E1],"tree_param":{"num_deleted":"0","num_feature":"16","num_nodes":"43","size_leaf_vector":"1"}},{"base_weights":[-6.2342656E-1,-1.1535261E0,4.9927378E-1,-1.161374E-2,-7.5320697E-1,1.3233296E0,-5.5717665E-1,-8.0876195E-1,5.323078E-3,-8.3712555E-2,2.1788466E0,-1.455724E-1,-9.1448456E-1,2.2359318E-3,-8.4483176E-1,3.090544E0,-3.7356287E-1,3.524747E0,2.0264409E0,-7.8957987E-1,1.913846E-1,-1.016252E0,-5.2270114E-1,-8.857337E-3,-3.0757657E-3,3.347222E-2,7.106867E-4,1.0451546E-3,-8.1768455E-3,3.6791287E-2,4.5284405E-3,8.396449E-3,2.304727E-2,-1.0661088E-2,-3.654299E-3,-4.7229408E-4,5.8467556E-3,-1.0256873E-2,-1.06951135E-4,-1.2739841E-3,-6.177465E-3],"categories":[],"categories_nodes":[],"categories_segments":[],"categories_sizes":[],"default_left":[0,0,0,0,0,0,0,0,0,0,0,0,0,0,0,0,0,0,0,0,0,0,0,0,0,0,0,0,0,0,0,0,0,0,0,0,0,0,0,0,0],"id":6,"left_children":[1,3,5,-1,7,9,11,13,-1,15,17,19,21,-1,23,25,27,29,31,33,35,37,39,-1,-1,-1,-1,-1,-1,-1,-1,-1,-1,-1,-1,-1,-1,-1,-1,-1,-1],"loss_changes":[1.8622747E3,4.9257812E0,8.758555E2,0E0,4.185116E0,6.802896E2,6.46698E1,2.0687542E0,0E0,2.0058426E2,5.778186E1,4.534244E1,8.346222E0,0E0,4.2853928E-1,1.3666534E1,4.2477806E1,1.2333374E1,1.0191626E2,7.6287117E0,1.2993711E1,1.7352142E0,1.8254595E0,0E0,0E0,0E0,0E0,0E0,0E0,0E0,0E0,0E0,0E0,0E0,0E0,0E0,0E0,0E0,0E0,0E0,0E0],"parents":[2147483647,0,0,1,1,2,2,4,4,5,5,6,6,7,7,9,9,10,10,11,11,12,12,14,14,15,15,16,16,17,17,18,18,19,19,20,20,21,21,22,22],"right_children":[2,4,6,-1,8,10,12,14,-1,16,18,20,22,-1,24,26,28,30,32,34,36,38,40,-1,-1,-1,-1,-1,-1,-1,-1,-1,-1,-1,-1,-1,-1,-1,-1,-1,-1],"split_conditions":[1.788635E-3,1.645862E-3,1.4740586E-1,-1.161374E-2,3.905257E-1,1.355866E-1,1.7033717E-1,3.2270927E-2,5.323078E-3,6.182545E-2,5.7987142E-2,1.3049957E-1,2.286204E-1,2.2359318E-3,8.633484E-1,1.7515059E-1,1.3431875E-1,7.167668E-1,9.141547E-2,9.201323E-2,2.3292722E-1,5.0460947E-1,6.570136E-1,-8.857337E-3,-3.0757657E-3,3.347222E-2,7.106867E-4,1.0451546E-3,-8.1768455E-3,3.6791287E-2,4.5284405E-3,8.396449E-3,2.304727E-2,-1.0661088E-2,-3.654299E-3,-4.7229408E-4,5.8467556E-3,-1.0256873E-2,-1.06951135E-4,-1.2739841E-3,-6.177465E-3],"split_indices":[9,9,12,0,14,11,12,12,0,12,12,11,11,0,6,14,11,1,12,11,11,14,6,0,0,0,0,0,0,0,0,0,0,0,0,0,0,0,0,0,0],"split_type":[0,0,0,0,0,0,0,0,0,0,0,0,0,0,0,0,0,0,0,0,0,0,0,0,0,0,0,0,0,0,0,0,0,0,0,0,0,0,0,0,0],"sum_hessian":[3.1251865E3,2.1228137E3,1.00237274E3,2.0782688E3,4.454509E1,5.628396E2,4.3953317E2,4.3410778E1,1.1343147E0,2.1350269E2,3.493369E2,2.0555591E2,2.3397725E2,1.1145122E0,4.2296265E1,1.6247314E1,1.9725537E2,3.1032532E1,3.1830438E2,6.968474E1,1.3587117E2,1.8320192E2,5.0775333E1,3.8098522E1,4.197742E0,1.4774299E1,1.4730151E0,9.573259E1,1.0152278E2,2.9171162E1,1.8613708E0,6.198667E1,2.5631772E2,4.0350662E1,2.9334078E1,8.566007E1,5.021109E1,1.8145921E2,1.7427139E0,1.0749196E1,4.0026134E1],"tree_param":{"num_deleted":"0","num_feature":"16","num_nodes":"41","size_leaf_vector":"1"}},{"base_weights":[-6.265995E-1,4.6940076E-1,-1.1532946E0,1.2142721E0,-5.889207E-1,-4.674452E-1,-1.1570415E0,-1.2489664E-1,2.0147283E0,-1.5747091E-1,-8.83308E-1,-6.3414454E-1,5.9501985E-3,-1.1584588E-2,-5.5236447E-1,3.3997865E0,-3.6146262E-1,2.207585E0,1.0289646E0,-7.5883037E-1,2.4304315E-1,-1.0502519E-2,-6.148293E-1,3.4361463E-3,-8.135795E-1,2.010936E-3,-8.220079E-3,3.768035E-2,4.5760176E-3,1.4821052E-3,-8.699576E-3,4.6210657E-3,2.3019051E-2,4.577926E-5,1.2192595E-2,-1.0136358E-2,-3.5292406E-3,4.2648423E-3,-1.6441899E-3,-6.3608726E-3,2.9076631E-3,-8.660402E-4,-9.40247E-3],"categories":[],"categories_nodes":[],"categories_segments":[],"categories_sizes":[],"default_left":[0,0,0,0,0,0,0,0,0,0,0,0,0,0,0,0,0,0,0,0,0,0,0,0,0,0,0,0,0,0,0,0,0,0,0,0,0,0,0,0,0,0,0],"id":7,"left_children":[1,3,5,7,9,11,13,15,17,19,21,23,-1,-1,25,27,29,31,33,35,37,-1,39,-1,41,-1,-1,-1,-1,-1,-1,-1,-1,-1,-1,-1,-1,-1,-1,-1,-1,-1,-1],"loss_changes":[1.7802719E3,7.911808E2,4.2695312E0,6.314919E2,5.245578E1,3.3529499E0,4.9389648E-1,1.876485E2,6.552051E1,4.1512753E1,9.750565E0,2.9537354E0,0E0,0E0,2.0904164E0,1.1894577E1,5.4666687E1,4.8330933E1,1.2474434E1,6.397766E0,7.917526E0,0E0,2.2811623E0,0E0,9.537878E-1,0E0,0E0,0E0,0E0,0E0,0E0,0E0,0E0,0E0,0E0,0E0,0E0,0E0,0E0,0E0,0E0,0E0,0E0],"parents":[2147483647,0,0,1,1,2,2,3,3,4,4,5,5,6,6,7,7,8,8,9,9,10,10,11,11,14,14,15,15,16,16,17,17,18,18,19,19,20,20,22,22,24,24],"right_children":[2,4,6,8,10,12,14,16,18,20,22,24,-1,-1,26,28,30,32,34,36,38,-1,40,-1,42,-1,-1,-1,-1,-1,-1,-1,-1,-1,-1,-1,-1,-1,-1,-1,-1,-1,-1],"split_conditions":[1.4991277E-1,1.4967842E-1,1.5067597E-1,1.355866E-1,1.6875549E-1,6.893485E-1,2.5681448E-1,5.6772437E-2,1.4005819E-1,1.4608093E-1,1.7406279E-1,9.395609E-2,5.9501985E-3,-1.1584588E-2,1.5470998E-1,4.6289513E-1,1.3431875E-1,6.8050355E-4,1.5825634E-1,1.0301259E-1,4.6781754E-1,-1.0502519E-2,3.0921325E-1,3.4361463E-3,6.172501E-2,2.010936E-3,-8.220079E-3,3.768035E-2,4.5760176E-3,1.4821052E-3,-8.699576E-3,4.6210657E-3,2.3019051E-2,4.577926E-5,1.2192595E-2,-1.0136358E-2,-3.5292406E-3,4.2648423E-3,-1.6441899E-3,-6.3608726E-3,2.9076631E-3,-8.660402E-4,-9.40247E-3],"split_indices":[0,12,0,11,12,4,15,12,12,11,11,4,0,0,0,2,11,15,11,11,2,0,15,0,1,0,0,0,0,0,0,0,0,0,0,0,0,0,0,0,0,0,0],"split_type":[0,0,0,0,0,0,0,0,0,0,0,0,0,0,0,0,0,0,0,0,0,0,0,0,0,0,0,0,0,0,0,0,0,0,0,0,0,0,0,0,0,0,0],"sum_hessian":[3.0801387E3,9.998232E2,2.0803154E3,5.866386E2,4.1318463E2,1.2670316E1,2.0676453E3,2.2009914E2,3.6653946E2,1.6882579E2,2.4435884E2,1.1648896E1,1.0214193E0,2.0609832E3,6.661997E0,1.2161261E1,2.0793787E2,3.0448956E2,6.2049892E1,6.677536E1,1.0205043E2,1.4707916E2,9.727967E1,1.5225276E0,1.0126369E1,1.8898064E0,4.7721906E0,1.0309519E1,1.8517414E0,1.0455635E2,1.0338152E2,1.6214998E1,2.8827457E2,1.0041742E1,5.2008152E1,3.9183624E1,2.7591738E1,7.030532E1,3.1745111E1,9.563005E1,1.6496228E0,2.0022712E0,8.124098E0],"tree_param":{"num_deleted":"0","num_feature":"16","num_nodes":"43","size_leaf_vector":"1"}},{"base_weights":[-6.193411E-1,4.790241E-1,-1.1518828E0,1.1831045E0,-6.035432E-1,-5.5356497E-1,-1.155148E-2,3.3040316E0,9.583498E-1,-1.5394934E-1,-8.6718005E-1,-6.5080136E-1,2.694524E-3,1.220384E0,3.4614654E0,1.5621375E0,6.2942016E-1,-5.1787704E-1,-6.992106E-2,-5.2333426E-1,-9.1367817E-1,-7.361658E-1,-3.992708E-4,1.6611848E-2,2.1777307E-3,3.8570378E-2,2.1956457E-2,5.224432E-3,2.492096E-2,-8.109627E-3,1.1832698E-2,-6.9247666E-3,4.1345338E-4,1.0805917E-3,-3.282489E-3,-6.3503515E-3,2.2180718E-3,2.2572642E-3,-9.215817E-3,-8.496069E-3,-5.4010155E-4],"categories":[],"categories_nodes":[],"categories_segments":[],"categories_sizes":[],"default_left":[0,0,0,0,0,0,0,0,0,0,0,0,0,0,0,0,0,0,0,0,0,0,0,0,0,0,0,0,0,0,0,0,0,0,0,0,0,0,0,0,0],"id":8,"left_children":[1,3,5,7,9,11,-1,13,15,17,19,21,-1,23,25,27,29,31,33,35,37,39,-1,-1,-1,-1,-1,-1,-1,-1,-1,-1,-1,-1,-1,-1,-1,-1,-1,-1,-1],"loss_changes":[1.8050314E3,7.70079E2,2.779541E0,2.852636E2,4.69944E1,1.5604801E0,0E0,1.0510193E1,1.0844089E2,4.509036E0,3.0553284E0,6.767559E-1,0E0,2.4360523E0,9.423706E0,1.8564514E2,2.9167926E2,2.7707605E0,5.7733536E0,3.159111E0,2.382309E0,8.570423E-1,0E0,0E0,0E0,0E0,0E0,0E0,0E0,0E0,0E0,0E0,0E0,0E0,0E0,0E0,0E0,0E0,0E0,0E0,0E0],"parents":[2147483647,0,0,1,1,2,2,3,3,4,4,5,5,7,7,8,8,9,9,10,10,11,11,13,13,14,14,15,15,16,16,17,17,18,18,19,19,20,20,21,21],"right_children":[2,4,6,8,10,12,-1,14,16,18,20,22,-1,24,26,28,30,32,34,36,38,40,-1,-1,-1,-1,-1,-1,-1,-1,-1,-1,-1,-1,-1,-1,-1,-1,-1,-1,-1],"split_conditions":[1.4991277E-1,1.5177213E-1,1.5067597E-1,6.182545E-2,1.6800098E-1,6.0940856E-1,-1.155148E-2,6.8050355E-4,1.1994218E-1,1.6690187E-1,1.7204325E-1,1.6449007E-1,2.694524E-3,2.2897848E-1,5.5564795E-2,9.537203E-2,1.2034855E-1,1.6384251E-1,4.668643E-1,2.2127707E-1,1.3709787E-2,4.2011815E-1,-3.992708E-4,1.6611848E-2,2.1777307E-3,3.8570378E-2,2.1956457E-2,5.224432E-3,2.492096E-2,-8.109627E-3,1.1832698E-2,-6.9247666E-3,4.1345338E-4,1.0805917E-3,-3.282489E-3,-6.3503515E-3,2.2180718E-3,2.2572642E-3,-9.215817E-3,-8.496069E-3,-5.4010155E-4],"split_indices":[0,12,0,12,12,7,0,15,12,13,12,12,0,7,12,12,12,12,13,15,7,4,0,0,0,0,0,0,0,0,0,0,0,0,0,0,0,0,0,0,0],"split_type":[0,0,0,0,0,0,0,0,0,0,0,0,0,0,0,0,0,0,0,0,0,0,0,0,0,0,0,0,0,0,0,0,0,0,0,0,0,0,0,0,0],"sum_hessian":[3.0820305E3,1.0064443E3,2.0755862E3,6.0971313E2,3.967311E2,1.3116858E1,2.0624695E3,5.579501E1,5.539181E2,1.4781767E2,2.4891345E2,1.2105176E1,1.0116816E0,5.149142E0,5.0645866E1,1.9269899E2,3.6121912E2,2.5790852E1,1.2202682E2,3.257044E1,2.1634302E2,1.0261075E1,1.8441017E0,2.6641312E0,2.4850106E0,3.5467896E1,1.517797E1,9.245634E1,1.0024266E2,1.0006198E2,2.6115714E2,1.9291206E1,6.499645E0,7.293806E1,4.908876E1,2.858145E1,3.9889886E0,1.1106321E0,2.1523238E2,8.377042E0,1.8840326E0],"tree_param":{"num_deleted":"0","num_feature":"16","num_nodes":"41","size_leaf_vector":"1"}},{"base_weights":[-6.222508E-1,-1.1499761E0,4.622709E-1,-1.1523145E0,-4.440017E-1,1.1458743E0,-6.1113244E-1,-1.1542165E-2,-5.4179263E-1,-5.7475865E-1,2.1084822E-3,-8.0148645E-2,1.8964276E0,-1.490642E-1,-8.644424E-1,-7.9109675E-1,4.789237E-3,-1.5847461E-1,-7.5917523E-3,3.0320904E0,-3.4836897E-1,2.11087E0,9.608761E-1,-1.0179317E0,7.971985E-2,-1.0456024E0,-5.641836E-1,-8.691209E-3,-5.8854546E-4,-4.942428E-3,2.3165657E-3,3.218061E-2,5.277391E-3,4.0541845E-4,-7.3532625E-3,3.2034624E-2,1.96565E-2,-9.589467E-4,1.1311242E-2,-1.301383E-3,-1.0468325E-2,-2.5995646E-4,1.1136034E-2,-1.0508271E-2,-2.595313E-3,-6.9736823E-4,-6.418761E-3],"categories":[],"categories_nodes":[],"categories_segments":[],"categories_sizes":[],"default_left":[0,0,0,0,0,0,0,0,0,0,0,0,0,0,0,0,0,0,0,0,0,0,0,0,0,0,0,0,0,0,0,0,0,0,0,0,0,0,0,0,0,0,0,0,0,0,0],"id":9,"left_children":[1,3,5,7,9,11,13,-1,15,17,-1,19,21,23,25,27,-1,29,-1,31,33,35,37,39,41,43,45,-1,-1,-1,-1,-1,-1,-1,-1,-1,-1,-1,-1,-1,-1,-1,-1,-1,-1,-1,-1],"loss_changes":[1.7561748E3,2.3828125E0,7.389971E2,1.1364746E0,1.1042721E0,5.66039E2,4.5671295E1,0E0,3.341246E0,4.447217E-1,0E0,1.9859361E2,7.24657E1,2.8262753E1,1.2584106E1,4.069643E-1,0E0,9.1910535E-1,0E0,5.3972626E0,3.294076E1,3.6375366E1,1.3673828E1,4.8725128E-1,1.249081E1,9.307861E-2,3.7351627E0,0E0,0E0,0E0,0E0,0E0,0E0,0E0,0E0,0E0,0E0,0E0,0E0,0E0,0E0,0E0,0E0,0E0,0E0,0E0,0E0],"parents":[2147483647,0,0,1,1,2,2,3,3,4,4,5,5,6,6,8,8,9,9,11,11,12,12,13,13,14,14,15,15,17,17,19,19,20,20,21,21,22,22,23,23,24,24,25,25,26,26],"right_children":[2,4,6,8,10,12,14,-1,16,18,-1,20,22,24,26,28,-1,30,-1,32,34,36,38,40,42,44,46,-1,-1,-1,-1,-1,-1,-1,-1,-1,-1,-1,-1,-1,-1,-1,-1,-1,-1,-1,-1],"split_conditions":[1.788635E-3,1.747782E-3,1.5177213E-1,2.4324222E-1,8.373974E-2,1.3785362E-1,1.6724339E-1,-1.1542165E-2,1.7237483E-1,1.2097842E-3,2.1084822E-3,6.055691E-2,1.4056805E-1,9.201323E-2,1.7326939E-1,1.645862E-3,4.789237E-3,1.5212996E-1,-7.5917523E-3,2.1278381E-1,1.3431875E-1,5.7987142E-2,1.5825634E-1,5.4475583E-2,3.107232E-1,6.5839076E0,1.8749261E-1,-8.691209E-3,-5.8854546E-4,-4.942428E-3,2.3165657E-3,3.218061E-2,5.277391E-3,4.0541845E-4,-7.3532625E-3,3.2034624E-2,1.96565E-2,-9.589467E-4,1.1311242E-2,-1.301383E-3,-1.0468325E-2,-2.5995646E-4,1.1136034E-2,-1.0508271E-2,-2.595313E-3,-6.9736823E-4,-6.418761E-3],"split_indices":[9,9,12,15,15,11,12,0,11,15,0,12,12,11,11,9,0,11,0,14,11,12,11,3,11,13,11,0,0,0,0,0,0,0,0,0,0,0,0,0,0,0,0,0,0,0,0],"split_type":[0,0,0,0,0,0,0,0,0,0,0,0,0,0,0,0,0,0,0,0,0,0,0,0,0,0,0,0,0,0,0,0,0,0,0,0,0,0,0,0,0,0,0,0,0,0,0],"sum_hessian":[3.06461E3,2.0614119E3,1.0031982E3,2.0533462E3,8.065828E0,6.1279865E2,3.9039954E2,2.0451936E3,8.152507E0,6.9272428E0,1.1385856E0,2.3337267E2,3.7942596E2,1.3936243E2,2.5103711E2,6.9137754E0,1.2387311E0,3.2683184E0,3.6589243E0,1.6881598E1,2.1649107E2,3.066294E2,7.279657E1,2.7609495E1,1.1175294E2,1.5347429E2,9.756281E1,5.9101553E0,1.0036201E0,1.4696937E0,1.7986249E0,1.5184067E1,1.6975298E0,1.08865974E2,1.076251E2,3.103233E1,2.7559705E2,1.0221674E1,6.2574894E1,1.2174313E0,2.6392063E1,1.0315497E2,8.597973E0,1.517918E2,1.682499E0,1.3763713E1,8.37991E1],"tree_param":{"num_deleted":"0","num_feature":"16","num_nodes":"47","size_leaf_vector":"1"}},{"base_weights":[-6.0789657E-1,-1.1484656E0,4.817095E-1,-2.663116E-1,-1.1503859E0,1.1488998E0,-5.850471E-1,-7.0253396E-3,4.175795E-3,-1.1518186E-2,-5.3399354E-1,-9.365528E-2,1.8799878E0,-8.3447464E-2,-8.616642E-1,1.2334503E-1,-7.941961E-3,2.7456E0,-3.602762E-1,2.199976E0,1.3600665E0,-1.0556853E-2,1.8791895E-1,-1.054941E-2,-5.5263925E-1,-4.1925297E-3,6.0345917E-3,2.988505E-2,1.8323548E-3,3.5699952E-4,-8.046369E-3,1.6832922E-2,2.6788E-2,1.103206E-2,1.999873E-2,-3.907613E-4,6.4357272E-3,-7.0244976E-4,-7.1369624E-3],"categories":[],"categories_nodes":[],"categories_segments":[],"categories_sizes":[],"default_left":[0,0,0,0,0,0,0,0,0,0,0,0,0,0,0,0,0,0,0,0,0,0,0,0,0,0,0,0,0,0,0,0,0,0,0,0,0,0,0],"id":10,"left_children":[1,3,5,7,9,11,13,-1,-1,-1,15,17,19,21,23,25,-1,27,29,31,33,-1,35,-1,37,-1,-1,-1,-1,-1,-1,-1,-1,-1,-1,-1,-1,-1,-1],"loss_changes":[1.7971616E3,2.8405762E0,7.22013E2,2.6841676E0,5.6591797E-1,5.668597E2,5.4099396E1,0E0,0E0,0E0,1.6403174E0,1.7829243E2,5.9350464E1,3.7643013E1,1.3871262E1,1.5808523E0,0E0,1.1493652E1,3.7832466E1,5.0322388E1,2.1036194E1,0E0,1.16414175E1,0E0,7.752573E0,0E0,0E0,0E0,0E0,0E0,0E0,0E0,0E0,0E0,0E0,0E0,0E0,0E0,0E0],"parents":[2147483647,0,0,1,1,2,2,3,3,4,4,5,5,6,6,10,10,11,11,12,12,13,13,14,14,15,15,17,17,18,18,19,19,20,20,22,22,24,24],"right_children":[2,4,6,8,10,12,14,-1,-1,-1,16,18,20,22,24,26,-1,28,30,32,34,-1,36,-1,38,-1,-1,-1,-1,-1,-1,-1,-1,-1,-1,-1,-1,-1,-1],"split_conditions":[1.747782E-3,1.5067597E-1,1.5177213E-1,1.6408291E-1,2.5681448E-1,1.355866E-1,1.6724339E-1,-7.0253396E-3,4.175795E-3,-1.1518186E-2,1.5470998E-1,6.182545E-2,1.2820028E-1,9.201323E-2,1.7406279E-1,6.221231E-1,-7.941961E-3,4.4533727E-1,1.3431875E-1,9.98272E-2,2.4533094E-1,-1.0556853E-2,2.307861E-1,-1.054941E-2,1.7499097E-1,-4.1925297E-3,6.0345917E-3,2.988505E-2,1.8323548E-3,3.5699952E-4,-8.046369E-3,1.6832922E-2,2.6788E-2,1.103206E-2,1.999873E-2,-3.907613E-4,6.4357272E-3,-7.0244976E-4,-7.1369624E-3],"split_indices":[8,0,12,11,15,11,12,0,0,0,0,12,12,11,11,6,0,4,11,12,11,0,11,0,12,0,0,0,0,0,0,0,0,0,0,0,0,0,0],"split_type":[0,0,0,0,0,0,0,0,0,0,0,0,0,0,0,0,0,0,0,0,0,0,0,0,0,0,0,0,0,0,0,0,0,0,0,0,0,0,0],"sum_hessian":[3.047291E3,2.0367314E3,1.0105596E3,5.030638E0,2.0317008E3,6.216204E2,3.8893912E2,3.038195E0,1.9924434E0,2.0252561E3,6.4447303E0,2.309101E2,3.9071033E2,1.3917372E2,2.497654E2,2.1259549E0,4.3187757E0,1.8225937E1,2.1268416E2,2.3785721E2,1.5285313E2,2.9107676E1,1.1006604E2,1.5069011E2,9.90753E1,1.1170528E0,1.008902E0,1.634396E1,1.8819776E0,1.1343761E2,9.924655E1,1.18749435E2,1.1910777E2,1.12954346E2,3.989878E1,7.468725E1,3.5378796E1,2.5517668E1,7.355763E1],"tree_param":{"num_deleted":"0","num_feature":"16","num_nodes":"39","size_leaf_vector":"1"}},{"base_weights":[-6.0991365E-1,-1.1470528E0,4.576245E-1,-1.1519024E-2,-8.103107E-1,1.169825E0,-4.9930307E-1,-8.859102E-1,5.3013545E-3,-5.708872E-2,1.8944983E0,-4.232327E-2,-8.6968476E-1,-1.7359407E-1,-9.2824936E-1,2.6314893E0,-3.3699578E-1,2.0408528E0,9.46972E-1,-6.9552445E-1,3.5290205E-1,-1.0547818E-2,-5.704418E-1,-4.3375585E-3,1.9613362E-3,-9.528052E-3,-7.541097E-4,-7.669316E-4,2.7779607E-2,1.48642E-3,-8.124838E-3,5.6631146E-3,2.116753E-2,5.7811798E-3,1.6277397E-2,-1.0264354E-2,-3.1575093E-3,-2.7583507E-3,4.8258365E-3,-6.0318005E-3,6.371634E-3],"categories":[],"categories_nodes":[],"categories_segments":[],"categories_sizes":[],"default_left":[0,0,0,0,0,0,0,0,0,0,0,0,0,0,0,0,0,0,0,0,0,0,0,0,0,0,0,0,0,0,0,0,0,0,0,0,0,0,0,0,0],"id":11,"left_children":[1,3,5,-1,7,9,11,13,-1,15,17,19,21,23,25,27,29,31,33,35,37,-1,39,-1,-1,-1,-1,-1,-1,-1,-1,-1,-1,-1,-1,-1,-1,-1,-1,-1,-1],"loss_changes":[1.736498E3,1.4223633E0,6.925762E2,0E0,4.5203266E0,5.178771E2,7.343126E1,7.091484E-1,0E0,1.6593178E2,4.6901733E1,5.122346E1,1.2076965E1,5.913415E-1,5.2270126E-1,8.67514E0,4.627205E1,3.2899048E1,1.1354042E1,8.746151E0,1.0357185E1,0E0,4.563406E0,0E0,0E0,0E0,0E0,0E0,0E0,0E0,0E0,0E0,0E0,0E0,0E0,0E0,0E0,0E0,0E0,0E0,0E0],"parents":[2147483647,0,0,1,1,2,2,4,4,5,5,6,6,7,7,9,9,10,10,11,11,12,12,13,13,14,14,15,15,16,16,17,17,18,18,19,19,20,20,22,22],"right_children":[2,4,6,-1,8,10,12,14,-1,16,18,20,22,24,26,28,30,32,34,36,38,-1,40,-1,-1,-1,-1,-1,-1,-1,-1,-1,-1,-1,-1,-1,-1,-1,-1,-1,-1],"split_conditions":[1.747782E-3,1.645862E-3,1.4740586E-1,-1.1519024E-2,2.4324222E-1,1.355866E-1,1.6875549E-1,4.9602866E-2,5.3013545E-3,6.182545E-2,1.4005819E-1,1.4087544E-1,1.7326939E-1,7.209303E-1,2.636444E-1,5.880396E-1,1.3431875E-1,6.8050355E-4,2.4024242E-1,9.201323E-2,1.6133076E-1,-1.0547818E-2,3.0921325E-1,-4.3375585E-3,1.9613362E-3,-9.528052E-3,-7.541097E-4,-7.669316E-4,2.7779607E-2,1.48642E-3,-8.124838E-3,5.6631146E-3,2.116753E-2,5.7811798E-3,1.6277397E-2,-1.0264354E-2,-3.1575093E-3,-2.7583507E-3,4.8258365E-3,-6.0318005E-3,6.371634E-3],"split_indices":[9,9,12,0,15,11,12,12,0,12,12,11,11,6,11,6,11,15,11,11,13,0,15,0,0,0,0,0,0,0,0,0,0,0,0,0,0,0,0,0,0],"split_type":[0,0,0,0,0,0,0,0,0,0,0,0,0,0,0,0,0,0,0,0,0,0,0,0,0,0,0,0,0,0,0,0,0,0,0,0,0,0,0,0,0],"sum_hessian":[3.0245059E3,2.0120037E3,1.0125023E3,1.9786659E3,3.333771E1,5.802225E2,4.3227988E2,3.2199863E1,1.1378468E0,2.1613531E2,3.6408713E2,1.9451468E2,2.377652E2,2.3788075E0,2.9821058E1,1.8795658E1,1.9733966E2,3.1337552E2,5.0711613E1,7.275334E1,1.2176134E2,1.4378015E2,9.398505E1,1.1929944E0,1.1858132E0,2.8758574E1,1.0624837E0,1.0132864E0,1.7782373E1,9.830798E1,9.903168E1,1.6169413E1,2.972061E2,3.5289474E1,1.5422139E1,3.7057896E1,3.5695442E1,2.0434483E1,1.0132686E2,9.2478966E1,1.5060802E0],"tree_param":{"num_deleted":"0","num_feature":"16","num_nodes":"41","size_leaf_vector":"1"}},{"base_weights":[-6.1425275E-1,4.275279E-1,-1.1427444E0,1.1085327E0,-5.12951E-1,-3.9602375E-1,-1.1471102E0,-8.524413E-2,1.8028866E0,-1.17948E-1,-9.3242884E-1,3.157418E-1,-6.8442655E-1,-1.1485775E-2,-5.5158097E-1,2.7097623E0,-3.8073993E-1,1.9518178E0,7.0925885E-1,-7.924918E-1,2.3011452E-1,-1.0445052E0,-6.092523E-1,-2.2365095E-1,9.199004E-3,-8.54632E-3,-2.0338012E-1,3.0027542E-3,-8.32058E-3,3.1157164E-2,9.27143E-3,6.560045E-4,-8.194673E-3,3.0522948E-2,1.8100744E-2,1.0499249E-2,3.4527967E-4,-1.0457277E-2,-3.7281355E-3,-1.1150862E-4,6.108728E-3,-4.6850815E-3,-1.0606732E-2,-3.8932844E-3,-8.063712E-3,2.52094E-3,-5.077128E-3,5.1854444E-3,-6.3299094E-3],"categories":[],"categories_nodes":[],"categories_segments":[],"categories_sizes":[],"default_left":[0,0,0,0,0,0,0,0,0,0,0,0,0,0,0,0,0,0,0,0,0,0,0,0,0,0,0,0,0,0,0,0,0,0,0,0,0,0,0,0,0,0,0,0,0,0,0,0,0],"id":12,"left_children":[1,3,5,7,9,11,13,15,17,19,21,23,25,-1,27,29,31,33,35,37,39,41,43,45,-1,-1,47,-1,-1,-1,-1,-1,-1,-1,-1,-1,-1,-1,-1,-1,-1,-1,-1,-1,-1,-1,-1,-1,-1],"loss_changes":[1.6557949E3,6.4995483E2,5.5942383E0,4.8787103E2,7.050357E1,3.4392254E0,4.6484375E-1,1.8229364E2,5.7818115E1,5.251421E1,6.2144623E0,2.2339983E0,5.5760574E-1,0E0,2.5829268E0,9.4999695E0,3.9097237E1,3.984143E1,1.0897919E1,7.3028755E0,1.36155E1,4.0942383E-1,1.8876629E0,8.727045E-1,0E0,0E0,2.3666484E0,0E0,0E0,0E0,0E0,0E0,0E0,0E0,0E0,0E0,0E0,0E0,0E0,0E0,0E0,0E0,0E0,0E0,0E0,0E0,0E0,0E0,0E0],"parents":[2147483647,0,0,1,1,2,2,3,3,4,4,5,5,6,6,7,7,8,8,9,9,10,10,11,11,12,12,14,14,15,15,16,16,17,17,18,18,19,19,20,20,21,21,22,22,23,23,26,26],"right_children":[2,4,6,8,10,12,14,16,18,20,22,24,26,-1,28,30,32,34,36,38,40,42,44,46,-1,-1,48,-1,-1,-1,-1,-1,-1,-1,-1,-1,-1,-1,-1,-1,-1,-1,-1,-1,-1,-1,-1,-1,-1],"split_conditions":[1.4991277E-1,1.4740586E-1,1.5067597E-1,1.355866E-1,1.7204325E-1,1.1726025E-1,2.5681448E-1,6.182545E-2,1.4056805E-1,1.3242102E-1,2.068507E-1,2.53296E-1,1.6984144E-1,-1.1485775E-2,1.5470998E-1,5.6772437E-2,1.3431875E-1,5.7987142E-2,4.846805E-3,9.201323E-2,2.3292722E-1,9.757959E-2,5.122536E-3,1.6882035E-1,9.199004E-3,-8.54632E-3,1.9891106E-1,3.0027542E-3,-8.32058E-3,3.1157164E-2,9.27143E-3,6.560045E-4,-8.194673E-3,3.0522948E-2,1.8100744E-2,1.0499249E-2,3.4527967E-4,-1.0457277E-2,-3.7281355E-3,-1.1150862E-4,6.108728E-3,-4.6850815E-3,-1.0606732E-2,-3.8932844E-3,-8.063712E-3,2.52094E-3,-5.077128E-3,5.1854444E-3,-6.3299094E-3],"split_indices":[0,12,0,11,12,12,15,12,12,11,11,1,11,0,0,12,11,12,9,11,11,0,9,4,0,0,11,0,0,0,0,0,0,0,0,0,0,0,0,0,0,0,0,0,0,0,0,0,0],"split_type":[0,0,0,0,0,0,0,0,0,0,0,0,0,0,0,0,0,0,0,0,0,0,0,0,0,0,0,0,0,0,0,0,0,0,0,0,0,0,0,0,0,0,0,0,0,0,0,0,0],"sum_hessian":[3.003632E3,1.01103253E3,1.9925997E3,5.86203E2,4.248295E2,1.2648734E1,1.9799509E3,2.1621945E2,3.6998358E2,2.2011742E2,2.0471208E2,3.5926473E0,9.056087E0,1.9732318E3,6.719148E0,1.9111263E1,1.9710818E2,3.2425662E2,4.5726955E1,7.405173E1,1.4606569E2,1.486848E2,5.602729E1,2.5635438E0,1.0291036E0,5.5419836E0,3.514103E0,1.6293529E0,5.0897956E0,1.4348121E1,4.7631435E0,9.854953E1,9.8558655E1,3.2313168E1,2.9194345E2,2.9646532E1,1.6080423E1,4.4323338E1,2.9728386E1,9.059934E1,5.5466347E1,5.6965404E0,1.4298825E2,2.92942E1,2.673309E1,1.0425552E0,1.5209886E0,1.1565684E0,2.3575344E0],"tree_param":{"num_deleted":"0","num_feature":"16","num_nodes":"49","size_leaf_vector":"1"}},{"base_weights":[-6.0348994E-1,-1.1420277E0,4.482145E-1,-1.148296E-2,-8.1096977E-1,-4.5577028E-1,9.8281556E-1,-8.490292E-1,2.6858707E-3,-1.0862338E-2,-2.3963879E-1,1.3765225E0,7.67806E-1,-8.652128E-1,-7.0979755E-4,8.963253E-2,-8.204157E-1,1.0595975E0,1.7952355E0,3.7692338E-1,8.857E-1,-8.809811E-3,-1.2536679E-3,5.771101E-3,-2.8847812E-3,-8.521475E-3,3.3405353E-3,1.3078403E-2,2.6786472E-3,1.08890515E-2,1.9612892E-2,-3.0463503E-3,5.1578237E-3,6.164692E-3,1.1117955E-2],"categories":[],"categories_nodes":[],"categories_segments":[],"categories_sizes":[],"default_left":[0,0,0,0,0,0,0,0,0,0,0,0,0,0,0,0,0,0,0,0,0,0,0,0,0,0,0,0,0,0,0,0,0,0,0],"id":13,"left_children":[1,3,5,-1,7,9,11,13,-1,-1,15,17,19,21,-1,23,25,27,29,31,33,-1,-1,-1,-1,-1,-1,-1,-1,-1,-1,-1,-1,-1,-1],"loss_changes":[1.7086604E3,2.2763672E0,4.950243E2,0E0,2.2586117E0,5.1440697E1,5.2328064E1,4.1682053E-1,0E0,0E0,5.4943993E1,2.6006012E1,1.8709717E1,2.66819E-1,0E0,3.4371624E1,4.374588E0,2.5389221E1,6.742035E0,9.865192E0,1.8203964E1,0E0,0E0,0E0,0E0,0E0,0E0,0E0,0E0,0E0,0E0,0E0,0E0,0E0,0E0],"parents":[2147483647,0,0,1,1,2,2,4,4,5,5,6,6,7,7,10,10,11,11,12,12,13,13,15,15,16,16,17,17,18,18,19,19,20,20],"right_children":[2,4,6,-1,8,10,12,14,-1,-1,16,18,20,22,-1,24,26,28,30,32,34,-1,-1,-1,-1,-1,-1,-1,-1,-1,-1,-1,-1,-1,-1],"split_conditions":[1.788635E-3,1.645862E-3,1.3614717E-1,-1.148296E-2,2.5681448E-1,7.471434E-2,3.112799E-3,7.8245884E-1,2.6858707E-3,-1.0862338E-2,1.3436145E-1,4.4988845E-3,1.2223058E-1,2.636444E-1,-7.0979755E-4,7.183093E-4,1.4860445E-1,2.0629573E-1,1.3933711E-1,2.9866546E-3,1.2014828E-1,-8.809811E-3,-1.2536679E-3,5.771101E-3,-2.8847812E-3,-8.521475E-3,3.3405353E-3,1.3078403E-2,2.6786472E-3,1.08890515E-2,1.9612892E-2,-3.0463503E-3,5.1578237E-3,6.164692E-3,1.1117955E-2],"split_indices":[9,9,11,0,15,11,9,2,0,0,11,15,1,11,0,15,0,1,0,15,0,0,0,0,0,0,0,0,0,0,0,0,0,0,0],"split_type":[0,0,0,0,0,0,0,0,0,0,0,0,0,0,0,0,0,0,0,0,0,0,0,0,0,0,0,0,0,0,0,0,0,0,0],"sum_hessian":[3.0129873E3,1.9925212E3,1.02046606E3,1.9506504E3,4.1870842E1,3.793308E2,6.4113525E2,4.0857502E1,1.013339E0,9.478572E1,2.8454507E2,2.2264423E2,4.1849106E2,3.9805485E1,1.0520191E0,1.8267108E2,1.01874E2,1.3074454E2,9.189968E1,9.8918106E1,3.1957294E2,3.8601246E1,1.2042391E0,7.933551E1,1.0333557E2,9.9658516E1,2.2154799E0,9.85432E1,3.220134E1,2.0369692E1,7.152999E1,1.6338165E1,8.257994E1,1.492736E2,1.7029933E2],"tree_param":{"num_deleted":"0","num_feature":"16","num_nodes":"35","size_leaf_vector":"1"}},{"base_weights":[-5.972524E-1,4.3738613E-1,-1.1416173E0,-4.3783823E-1,9.557791E-1,-4.1133472E-1,-1.1455594E0,-1.0589159E-2,-2.1373653E-1,7.370035E-1,1.2603444E0,2.7487656E-1,-6.0505253E-1,-1.1465529E-2,-4.735183E-1,1.1333178E-1,-8.325469E-1,3.4563455E-1,8.732946E-1,9.352316E-1,1.7056477E0,-4.46866E-3,8.425978E-3,-7.442667E-1,2.7450095E-3,2.7065512E-3,-7.184134E-3,5.5909688E-3,-2.4633312E-3,4.253882E-3,-8.7544145E-3,-6.2322877E-3,5.1864735E-3,6.4551E-3,1.0916804E-2,1.1557079E-2,2.2121267E-3,1.7730316E-2,-8.70049E-5,-8.584371E-3,-2.344383E-3],"categories":[],"categories_nodes":[],"categories_segments":[],"categories_sizes":[],"default_left":[0,0,0,0,0,0,0,0,0,0,0,0,0,0,0,0,0,0,0,0,0,0,0,0,0,0,0,0,0,0,0,0,0,0,0,0,0,0,0,0,0],"id":14,"left_children":[1,3,5,7,9,11,13,-1,15,17,19,21,23,-1,25,27,29,31,33,35,37,-1,-1,39,-1,-1,-1,-1,-1,-1,-1,-1,-1,-1,-1,-1,-1,-1,-1,-1,-1],"loss_changes":[1.6880836E3,4.7002975E2,4.7094727E0,5.3278404E1,4.145819E1,2.1486824E0,2.1728516E-1,0E0,5.8111137E1,1.9833084E1,3.574536E1,2.5489233E0,1.7896428E0,0E0,1.5348325E0,3.0575348E1,6.097397E0,1.7790035E1,1.2661896E1,2.4657242E1,1.2860992E1,0E0,0E0,1.9565916E-1,0E0,0E0,0E0,0E0,0E0,0E0,0E0,0E0,0E0,0E0,0E0,0E0,0E0,0E0,0E0,0E0,0E0],"parents":[2147483647,0,0,1,1,2,2,3,3,4,4,5,5,6,6,8,8,9,9,10,10,11,11,12,12,14,14,15,15,16,16,17,17,18,18,19,19,20,20,23,23],"right_children":[2,4,6,8,10,12,14,-1,16,18,20,22,24,-1,26,28,30,32,34,36,38,-1,-1,40,-1,-1,-1,-1,-1,-1,-1,-1,-1,-1,-1,-1,-1,-1,-1,-1,-1],"split_conditions":[1.4991277E-1,1.3502328E-1,1.5067597E-1,7.561535E-2,1.3464893E-1,4.764436E-2,2.6981968E-1,-1.0589159E-2,1.3436145E-1,1.0540137E-1,5.6330576E-3,2.7556451E-2,3.1082633E-1,-1.1465529E-2,1.5296555E-1,7.183093E-4,7.561151E-5,2.9866546E-3,1.2014828E-1,2.0629573E-1,2.849066E-1,-4.46866E-3,8.425978E-3,1.8550783E-1,2.7450095E-3,2.7065512E-3,-7.184134E-3,5.5909688E-3,-2.4633312E-3,4.253882E-3,-8.7544145E-3,-6.2322877E-3,5.1864735E-3,6.4551E-3,1.0916804E-2,1.1557079E-2,2.2121267E-3,1.7730316E-2,-8.70049E-5,-8.584371E-3,-2.344383E-3],"split_indices":[0,11,0,11,0,14,15,0,11,14,15,14,14,0,0,15,15,15,0,1,11,0,0,11,0,0,0,0,0,0,0,0,0,0,0,0,0,0,0,0,0],"split_type":[0,0,0,0,0,0,0,0,0,0,0,0,0,0,0,0,0,0,0,0,0,0,0,0,0,0,0,0,0,0,0,0,0,0,0,0,0,0,0,0,0],"sum_hessian":[2.9934229E3,1.0321246E3,1.9612982E3,3.8404178E2,6.480828E2,1.1661583E1,1.9496367E3,9.985426E1,2.841875E2,3.8114102E2,2.669418E2,2.3828502E0,9.278732E0,1.9453486E3,4.2879734E0,1.8698923E2,9.719827E1,1.0027283E2,2.808682E2,1.5787721E2,1.090646E2,1.2365646E0,1.1462855E0,8.276387E0,1.0023454E0,1.0096202E0,3.2783532E0,8.300486E1,1.03984375E2,2.6170135E0,9.458126E1,1.440441E1,8.5868416E1,1.413483E2,1.3951988E2,1.1968381E2,3.819341E1,1.0487397E2,4.1906233E0,5.6447544E0,2.631633E0],"tree_param":{"num_deleted":"0","num_feature":"16","num_nodes":"41","size_leaf_vector":"1"}},{"base_weights":[-5.926625E-1,-1.14083E0,4.4721663E-1,-3.226059E-1,-1.14281755E-2,1.0973169E0,-6.1166394E-1,4.7623906E-3,-6.321308E-1,2.8624394E0,9.047588E-1,-1.6313972E-1,-9.06995E-1,-8.133863E-4,-7.147064E-3,2.7856182E-3,2.9215086E0,3.902921E-1,1.2026873E0,-1.9429425E-3,-4.8762178E-1,-6.655019E-1,-9.6575606E-1,3.2501064E-2,1.948529E-2,7.803036E-4,8.453905E-3,1.7136287E-2,8.91774E-3,-4.6782107E-3,1.5030674E-3,-5.671935E-3,5.1006367E-3,-8.047598E-3,-6.54582E-4,2.3712413E-3,-9.753847E-3],"categories":[],"categories_nodes":[],"categories_segments":[],"categories_sizes":[],"default_left":[0,0,0,0,0,0,0,0,0,0,0,0,0,0,0,0,0,0,0,0,0,0,0,0,0,0,0,0,0,0,0,0,0,0,0,0,0],"id":15,"left_children":[1,3,5,7,-1,9,11,-1,13,15,17,19,21,-1,-1,-1,23,25,27,29,31,33,35,-1,-1,-1,-1,-1,-1,-1,-1,-1,-1,-1,-1,-1,-1],"loss_changes":[1.7042126E3,2.4453125E0,7.123092E2,2.46376E0,0E0,2.1256824E2,5.191693E1,0E0,1.6962814E-1,7.848938E0,8.804535E1,8.311253E0,2.0810242E0,0E0,0E0,0E0,6.6743774E0,3.0544872E1,5.519519E1,7.814685E0,4.7656994E0,4.3117332E0,2.6211548E0,0E0,0E0,0E0,0E0,0E0,0E0,0E0,0E0,0E0,0E0,0E0,0E0,0E0,0E0],"parents":[2147483647,0,0,1,1,2,2,3,3,5,5,6,6,8,8,9,9,10,10,11,11,12,12,16,16,17,17,18,18,19,19,20,20,21,21,22,22],"right_children":[2,4,6,8,-1,10,12,-1,14,16,18,20,22,-1,-1,-1,24,26,28,30,32,34,36,-1,-1,-1,-1,-1,-1,-1,-1,-1,-1,-1,-1,-1,-1],"split_conditions":[1.747782E-3,1.5067597E-1,1.5177213E-1,9.347321E-2,-1.14281755E-2,6.182545E-2,1.6875549E-1,4.7623906E-3,2.502184E-1,2.646403E-4,1.2549062E-1,4.6781754E-1,1.7589328E-1,-8.133863E-4,-7.147064E-3,2.7856182E-3,5.5564795E-2,1.2034855E-1,1.1994218E-1,1.17967725E-1,2.898567E-1,1.6593757E-1,1.3709787E-2,3.2501064E-2,1.948529E-2,7.803036E-4,8.453905E-3,1.7136287E-2,8.91774E-3,-4.6782107E-3,1.5030674E-3,-5.671935E-3,5.1006367E-3,-8.047598E-3,-6.54582E-4,2.3712413E-3,-9.753847E-3],"split_indices":[9,0,12,12,0,12,12,0,13,15,0,2,12,0,0,0,12,12,12,0,15,14,7,0,0,0,0,0,0,0,0,0,0,0,0,0,0],"split_type":[0,0,0,0,0,0,0,0,0,0,0,0,0,0,0,0,0,0,0,0,0,0,0,0,0,0,0,0,0,0,0,0,0,0,0,0,0],"sum_hessian":[2.9859094E3,1.9550956E3,1.0308138E3,5.529124E0,1.9495665E3,6.386449E2,3.9216895E2,1.2432429E0,4.285881E0,6.008971E1,5.785552E2,1.569346E2,2.3523436E2,1.0763694E0,3.2095113E0,1.5984857E0,5.8491226E1,2.1386694E2,3.6468823E2,1.06192215E2,5.074238E1,5.086071E1,1.8437364E2,4.0225437E1,1.8265787E1,1.282276E2,8.563934E1,1.3455049E2,2.3013773E2,2.5134912E1,8.1057304E1,4.779352E1,2.9488552E0,4.0726562E1,1.0134146E1,1.0888675E0,1.8328477E2],"tree_param":{"num_deleted":"0","num_feature":"16","num_nodes":"37","size_leaf_vector":"1"}},{"base_weights":[-5.846881E-1,-1.1350462E0,4.4608578E-1,-5.1413804E-1,-1.139459E0,-4.6925068E-1,9.6073186E-1,-7.517875E-1,-1.11950405E-1,-1.1409679E-2,-5.108552E-1,-1.0844339E-2,-2.4245003E-1,5.960722E-1,1.149737E0,-9.0617305E-3,8.9531165E-4,7.008516E-1,-6.4741004E-1,2.1756366E-3,-7.907901E-3,8.198976E-2,-8.440199E-1,-2.3449354E-1,6.477584E-1,1.4575163E-1,1.2174149E0,-1.138209E-3,1.0554349E-2,-6.5880106E-4,-7.3411106E-3,5.5284076E-3,-2.8617994E-3,7.3190467E-3,-8.995633E-3,-4.7274986E-3,6.674298E-3,-2.4169008E-3,6.7879497E-3,3.3952317E-3,-6.7136106E-3,1.4873668E-2,1.0249181E-2],"categories":[],"categories_nodes":[],"categories_segments":[],"categories_sizes":[],"default_left":[0,0,0,0,0,0,0,0,0,0,0,0,0,0,0,0,0,0,0,0,0,0,0,0,0,0,0,0,0,0,0,0,0,0,0,0,0,0,0,0,0,0,0],"id":16,"left_children":[1,3,5,7,9,11,13,15,17,-1,19,-1,21,23,25,-1,-1,27,29,-1,-1,31,33,35,37,39,41,-1,-1,-1,-1,-1,-1,-1,-1,-1,-1,-1,-1,-1,-1,-1,-1],"loss_changes":[1.6844984E3,4.130127E0,4.8817255E2,1.485259E0,6.557617E-1,5.1602333E1,4.430896E1,1.5293069E0,4.726883E0,0E0,2.020067E0,0E0,5.3918747E1,1.019471E1,2.915918E1,0E0,0E0,1.5244687E0,2.2243309E-1,0E0,0E0,3.1664131E1,9.782928E0,3.8471773E0,6.330551E0,5.1588697E0,1.8083313E1,0E0,0E0,0E0,0E0,0E0,0E0,0E0,0E0,0E0,0E0,0E0,0E0,0E0,0E0,0E0,0E0],"parents":[2147483647,0,0,1,1,2,2,3,3,4,4,5,5,6,6,7,7,8,8,10,10,12,12,13,13,14,14,17,17,18,18,21,21,22,22,23,23,24,24,25,25,26,26],"right_children":[2,4,6,8,10,12,14,16,18,-1,20,-1,22,24,26,-1,-1,28,30,-1,-1,32,34,36,38,40,42,-1,-1,-1,-1,-1,-1,-1,-1,-1,-1,-1,-1,-1,-1,-1,-1],"split_conditions":[1.788635E-3,1.5067597E-1,1.3502328E-1,1.6408291E-1,2.5681448E-1,7.561535E-2,1.2418229E-1,1.636278E0,1.9891106E-1,-1.1409679E-2,1.5470998E-1,-1.0844339E-2,1.3431875E-1,2.181637E-2,6.8050355E-4,-9.0617305E-3,8.9531165E-4,6.864176E-1,7.7633366E-2,2.1756366E-3,-7.907901E-3,7.183093E-4,7.561151E-5,2.3473592E-1,1.4031519E-1,3.244783E-3,2.748136E-3,-1.138209E-3,1.0554349E-2,-6.5880106E-4,-7.3411106E-3,5.5284076E-3,-2.8617994E-3,7.3190467E-3,-8.995633E-3,-4.7274986E-3,6.674298E-3,-2.4169008E-3,6.7879497E-3,3.3952317E-3,-6.7136106E-3,1.4873668E-2,1.0249181E-2],"split_indices":[8,0,11,11,15,11,0,13,11,0,0,0,11,1,15,0,0,6,1,0,0,15,15,15,11,8,8,0,0,0,0,0,0,0,0,0,0,0,0,0,0,0,0],"split_type":[0,0,0,0,0,0,0,0,0,0,0,0,0,0,0,0,0,0,0,0,0,0,0,0,0,0,0,0,0,0,0,0,0,0,0,0,0,0,0,0,0,0,0],"sum_hessian":[2.9655676E3,1.9331853E3,1.0323823E3,1.5300595E1,1.9178848E3,3.7161453E2,6.6076776E2,8.524843E0,6.7757516E0,1.9116655E3,6.219181E0,9.806262E1,2.735519E2,2.2840292E2,4.3236484E2,7.072783E0,1.4520601E0,2.445636E0,4.330116E0,1.8502517E0,4.368929E0,1.7883156E2,9.472036E1,1.296644E1,2.154365E2,2.7703085E1,4.0466174E2,1.1534741E0,1.292162E0,1.0184922E0,3.3116236E0,7.803266E1,1.0079889E2,2.3956144E0,9.2324745E1,1.100974E1,1.9567E0,6.806312E0,2.0863017E2,2.3337708E1,4.3653765E0,1.6284259E2,2.4181914E2],"tree_param":{"num_deleted":"0","num_feature":"16","num_nodes":"43","size_leaf_vector":"1"}},{"base_weights":[-5.944557E-1,4.128881E-1,-1.1343232E0,1.0227987E0,-6.1330134E-1,-4.6132088E-1,-1.1382836E0,3.002871E0,8.3783597E-1,-2.2034515E-1,-8.710245E-1,3.0585817E-1,-7.695788E-1,-1.1397998E-2,-4.7025096E-1,4.5186067E-1,3.1030219E0,1.3014424E0,5.6291354E-1,-8.901604E-2,-5.081159E-1,-8.7780434E-1,8.4061845E-4,-2.2440982E-1,8.977382E-3,-9.01065E-3,-1.15490064E-1,2.1769977E-3,-7.6039163E-3,-4.884685E-3,1.1504484E-2,3.1681925E-2,8.060922E-3,5.1439465E-3,2.0808471E-2,-7.7851233E-3,1.0268622E-2,2.3547995E-4,-6.937587E-3,-7.1483157E-3,4.8379588E-4,-6.7307507E-3,-9.353613E-3,2.6322322E-3,-5.1372168E-3,2.4218962E-3,-4.0017953E-3],"categories":[],"categories_nodes":[],"categories_segments":[],"categories_sizes":[],"default_left":[0,0,0,0,0,0,0,0,0,0,0,0,0,0,0,0,0,0,0,0,0,0,0,0,0,0,0,0,0,0,0,0,0,0,0,0,0,0,0,0,0,0,0,0,0,0,0],"id":17,"left_children":[1,3,5,7,9,11,13,15,17,19,21,23,25,-1,27,29,31,33,35,37,39,41,-1,43,-1,-1,45,-1,-1,-1,-1,-1,-1,-1,-1,-1,-1,-1,-1,-1,-1,-1,-1,-1,-1,-1,-1],"loss_changes":[1.6089479E3,6.4790894E2,4.0822754E0,2.3257751E2,3.8748856E1,3.930174E0,8.6572266E-1,1.1158661E1,7.451489E1,5.7948284E0,1.6542664E0,2.1680906E0,7.382617E-1,0E0,1.8754086E0,4.017859E0,2.7133179E0,1.33052E2,2.3668655E2,7.4765315E0,5.6338663E0,1.4653778E0,0E0,9.146811E-1,0E0,0E0,6.1498153E-1,0E0,0E0,0E0,0E0,0E0,0E0,0E0,0E0,0E0,0E0,0E0,0E0,0E0,0E0,0E0,0E0,0E0,0E0,0E0,0E0],"parents":[2147483647,0,0,1,1,2,2,3,3,4,4,5,5,6,6,7,7,8,8,9,9,10,10,11,11,12,12,14,14,15,15,16,16,17,17,18,18,19,19,20,20,21,21,23,23,26,26],"right_children":[2,4,6,8,10,12,14,16,18,20,22,24,26,-1,28,30,32,34,36,38,40,42,-1,44,-1,-1,46,-1,-1,-1,-1,-1,-1,-1,-1,-1,-1,-1,-1,-1,-1,-1,-1,-1,-1,-1,-1],"split_conditions":[1.4991277E-1,1.5177213E-1,1.5067597E-1,5.7987142E-2,1.6875549E-1,1.1726025E-1,2.5681448E-1,3.4025178E-4,1.1994218E-1,3.0123192E-1,5.397006E-1,5.065971E-3,1.6449007E-1,-1.1397998E-2,1.5470998E-1,1.4751418E-1,7.167668E-1,9.537203E-2,1.2034855E-1,1.4369822E-1,1.7746639E-1,1.7690134E-1,8.4061845E-4,4.4421697E-1,8.977382E-3,-9.01065E-3,1.2844945E-1,2.1769977E-3,-7.6039163E-3,-4.884685E-3,1.1504484E-2,3.1681925E-2,8.060922E-3,5.1439465E-3,2.0808471E-2,-7.7851233E-3,1.0268622E-2,2.3547995E-4,-6.937587E-3,-7.1483157E-3,4.8379588E-4,-6.7307507E-3,-9.353613E-3,2.6322322E-3,-5.1372168E-3,2.4218962E-3,-4.0017953E-3],"split_indices":[0,12,0,12,12,12,15,15,12,5,14,15,12,0,0,0,1,12,12,0,14,12,0,2,0,0,14,0,0,0,0,0,0,0,0,0,0,0,0,0,0,0,0,0,0,0,0],"split_type":[0,0,0,0,0,0,0,0,0,0,0,0,0,0,0,0,0,0,0,0,0,0,0,0,0,0,0,0,0,0,0,0,0,0,0,0,0,0,0,0,0,0,0,0,0,0,0],"sum_hessian":[2.9548154E3,1.031186E3,1.9236295E3,6.467814E2,3.8440466E2,1.2628207E1,1.9110012E3,5.2652534E1,5.9412885E2,1.5372566E2,2.3067899E2,3.6241498E0,9.004058E0,1.9052642E3,5.737051E0,2.4054391E0,5.0247093E1,2.1838863E2,3.7574023E2,1.0735227E2,4.637339E1,2.2921371E2,1.4652784E0,2.5665088E0,1.057641E0,6.868218E0,2.1358397E0,1.8499637E0,3.8870873E0,1.2817298E0,1.1237092E0,4.8123062E1,2.124031E0,1.1031343E2,1.080752E2,9.6209984E1,2.7953024E2,9.212641E1,1.5225866E1,3.339824E1,1.297515E1,5.5870663E1,1.7334305E2,1.0228509E0,1.5436578E0,1.0788981E0,1.0569417E0],"tree_param":{"num_deleted":"0","num_feature":"16","num_nodes":"47","size_leaf_vector":"1"}},{"base_weights":[-5.899752E-1,-1.1331244E0,4.188104E-1,-4.0485778E-1,-1.138141E0,1.0242705E0,-5.857115E-1,-5.5016565E-1,5.850692E-3,-1.1391593E-2,-4.7293544E-1,2.882969E0,8.548658E-1,-2.2418323E-1,-8.7677956E-1,1.5711077E-2,-6.647559E-1,-7.1607404E-3,2.5535992E-3,2.9508371E0,9.781045E-4,1.3182518E0,5.804717E-1,3.505597E-2,-3.6195877E-1,1.8348017E-3,-8.845378E-1,-4.954603E-3,5.921385E-3,-7.0161317E-3,-1.1303653E-3,3.1198513E-2,1.2215699E-2,4.001683E-3,2.1187562E-2,-7.58857E-3,1.0513231E-2,-4.889932E-3,2.5728738E-3,1.3857173E-3,-4.3143826E-3,-8.920386E-3,8.261503E-4],"categories":[],"categories_nodes":[],"categories_segments":[],"categories_sizes":[],"default_left":[0,0,0,0,0,0,0,0,0,0,0,0,0,0,0,0,0,0,0,0,0,0,0,0,0,0,0,0,0,0,0,0,0,0,0,0,0,0,0,0,0,0,0],"id":18,"left_children":[1,3,5,7,9,11,13,15,-1,-1,17,19,21,23,25,27,29,-1,-1,31,-1,33,35,37,39,-1,41,-1,-1,-1,-1,-1,-1,-1,-1,-1,-1,-1,-1,-1,-1,-1,-1],"loss_changes":[1.607248E3,6.0424805E0,6.261087E2,2.9661467E0,2.043457E-1,1.9715729E2,4.040129E1,1.0006342E0,0E0,0E0,1.4833602E0,9.39682E0,7.362033E1,6.297057E0,2.0855408E0,1.9121767E0,9.782934E-2,0E0,0E0,7.4128723E0,0E0,1.5869873E2,2.3794997E2,7.560639E0,4.1131363E0,0E0,1.6916046E0,0E0,0E0,0E0,0E0,0E0,0E0,0E0,0E0,0E0,0E0,0E0,0E0,0E0,0E0,0E0,0E0],"parents":[2147483647,0,0,1,1,2,2,3,3,4,4,5,5,6,6,7,7,10,10,11,11,12,12,13,13,14,14,15,15,16,16,19,19,21,21,22,22,23,23,24,24,26,26],"right_children":[2,4,6,8,10,12,14,16,-1,-1,18,20,22,24,26,28,30,-1,-1,32,-1,34,36,38,40,-1,42,-1,-1,-1,-1,-1,-1,-1,-1,-1,-1,-1,-1,-1,-1,-1,-1],"split_conditions":[1.788635E-3,1.5067597E-1,1.5177213E-1,6.893485E-1,2.6981968E-1,5.7987142E-2,1.7117572E-1,4.764436E-2,5.850692E-3,-1.1391593E-2,5.5495566E-1,9.381549E-1,1.1994218E-1,1.5843688E-1,1.3709787E-2,2.7556451E-2,1.7299417E-1,-7.1607404E-3,2.5535992E-3,5.6299174E-1,9.781045E-4,9.441928E-2,1.2034855E-1,2.397516E-1,4.1565996E-2,1.8348017E-3,5.397006E-1,-4.954603E-3,5.921385E-3,-7.0161317E-3,-1.1303653E-3,3.1198513E-2,1.2215699E-2,4.001683E-3,2.1187562E-2,-7.58857E-3,1.0513231E-2,-4.889932E-3,2.5728738E-3,1.3857173E-3,-4.3143826E-3,-8.920386E-3,8.261503E-4],"split_indices":[9,0,12,4,15,12,12,14,0,0,3,6,12,12,7,14,12,0,0,4,0,12,12,4,14,0,14,0,0,0,0,0,0,0,0,0,0,0,0,0,0,0,0],"split_type":[0,0,0,0,0,0,0,0,0,0,0,0,0,0,0,0,0,0,0,0,0,0,0,0,0,0,0,0,0,0,0,0,0,0,0,0,0,0,0,0,0,0,0],"sum_hessian":[2.9296252E3,1.904149E3,1.0254761E3,1.4145088E1,1.890004E3,6.398045E2,3.8567163E2,1.3109294E1,1.0357945E0,1.8856923E3,4.311656E0,5.0766045E1,5.8903845E2,1.735946E2,2.1207703E2,2.4982185E0,1.0611075E1,3.2576602E0,1.0539957E0,4.944227E1,1.3237767E0,2.1624455E2,3.727939E2,6.075978E1,1.1283483E2,1.2114936E0,2.1086552E2,1.4729475E0,1.0252712E0,9.437254E0,1.173821E0,4.3575058E1,5.8672085E0,1.02122246E2,1.141223E2,9.665035E1,2.7614355E2,1.7378462E1,4.338132E1,1.3511208E1,9.932362E1,2.0939687E2,1.4686645E0],"tree_param":{"num_deleted":"0","num_feature":"16","num_nodes":"43","size_leaf_vector":"1"}},{"base_weights":[-5.813346E-1,-1.1319633E0,4.182686E-1,-1.13798E-2,-8.18015E-1,1.0203434E0,-5.9292746E-1,-8.7865466E-1,4.0779817E-3,-1.1254097E-1,1.6345363E0,-2.2087143E-1,-9.091205E-1,-9.350911E-1,-9.543326E-2,2.482288E0,-3.9761844E-1,1.8237349E0,7.9471797E-1,-1.0692704E0,1.5123243E-2,-1.0709021E-2,-6.486304E-1,-9.554181E-3,-9.6131314E-4,4.4712E-3,-5.288149E-3,2.6443154E-2,-1.6206441E-3,-4.223367E-4,-8.118695E-3,2.6997112E-2,1.7067594E-2,5.1964554E-3,1.3324322E-2,-1.095354E-3,-1.092583E-2,-5.0301757E-4,8.741161E-3,-6.788291E-3,1.2752983E-3],"categories":[],"categories_nodes":[],"categories_segments":[],"categories_sizes":[],"default_left":[0,0,0,0,0,0,0,0,0,0,0,0,0,0,0,0,0,0,0,0,0,0,0,0,0,0,0,0,0,0,0,0,0,0,0,0,0,0,0,0,0],"id":19,"left_children":[1,3,5,-1,7,9,11,13,-1,15,17,19,21,23,25,27,29,31,33,35,37,-1,39,-1,-1,-1,-1,-1,-1,-1,-1,-1,-1,-1,-1,-1,-1,-1,-1,-1,-1],"loss_changes":[1.6186584E3,1.7189941E0,6.376681E2,0E0,3.8951435E0,4.568139E2,4.5644592E1,1.6505623E0,0E0,1.7395195E2,6.471069E1,3.6564552E1,7.500641E0,4.7066116E-1,1.6505584E0,1.08358E1,3.1023758E1,2.6210083E1,1.0711227E1,6.4972687E-1,8.221463E0,0E0,2.1863518E0,0E0,0E0,0E0,0E0,0E0,0E0,0E0,0E0,0E0,0E0,0E0,0E0,0E0,0E0,0E0,0E0,0E0,0E0],"parents":[2147483647,0,0,1,1,2,2,4,4,5,5,6,6,7,7,9,9,10,10,11,11,12,12,13,13,14,14,15,15,16,16,17,17,18,18,19,19,20,20,22,22],"right_children":[2,4,6,-1,8,10,12,14,-1,16,18,20,22,24,26,28,30,32,34,36,38,-1,40,-1,-1,-1,-1,-1,-1,-1,-1,-1,-1,-1,-1,-1,-1,-1,-1,-1,-1],"split_conditions":[1.788635E-3,1.645862E-3,1.5177213E-1,-1.13798E-2,2.4324222E-1,1.3502328E-1,1.7204325E-1,7.167668E-1,4.0779817E-3,6.182545E-2,1.4056805E-1,9.254054E-2,1.7588058E-1,7.676747E-1,7.88361E-1,2.4324222E-1,1.3431875E-1,5.7987142E-2,2.4024242E-1,1.5221575E-1,3.2055244E-1,-1.0709021E-2,1.8787174E-2,-9.554181E-3,-9.6131314E-4,4.4712E-3,-5.288149E-3,2.6443154E-2,-1.6206441E-3,-4.223367E-4,-8.118695E-3,2.6997112E-2,1.7067594E-2,5.1964554E-3,1.3324322E-2,-1.095354E-3,-1.092583E-2,-5.0301757E-4,8.741161E-3,-6.788291E-3,1.2752983E-3],"split_indices":[8,8,12,0,15,11,12,1,0,12,12,11,11,2,1,15,11,12,11,12,11,0,8,0,0,0,0,0,0,0,0,0,0,0,0,0,0,0,0,0,0],"split_type":[0,0,0,0,0,0,0,0,0,0,0,0,0,0,0,0,0,0,0,0,0,0,0,0,0,0,0,0,0,0,0,0,0,0,0,0,0,0,0,0,0],"sum_hessian":[2.9371025E3,1.893699E3,1.0434037E3,1.8529385E3,4.076052E1,6.539927E2,3.8941095E2,3.9378902E1,1.381618E0,2.3048833E2,4.2350433E2,1.8046252E2,2.0894844E2,3.637036E1,3.0085392E0,2.1289793E1,2.0919853E2,3.4372498E2,7.977936E1,3.7736893E1,1.4272563E2,1.2505736E2,8.3891075E1,3.5238937E1,1.1314247E0,1.3078421E0,1.7006971E0,2.0060642E1,1.2291509E0,1.1378587E2,9.541267E1,3.529061E1,3.084344E2,5.5381348E1,2.4398014E1,1.1651998E0,3.657169E1,1.3437395E2,8.351681E0,8.09907E1,2.9003808E0],"tree_param":{"num_deleted":"0","num_feature":"16","num_nodes":"41","size_leaf_vector":"1"}},{"base_weights":[-5.7807964E-1,4.1225302E-1,-1.1285983E0,9.925728E-1,-5.8281446E-1,-3.724901E-1,-1.1332005E0,2.724786E0,8.355279E-1,-2.2808863E-1,-8.9116764E-1,4.3141863E-1,-6.810132E-1,-1.1347431E-2,-5.57775E-1,2.781593E0,3.1508245E-3,1.2775266E0,5.814265E-1,1.3262119E-2,-3.6089426E-1,1.3718274E-3,-8.9920044E-1,-2.1694785E-3,8.125631E-3,-1.5196739E-1,-7.831216E-3,1.3869956E-1,-8.112535E-3,2.823334E-2,2.3017644E-3,8.679424E-3,1.8280964E-2,1.0361543E-2,3.151368E-3,-5.7414304E-3,2.6404466E-3,-4.960785E-3,1.20259734E-4,-4.4998615E-3,-9.137438E-3,-4.3324414E-3,2.3703007E-3,-8.0986513E-4,2.710718E-3],"categories":[],"categories_nodes":[],"categories_segments":[],"categories_sizes":[],"default_left":[0,0,0,0,0,0,0,0,0,0,0,0,0,0,0,0,0,0,0,0,0,0,0,0,0,0,0,0,0,0,0,0,0,0,0,0,0,0,0,0,0,0,0,0,0],"id":20,"left_children":[1,3,5,7,9,11,13,15,17,19,21,23,25,-1,27,29,-1,31,33,35,37,-1,39,-1,-1,41,-1,43,-1,-1,-1,-1,-1,-1,-1,-1,-1,-1,-1,-1,-1,-1,-1,-1,-1],"loss_changes":[1.5887853E3,6.0288446E2,5.6711426E0,1.7469629E2,4.171698E1,4.1361923E0,3.8549805E-1,5.62381E0,6.669171E1,5.83599E0,1.9428558E0,1.6357213E0,3.624158E-1,0E0,1.79743E0,4.2798767E0,0E0,4.641919E1,4.6464523E1,1.0092002E1,5.9266853E0,0E0,5.10437E-1,0E0,0E0,6.736561E-1,0E0,1.6268691E-1,0E0,0E0,0E0,0E0,0E0,0E0,0E0,0E0,0E0,0E0,0E0,0E0,0E0,0E0,0E0,0E0,0E0],"parents":[2147483647,0,0,1,1,2,2,3,3,4,4,5,5,6,6,7,7,8,8,9,9,10,10,11,11,12,12,14,14,15,15,17,17,18,18,19,19,20,20,22,22,25,25,27,27],"right_children":[2,4,6,8,10,12,14,16,18,20,22,24,26,-1,28,30,-1,32,34,36,38,-1,40,-1,-1,42,-1,44,-1,-1,-1,-1,-1,-1,-1,-1,-1,-1,-1,-1,-1,-1,-1,-1,-1],"split_conditions":[1.4991277E-1,1.5177213E-1,1.5067597E-1,5.7987142E-2,1.7204325E-1,1.1726025E-1,2.5681448E-1,3.905257E-1,3.112799E-3,1.5843688E-1,1.3709787E-2,1.0585611E-3,6.172501E-2,-1.1347431E-2,1.5470998E-1,9.443232E-1,3.1508245E-3,5.6330576E-3,1.1994218E-1,2.397516E-1,1.0959888E-1,1.3718274E-3,9.757959E-2,-2.1694785E-3,8.125631E-3,9.0823114E-2,-7.831216E-3,1.630717E-3,-8.112535E-3,2.823334E-2,2.3017644E-3,8.679424E-3,1.8280964E-2,1.0361543E-2,3.151368E-3,-5.7414304E-3,2.6404466E-3,-4.960785E-3,1.20259734E-4,-4.4998615E-3,-9.137438E-3,-4.3324414E-3,2.3703007E-3,-8.0986513E-4,2.710718E-3],"split_indices":[0,12,0,12,12,12,15,14,8,12,7,15,1,0,0,6,0,15,12,4,15,0,0,0,0,13,0,8,0,0,0,0,0,0,0,0,0,0,0,0,0,0,0,0,0],"split_type":[0,0,0,0,0,0,0,0,0,0,0,0,0,0,0,0,0,0,0,0,0,0,0,0,0,0,0,0,0,0,0,0,0,0,0,0,0,0,0,0,0,0,0,0,0],"sum_hessian":[2.9104443E3,1.0400293E3,1.870415E3,6.5692053E2,3.8310867E2,1.2307417E1,1.8581077E3,5.1888374E1,6.0503217E2,1.7977597E2,2.033327E2,3.1924038E0,9.115013E0,1.851201E3,6.906635E0,5.039176E1,1.4966123E0,2.1791786E2,3.8711432E2,6.444992E1,1.1532606E2,1.3267553E0,2.0200595E2,1.5008682E0,1.6915355E0,2.2797446E0,6.835268E0,2.0845673E0,4.8220673E0,4.9370914E1,1.0208505E0,1.27912834E2,9.000503E1,1.4083548E2,2.4627884E2,1.8511597E1,4.593832E1,8.415809E1,3.1167967E1,8.33821E0,1.9366774E2,1.1910372E0,1.0887074E0,1.0757033E0,1.0088639E0],"tree_param":{"num_deleted":"0","num_feature":"16","num_nodes":"45","size_leaf_vector":"1"}},{"base_weights":[-5.805739E-1,-1.129073E0,3.9959982E-1,-1.13634085E-2,-7.4901086E-1,1.0469621E0,-5.1257247E-1,-8.105548E-1,4.111534E-3,-9.818867E-2,1.6586097E0,-8.665843E-2,-8.33748E-1,-8.657304E-1,-6.665308E-2,2.312E0,-3.4961158E-1,1.8490249E0,9.3073004E-1,-1.0074002E0,1.287413E-1,-1.0129884E0,-5.5076605E-1,-8.860485E-3,-4.9090217E-4,5.9872167E-3,-5.5547534E-3,2.4695227E-2,2.5177973E-3,8.890448E-4,-7.985982E-3,2.603857E-2,1.7054835E-2,3.298203E-3,1.2253111E-2,-6.922477E-4,-1.0316395E-2,-1.0095038E-3,5.9985523E-3,-7.824129E-3,-1.068201E-2,-5.876999E-3,5.581913E-3],"categories":[],"categories_nodes":[],"categories_segments":[],"categories_sizes":[],"default_left":[0,0,0,0,0,0,0,0,0,0,0,0,0,0,0,0,0,0,0,0,0,0,0,0,0,0,0,0,0,0,0,0,0,0,0,0,0,0,0,0,0,0,0],"id":21,"left_children":[1,3,5,-1,7,9,11,13,-1,15,17,19,21,23,25,27,29,31,33,35,37,39,41,-1,-1,-1,-1,-1,-1,-1,-1,-1,-1,-1,-1,-1,-1,-1,-1,-1,-1,-1,-1],"loss_changes":[1.5547444E3,3.418213E0,6.143151E2,0E0,3.568985E0,4.262409E2,5.9008217E1,1.4966583E0,0E0,1.3105124E2,5.151013E1,3.7571205E1,1.1376556E1,5.169182E-1,2.251965E0,5.389763E0,3.856607E1,2.4949463E1,1.445771E1,6.73439E-1,1.6811342E1,2.177124E-1,4.7474117E0,0E0,0E0,0E0,0E0,0E0,0E0,0E0,0E0,0E0,0E0,0E0,0E0,0E0,0E0,0E0,0E0,0E0,0E0,0E0,0E0],"parents":[2147483647,0,0,1,1,2,2,4,4,5,5,6,6,7,7,9,9,10,10,11,11,12,12,13,13,14,14,15,15,16,16,17,17,18,18,19,19,20,20,21,21,22,22],"right_children":[2,4,6,-1,8,10,12,14,-1,16,18,20,22,24,26,28,30,32,34,36,38,40,42,-1,-1,-1,-1,-1,-1,-1,-1,-1,-1,-1,-1,-1,-1,-1,-1,-1,-1,-1,-1],"split_conditions":[1.788635E-3,1.645862E-3,1.4740586E-1,-1.13634085E-2,2.3473592E-1,1.355866E-1,1.6724339E-1,7.3521286E-1,4.111534E-3,6.182545E-2,1.359664E-1,9.201323E-2,1.7326939E-1,7.676747E-1,8.0882806E-1,2.1278381E-1,1.3431875E-1,6.182545E-2,1.8439671E-1,3.5079353E-2,2.307861E-1,2.588086E-3,2.898567E-1,-8.860485E-3,-4.9090217E-4,5.9872167E-3,-5.5547534E-3,2.4695227E-2,2.5177973E-3,8.890448E-4,-7.985982E-3,2.603857E-2,1.7054835E-2,3.298203E-3,1.2253111E-2,-6.922477E-4,-1.0316395E-2,-1.0095038E-3,5.9985523E-3,-7.824129E-3,-1.068201E-2,-5.876999E-3,5.581913E-3],"split_indices":[8,8,12,0,15,11,12,1,0,12,12,11,11,2,1,14,11,12,11,5,11,8,15,0,0,0,0,0,0,0,0,0,0,0,0,0,0,0,0,0,0,0,0],"split_type":[0,0,0,0,0,0,0,0,0,0,0,0,0,0,0,0,0,0,0,0,0,0,0,0,0,0,0,0,0,0,0,0,0,0,0,0,0,0,0,0,0,0,0],"sum_hessian":[2.8881997E3,1.8516975E3,1.0365023E3,1.8130474E3,3.8650043E1,6.060777E2,4.3042465E2,3.7275364E1,1.3746796E0,2.1159677E2,3.9448093E2,1.8613232E2,2.4429233E2,3.439661E1,2.8787546E0,1.8439627E1,1.9315715E2,3.102406E2,8.4240326E1,3.3894417E1,1.5223792E2,1.4640202E2,9.7890305E1,3.3395737E1,1.000875E0,1.0287677E0,1.849987E0,1.6760773E1,1.678854E0,9.852944E1,9.46277E1,4.4092716E1,2.661479E2,2.9106281E1,5.5134045E1,1.0478959E0,3.284652E1,1.0339776E2,4.8840157E1,3.4145863E1,1.1225616E2,9.5644936E1,2.2453718E0],"tree_param":{"num_deleted":"0","num_feature":"16","num_nodes":"43","size_leaf_vector":"1"}},{"base_weights":[-5.9148544E-1,-1.1253269E0,3.5903144E-1,-4.561157E-1,-1.1299341E0,-4.4184548E-1,8.350303E-1,4.15976E-3,-6.398814E-1,-1.1315084E-2,-4.4286036E-1,-1.0288727E0,-2.4243568E-1,6.483612E-1,1.1992679E0,-7.517988E-1,2.65365E-3,2.2594722E-3,-7.3954766E-3,-1.0867057E-2,-6.741156E-1,5.7263657E-2,-7.163075E-1,2.1193455E-1,7.427911E-1,8.6311907E-1,1.671127E0,-1.2345042E-3,-7.933397E-3,1.3105269E-3,-7.4958215E-3,5.317852E-3,-3.1160607E-3,-8.506245E-3,6.992943E-4,-6.7982143E-3,3.906866E-3,9.5888795E-3,5.4086586E-3,1.1154258E-2,3.3140876E-3,7.835328E-3,1.8110972E-2],"categories":[],"categories_nodes":[],"categories_segments":[],"categories_sizes":[],"default_left":[0,0,0,0,0,0,0,0,0,0,0,0,0,0,0,0,0,0,0,0,0,0,0,0,0,0,0,0,0,0,0,0,0,0,0,0,0,0,0,0,0,0,0],"id":22,"left_children":[1,3,5,7,9,11,13,-1,15,-1,17,19,21,23,25,27,-1,-1,-1,-1,29,31,33,35,37,39,41,-1,-1,-1,-1,-1,-1,-1,-1,-1,-1,-1,-1,-1,-1,-1,-1],"loss_changes":[1.4645892E3,4.6660156E0,3.9681848E2,3.09455E0,9.8168945E-1,4.499344E1,4.2800293E1,0E0,1.8166814E0,0E0,1.8181468E0,5.439377E-1,4.1651455E1,1.7639893E1,3.1803253E1,1.4280462E-1,0E0,0E0,0E0,0E0,1.3505964E0,3.2040184E1,1.2110207E1,1.3330719E1,1.4556915E1,1.6948677E1,8.199692E0,0E0,0E0,0E0,0E0,0E0,0E0,0E0,0E0,0E0,0E0,0E0,0E0,0E0,0E0,0E0,0E0],"parents":[2147483647,0,0,1,1,2,2,3,3,4,4,5,5,6,6,8,8,10,10,11,11,12,12,13,13,14,14,15,15,20,20,21,21,22,22,23,23,24,24,25,25,26,26],"right_children":[2,4,6,8,10,12,14,-1,16,-1,18,20,22,24,26,28,-1,-1,-1,-1,30,32,34,36,38,40,42,-1,-1,-1,-1,-1,-1,-1,-1,-1,-1,-1,-1,-1,-1,-1,-1],"split_conditions":[1.788635E-3,1.5067597E-1,1.3785362E-1,4.764436E-2,2.5681448E-1,7.561535E-2,1.3759267E-1,4.15976E-3,3.1082633E-1,-1.1315084E-2,1.5470998E-1,6.645974E-2,1.3436145E-1,7.0693254E-2,4.4988845E-3,1.4991277E-1,2.65365E-3,2.2594722E-3,-7.3954766E-3,-1.0867057E-2,1.0281291E-1,7.183093E-4,1.3502328E-1,2.9866546E-3,5.413933E-3,3.022741E-1,1.3933711E-1,-1.2345042E-3,-7.933397E-3,1.3105269E-3,-7.4958215E-3,5.317852E-3,-3.1160607E-3,-8.506245E-3,6.992943E-4,-6.7982143E-3,3.906866E-3,9.5888795E-3,5.4086586E-3,1.1154258E-2,3.3140876E-3,7.835328E-3,1.8110972E-2],"split_indices":[8,0,11,14,15,11,0,0,14,0,0,11,11,14,15,0,0,0,0,0,0,15,11,15,8,7,0,0,0,0,0,0,0,0,0,0,0,0,0,0,0,0,0],"split_type":[0,0,0,0,0,0,0,0,0,0,0,0,0,0,0,0,0,0,0,0,0,0,0,0,0,0,0,0,0,0,0,0,0,0,0,0,0,0,0,0,0,0,0],"sum_hessian":[2.8827227E3,1.8457316E3,1.0369911E3,1.3987712E1,1.8317439E3,3.8662723E2,6.503639E2,1.994626E0,1.1993086E1,1.8262653E3,5.478577E0,9.592419E1,2.9070303E2,4.3367084E2,2.1669307E2,1.0975216E1,1.0178694E0,1.8300505E0,3.6485267E0,7.893036E1,1.6993834E1,1.7915508E2,1.11547966E2,7.829651E1,3.5537433E2,1.2984842E2,8.684464E1,1.1731831E0,9.802033E0,1.3300567E0,1.5663776E1,7.79698E1,1.01185265E2,9.513223E1,1.6415731E1,1.2137718E1,6.615879E1,1.6804164E2,1.8733269E2,8.65725E1,4.3275925E1,1.3627061E1,7.321758E1],"tree_param":{"num_deleted":"0","num_feature":"16","num_nodes":"43","size_leaf_vector":"1"}},{"base_weights":[-5.685035E-1,-1.1264071E0,4.0845636E-1,-4.9603143E-1,-1.1305276E-2,9.22746E-1,-6.624649E-1,2.3916487E-3,-6.2666196E-1,-1.4978287E-1,1.4718395E0,-2.1198215E-1,-8.525058E-1,-7.09696E-1,-5.594911E-4,2.588585E0,-3.6780193E-1,1.7040232E0,6.854281E-1,-6.965025E-1,1.6328548E-1,-1.0139278E-2,-5.965164E-1,-8.284985E-3,-3.392055E-4,2.8532336E-2,4.5193825E-3,-4.4065385E-4,-7.971965E-3,2.5694253E-2,1.5826667E-2,3.5996921E-3,1.1179989E-2,-1.0318302E-2,-4.0670605E-3,-4.2539844E-3,3.2148154E-3,-6.2836353E-3,5.670405E-3],"categories":[],"categories_nodes":[],"categories_segments":[],"categories_sizes":[],"default_left":[0,0,0,0,0,0,0,0,0,0,0,0,0,0,0,0,0,0,0,0,0,0,0,0,0,0,0,0,0,0,0,0,0,0,0,0,0,0,0],"id":23,"left_children":[1,3,5,7,-1,9,11,-1,13,15,17,19,21,23,-1,25,27,29,31,33,35,-1,37,-1,-1,-1,-1,-1,-1,-1,-1,-1,-1,-1,-1,-1,-1,-1,-1],"loss_changes":[1.5696792E3,3.6381836E0,5.7823346E2,1.7849107E0,0E0,4.177492E2,2.8836334E1,0E0,5.6902456E-1,1.4623457E2,8.327185E1,1.9110247E1,8.674774E0,8.890805E-1,0E0,7.6428146E0,3.1301115E1,2.974121E1,1.471196E1,3.602398E0,5.874588E0,0E0,4.320507E0,0E0,0E0,0E0,0E0,0E0,0E0,0E0,0E0,0E0,0E0,0E0,0E0,0E0,0E0,0E0,0E0],"parents":[2147483647,0,0,1,1,2,2,3,3,5,5,6,6,8,8,9,9,10,10,11,11,12,12,13,13,15,15,16,16,17,17,18,18,19,19,20,20,22,22],"right_children":[2,4,6,8,-1,10,12,-1,14,16,18,20,22,24,-1,26,28,30,32,34,36,-1,38,-1,-1,-1,-1,-1,-1,-1,-1,-1,-1,-1,-1,-1,-1,-1,-1],"split_conditions":[1.788635E-3,1.5067597E-1,1.5626398E-1,7.06775E-2,-1.1305276E-2,1.355866E-1,1.6724339E-1,2.3916487E-3,1.1867226E-1,5.6772437E-2,1.4056805E-1,1.5615997E-1,1.7326939E-1,1.6449007E-1,-5.594911E-4,4.6289513E-1,1.3431875E-1,5.7987142E-2,2.286204E-1,8.731282E-2,1.1622329E-1,-1.0139278E-2,3.0921325E-1,-8.284985E-3,-3.392055E-4,2.8532336E-2,4.5193825E-3,-4.4065385E-4,-7.971965E-3,2.5694253E-2,1.5826667E-2,3.5996921E-3,1.1179989E-2,-1.0318302E-2,-4.0670605E-3,-4.2539844E-3,3.2148154E-3,-6.2836353E-3,5.670405E-3],"split_indices":[8,0,12,12,0,11,12,0,15,12,12,11,11,12,0,2,11,12,11,11,0,0,15,0,0,0,0,0,0,0,0,0,0,0,0,0,0,0,0],"split_type":[0,0,0,0,0,0,0,0,0,0,0,0,0,0,0,0,0,0,0,0,0,0,0,0,0,0,0,0,0,0,0,0,0,0,0,0,0,0,0],"sum_hessian":[2.8761958E3,1.8305399E3,1.0456559E3,1.3464116E1,1.8170758E3,7.066009E2,3.3905496E2,1.7806748E0,1.1683441E1,2.3975285E2,4.6684805E2,1.0185157E2,2.3720338E2,9.774309E0,1.909132E0,1.6076908E1,2.2367595E2,3.586306E2,1.0821744E2,4.3707436E1,5.8144135E1,1.4184007E2,9.536332E1,7.9284754E0,1.8458338E0,1.3708225E1,2.3686824E0,1.2878523E2,9.4890724E1,3.914437E1,3.1948624E2,6.38455E1,4.4371937E1,1.7887953E1,2.5819483E1,1.1599949E1,4.654419E1,9.371813E1,1.6451854E0],"tree_param":{"num_deleted":"0","num_feature":"16","num_nodes":"39","size_leaf_vector":"1"}},{"base_weights":[-5.7426816E-1,-1.1231505E0,3.7617812E-1,-1.1262541E0,-3.7336478E-1,9.671325E-1,-5.027589E-1,-1.1278293E-2,-5.8468175E-1,2.7147299E-3,-4.992146E-1,-1.2596235E-1,1.5328022E0,-5.1097583E-2,-8.4504205E-1,-7.5207025E-1,2.6966524E-3,-6.538733E-1,2.6413596E-3,2.5566022E0,-3.649683E-1,1.7373697E0,9.770801E-1,-9.951318E-1,1.5907936E-1,-1.01264035E-2,-5.8394694E-1,-8.324414E-3,-5.908523E-4,-1.2787252E-3,-7.954321E-3,2.6531108E-2,4.5535658E-3,3.3076433E-4,-8.012696E-3,1.2086438E-2,2.0622518E-2,1.2588456E-2,4.1166986E-3,-5.981593E-4,-1.0206816E-2,-9.3900657E-4,6.6658244E-3,-2.723506E-3,-6.762465E-3],"categories":[],"categories_nodes":[],"categories_segments":[],"categories_sizes":[],"default_left":[0,0,0,0,0,0,0,0,0,0,0,0,0,0,0,0,0,0,0,0,0,0,0,0,0,0,0,0,0,0,0,0,0,0,0,0,0,0,0,0,0,0,0,0,0],"id":24,"left_children":[1,3,5,7,9,11,13,-1,15,-1,17,19,21,23,25,27,-1,29,-1,31,33,35,37,39,41,-1,43,-1,-1,-1,-1,-1,-1,-1,-1,-1,-1,-1,-1,-1,-1,-1,-1,-1,-1],"loss_changes":[1.4946877E3,3.3842773E0,5.4624347E2,2.2290039E-1,1.1212633E0,3.8895422E2,6.5365166E1,0E0,1.7490413E0,0E0,1.4634917E0,1.4045001E2,4.3699646E1,3.6954063E1,9.351044E0,3.685255E-1,0E0,4.2578816E-1,0E0,1.2202606E0,3.4824146E1,4.658661E1,1.7449394E1,6.8800735E-1,1.9736664E1,0E0,2.4741364E0,0E0,0E0,0E0,0E0,0E0,0E0,0E0,0E0,0E0,0E0,0E0,0E0,0E0,0E0,0E0,0E0,0E0,0E0],"parents":[2147483647,0,0,1,1,2,2,3,3,4,4,5,5,6,6,8,8,10,10,11,11,12,12,13,13,14,14,15,15,17,17,19,19,20,20,21,21,22,22,23,23,24,24,26,26],"right_children":[2,4,6,8,10,12,14,-1,16,-1,18,20,22,24,26,28,-1,30,-1,32,34,36,38,40,42,-1,44,-1,-1,-1,-1,-1,-1,-1,-1,-1,-1,-1,-1,-1,-1,-1,-1,-1,-1],"split_conditions":[1.788635E-3,1.747782E-3,1.4740586E-1,2.4324222E-1,1.22824796E-1,1.3502328E-1,1.6724339E-1,-1.1278293E-2,1.645862E-3,2.7147299E-3,5.926049E-1,5.6772437E-2,1.3183932E-1,9.201323E-2,1.7326939E-1,1.7237483E-1,2.6966524E-3,7.183093E-4,2.6413596E-3,5.649287E-1,1.3431875E-1,9.441928E-2,4.846805E-3,4.8797503E-2,2.307861E-1,-1.01264035E-2,1.7499097E-1,-8.324414E-3,-5.908523E-4,-1.2787252E-3,-7.954321E-3,2.6531108E-2,4.5535658E-3,3.3076433E-4,-8.012696E-3,1.2086438E-2,2.0622518E-2,1.2588456E-2,4.1166986E-3,-5.981593E-4,-1.0206816E-2,-9.3900657E-4,6.6658244E-3,-2.723506E-3,-6.762465E-3],"split_indices":[8,8,12,15,7,11,12,0,8,0,2,12,12,11,11,11,0,15,0,2,11,12,8,5,11,0,12,0,0,0,0,0,0,0,0,0,0,0,0,0,0,0,0,0,0],"split_type":[0,0,0,0,0,0,0,0,0,0,0,0,0,0,0,0,0,0,0,0,0,0,0,0,0,0,0,0,0,0,0,0,0,0,0,0,0,0,0,0,0,0,0,0,0],"sum_hessian":[2.8615059E3,1.81372E3,1.0477859E3,1.8052432E3,8.476748E0,6.264146E2,4.2137128E2,1.7978491E3,7.394078E0,1.0063107E0,7.470438E0,2.1414925E2,4.1226532E2,1.8265137E2,2.3871991E2,6.3829255E0,1.0111523E0,6.4503894E0,1.0200485E0,1.5932442E1,1.9821681E2,2.9823068E2,1.14034645E2,3.1899878E1,1.5075148E2,1.418858E2,9.68341E1,5.3589272E0,1.0239984E0,2.1750445E0,4.275345E0,1.4730604E1,1.2018375E0,1.0461931E2,9.35975E1,1.170993E2,1.811314E2,7.447036E1,3.9564285E1,1.0259165E0,3.087396E1,1.0169069E2,4.90608E1,2.3934502E1,7.28996E1],"tree_param":{"num_deleted":"0","num_feature":"16","num_nodes":"45","size_leaf_vector":"1"}},{"base_weights":[-5.661831E-1,-1.1246828E0,3.7466928E-1,-3.0470753E-1,-1.1268333E0,9.327813E-1,-5.421294E-1,5.4974887E-3,-6.2826985E-1,-1.1284379E-2,-5.415392E-1,1.4358945E0,5.432092E-1,-1.05532154E-1,-8.3026135E-1,-6.5719866E-4,-7.1412935E-3,-7.1960357E-3,2.685594E-3,1.0796331E0,2.034519E0,-7.957206E-1,9.975567E-1,-3.8218582E-1,3.209135E-2,-6.08833E-1,-8.999731E-1,2.3277989E-2,5.4608863E-3,-6.203292E-3,2.1389931E-2,3.7957628E-3,-8.382256E-3,1.299447E-2,3.251082E-3,-5.6252973E-3,2.3293176E-3,2.6994478E-3,-2.141681E-3,1.5141357E-3,-6.3870996E-3,1.5249132E-3,-9.092624E-3],"categories":[],"categories_nodes":[],"categories_segments":[],"categories_sizes":[],"default_left":[0,0,0,0,0,0,0,0,0,0,0,0,0,0,0,0,0,0,0,0,0,0,0,0,0,0,0,0,0,0,0,0,0,0,0,0,0,0,0,0,0,0,0],"id":25,"left_children":[1,3,5,7,9,11,13,-1,15,-1,17,19,21,23,25,-1,-1,-1,-1,27,29,31,33,35,37,39,41,-1,-1,-1,-1,-1,-1,-1,-1,-1,-1,-1,-1,-1,-1,-1,-1],"loss_changes":[1.4997236E3,2.4707031E0,5.454514E2,2.743505E0,4.543457E-1,1.282174E2,5.0634277E1,0E0,2.1133351E-1,0E0,1.6452303E0,5.6972534E1,2.3056175E2,6.225651E0,2.6555634E0,0E0,0E0,0E0,0E0,1.2042445E2,3.1802734E1,5.4558945E0,5.6385742E1,6.2813377E0,6.5944266E0,1.6556015E0,2.043518E0,0E0,0E0,0E0,0E0,0E0,0E0,0E0,0E0,0E0,0E0,0E0,0E0,0E0,0E0,0E0,0E0],"parents":[2147483647,0,0,1,1,2,2,3,3,4,4,5,5,6,6,8,8,10,10,11,11,12,12,13,13,14,14,19,19,20,20,21,21,22,22,23,23,24,24,25,25,26,26],"right_children":[2,4,6,8,10,12,14,-1,16,-1,18,20,22,24,26,-1,-1,-1,-1,28,30,32,34,36,38,40,42,-1,-1,-1,-1,-1,-1,-1,-1,-1,-1,-1,-1,-1,-1,-1,-1],"split_conditions":[1.747782E-3,1.5067597E-1,1.5018171E-1,9.347321E-2,2.5681448E-1,1.1994218E-1,1.6724339E-1,5.4974887E-3,2.2094627E-1,-1.1284379E-2,8.305878E-1,9.98272E-2,1.2034855E-1,7.24645E-1,1.7589328E-1,-6.5719866E-4,-7.1412935E-3,-7.1960357E-3,2.685594E-3,5.7987142E-2,6.8050355E-4,1.961789E-3,1.4154783E-1,1.6384251E-1,1.5843688E-1,9.757959E-2,1.7445728E-2,2.3277989E-2,5.4608863E-3,-6.203292E-3,2.1389931E-2,3.7957628E-3,-8.382256E-3,1.299447E-2,3.251082E-3,-5.6252973E-3,2.3293176E-3,2.6994478E-3,-2.141681E-3,1.5141357E-3,-6.3870996E-3,1.5249132E-3,-9.092624E-3],"split_indices":[9,0,12,12,15,12,12,0,13,0,6,12,12,6,12,0,0,0,0,12,15,9,12,12,12,0,7,0,0,0,0,0,0,0,0,0,0,0,0,0,0,0,0],"split_type":[0,0,0,0,0,0,0,0,0,0,0,0,0,0,0,0,0,0,0,0,0,0,0,0,0,0,0,0,0,0,0,0,0,0,0,0,0,0,0,0,0,0,0],"sum_hessian":[2.8504802E3,1.788448E3,1.0620321E3,5.4247637E0,1.7830233E3,6.6013336E2,4.018988E2,1.1059892E0,4.318774E0,1.7762974E3,6.725961E0,2.8574112E2,3.7439224E2,1.6087004E2,2.4102876E2,1.0394152E0,3.279359E0,5.6971183E0,1.0288429E0,1.8264815E2,1.0309296E2,9.447587E1,2.7991638E2,5.22606E1,1.08609436E2,6.2374195E1,1.7865457E2,5.2681076E1,1.2996707E2,3.5294428E0,9.9563515E1,2.743929E0,9.173194E1,1.918997E2,8.801667E1,4.0544502E1,1.1716099E1,5.5149803E1,5.3459637E1,2.050915E0,6.032328E1,1.2933205E0,1.7736125E2],"tree_param":{"num_deleted":"0","num_feature":"16","num_nodes":"43","size_leaf_vector":"1"}},{"base_weights":[-5.729815E-1,-1.1236877E0,3.607267E-1,-1.1280149E-2,-8.1468284E-1,-4.6849942E-1,8.07581E-1,-8.666991E-1,2.1391287E-3,-1.0407218E0,-2.720717E-1,9.7876716E-1,4.818789E-1,-7.881928E-4,-8.9039207E-1,-1.0937903E-2,-6.5153277E-1,-8.206044E-4,-8.1046623E-1,5.254011E-3,1.048531E0,5.732182E-1,1.2734178E-1,-2.6406911E-3,-9.384257E-3,-7.4580885E-3,2.310418E-3,3.846802E-3,-3.0701305E-3,2.252503E-3,-8.364355E-3,-8.3881905E-3,2.0217076E-3,7.7873576E-3,1.1736557E-2,6.1842124E-3,-5.563808E-3,-6.20727E-3,3.891544E-3],"categories":[],"categories_nodes":[],"categories_segments":[],"categories_sizes":[],"default_left":[0,0,0,0,0,0,0,0,0,0,0,0,0,0,0,0,0,0,0,0,0,0,0,0,0,0,0,0,0,0,0,0,0,0,0,0,0,0,0],"id":26,"left_children":[1,3,5,-1,7,9,11,13,-1,15,17,19,21,-1,23,-1,25,27,29,31,33,35,37,-1,-1,-1,-1,-1,-1,-1,-1,-1,-1,-1,-1,-1,-1,-1,-1],"loss_changes":[1.4540332E3,5.397949E-1,3.8983E2,0E0,2.0699463E0,4.0904312E1,3.714084E1,4.313202E-1,0E0,5.074539E-1,4.050676E1,3.026535E1,7.602089E0,0E0,3.9297676E-1,0E0,1.6904974E0,2.2244356E1,2.8762283E0,5.6280537E0,1.22144165E1,1.0373348E1,1.0586231E1,0E0,0E0,0E0,0E0,0E0,0E0,0E0,0E0,0E0,0E0,0E0,0E0,0E0,0E0,0E0,0E0],"parents":[2147483647,0,0,1,1,2,2,4,4,5,5,6,6,7,7,9,9,10,10,11,11,12,12,14,14,16,16,17,17,18,18,19,19,20,20,21,21,22,22],"right_children":[2,4,6,-1,8,10,12,14,-1,16,18,20,22,-1,24,-1,26,28,30,32,34,36,38,-1,-1,-1,-1,-1,-1,-1,-1,-1,-1,-1,-1,-1,-1,-1,-1],"split_conditions":[1.747782E-3,1.645862E-3,1.3502328E-1,-1.1280149E-2,2.4324222E-1,7.471434E-2,5.241997E-3,3.4551913E-1,2.1391287E-3,6.645974E-2,1.3436145E-1,6.8050355E-4,7.3867154E-1,-7.881928E-4,3.5044197E-2,-1.0937903E-2,1.1214144E-2,7.183093E-4,7.561151E-5,1.8902877E-4,1.2411164E-1,3.8249847E-1,3.2288823E-1,-2.6406911E-3,-9.384257E-3,-7.4580885E-3,2.310418E-3,3.846802E-3,-3.0701305E-3,2.252503E-3,-8.364355E-3,-8.3881905E-3,2.0217076E-3,7.7873576E-3,1.1736557E-2,6.1842124E-3,-5.563808E-3,-6.20727E-3,3.891544E-3],"split_indices":[8,8,11,0,15,11,8,6,0,11,11,15,6,0,14,0,8,15,15,15,1,11,13,0,0,0,0,0,0,0,0,0,0,0,0,0,0,0,0],"split_type":[0,0,0,0,0,0,0,0,0,0,0,0,0,0,0,0,0,0,0,0,0,0,0,0,0,0,0,0,0,0,0,0,0,0,0,0,0,0,0],"sum_hessian":[2.8241877E3,1.77618E3,1.0480077E3,1.7464225E3,2.975761E1,3.669545E2,6.810532E2,2.862484E1,1.1327717E0,9.157802E1,2.753765E2,4.4379056E2,2.3726262E2,1.0882968E0,2.7536543E1,7.740278E1,1.417524E1,1.844506E2,9.092587E1,2.9820082E1,4.139705E2,1.8767767E2,4.958496E1,2.8870249E0,2.4649517E1,1.3087197E1,1.0880421E0,8.1423965E1,1.0302664E2,1.8486826E0,8.9077194E1,4.4076023E0,2.541248E1,1.3573799E2,2.7823248E2,1.813266E2,6.351068E0,1.2144138E1,3.7440823E1],"tree_param":{"num_deleted":"0","num_feature":"16","num_nodes":"39","size_leaf_vector":"1"}},{"base_weights":[-5.6588954E-1,-1.1183379E0,3.604657E-1,-1.1215369E0,-3.02624E-1,9.1941684E-1,-5.680226E-1,-1.1259152E-2,-8.149015E-1,-6.694433E-3,2.8728316E-2,-1.1375126E-1,1.455499E0,-1.5875079E-1,-8.336506E-1,-8.871008E-1,-1.2406314E-2,-4.0385726E-1,4.3470746E-1,2.113906E0,-3.6838356E-1,1.6615195E0,1.0191218E0,-9.9886906E-1,2.9280303E-2,-1.0286497E0,-5.428895E-1,-9.394445E-3,-1.5463305E-3,4.163147E-3,-4.458429E-3,-5.910423E-4,-4.731214E-3,9.81062E-3,-4.312069E-3,2.421188E-2,7.6091764E-3,-1.5364375E-4,-7.839909E-3,4.9481755E-3,1.7406715E-2,2.2658816E-2,8.372003E-3,-5.2873883E-4,-1.0291679E-2,-1.4182186E-3,3.7599164E-3,-1.0344046E-2,-2.6278298E-3,-5.7217246E-3,5.1620556E-3],"categories":[],"categories_nodes":[],"categories_segments":[],"categories_sizes":[],"default_left":[0,0,0,0,0,0,0,0,0,0,0,0,0,0,0,0,0,0,0,0,0,0,0,0,0,0,0,0,0,0,0,0,0,0,0,0,0,0,0,0,0,0,0,0,0,0,0,0,0,0,0],"id":27,"left_children":[1,3,5,7,9,11,13,-1,15,-1,17,19,21,23,25,27,29,31,33,35,37,39,41,43,45,47,49,-1,-1,-1,-1,-1,-1,-1,-1,-1,-1,-1,-1,-1,-1,-1,-1,-1,-1,-1,-1,-1,-1,-1,-1],"loss_changes":[1.4394702E3,3.9174805E0,5.468609E2,5.197754E-1,1.2077287E0,3.643642E2,4.28349E1,0E0,1.8280487E0,0E0,1.5755473E0,1.2997156E2,3.553015E1,2.5097319E1,1.2487457E1,8.315563E-1,1.237905E0,4.943174E-2,3.0033133E0,6.0935516E0,3.003349E1,2.5138977E1,2.8866562E1,7.2366714E-1,7.9052835E0,7.951355E-2,3.709301E0,0E0,0E0,0E0,0E0,0E0,0E0,0E0,0E0,0E0,0E0,0E0,0E0,0E0,0E0,0E0,0E0,0E0,0E0,0E0,0E0,0E0,0E0,0E0,0E0],"parents":[2147483647,0,0,1,1,2,2,3,3,4,4,5,5,6,6,8,8,10,10,11,11,12,12,13,13,14,14,15,15,16,16,17,17,18,18,19,19,20,20,21,21,22,22,23,23,24,24,25,25,26,26],"right_children":[2,4,6,8,10,12,14,-1,16,-1,18,20,22,24,26,28,30,32,34,36,38,40,42,44,46,48,50,-1,-1,-1,-1,-1,-1,-1,-1,-1,-1,-1,-1,-1,-1,-1,-1,-1,-1,-1,-1,-1,-1,-1,-1],"split_conditions":[1.788635E-3,1.747782E-3,1.5018171E-1,1.645862E-3,1.9845775E-1,1.3614717E-1,1.6724339E-1,-1.1259152E-2,7.3521286E-1,-6.694433E-3,1.4608093E-1,6.182545E-2,5.241997E-3,9.201323E-2,1.7326939E-1,2.286204E-1,1.3143872E-1,2.148859E-1,1.9891106E-1,5.6772437E-2,1.3431875E-1,6.8050355E-4,5.930946E-2,4.8797503E-2,2.307861E-1,6.5839076E0,3.0921325E-1,-9.394445E-3,-1.5463305E-3,4.163147E-3,-4.458429E-3,-5.910423E-4,-4.731214E-3,9.81062E-3,-4.312069E-3,2.421188E-2,7.6091764E-3,-1.5364375E-4,-7.839909E-3,4.9481755E-3,1.7406715E-2,2.2658816E-2,8.372003E-3,-5.2873883E-4,-1.0291679E-2,-1.4182186E-3,3.7599164E-3,-1.0344046E-2,-2.6278298E-3,-5.7217246E-3,5.1620556E-3],"split_indices":[8,8,12,8,4,11,12,0,1,0,11,12,8,11,11,11,12,5,11,12,11,15,12,5,11,13,15,0,0,0,0,0,0,0,0,0,0,0,0,0,0,0,0,0,0,0,0,0,0,0,0],"split_type":[0,0,0,0,0,0,0,0,0,0,0,0,0,0,0,0,0,0,0,0,0,0,0,0,0,0,0,0,0,0,0,0,0,0,0,0,0,0,0,0,0,0,0,0,0,0,0,0,0,0,0],"sum_hessian":[2.8091895E3,1.7594786E3,1.0497108E3,1.7518588E3,7.6199026E0,6.5526184E2,3.944489E2,1.721928E3,2.9930836E1,2.6479027E0,4.972E0,2.2438672E2,4.3087515E2,1.5650533E2,2.3794357E2,2.726682E1,2.6640146E0,2.4121838E0,2.5598164E0,2.1519472E1,2.0286723E2,2.888769E2,1.4199826E2,2.7044895E1,1.2946043E2,1.3938762E2,9.8555954E1,2.4920778E1,2.3460426E0,1.3790113E0,1.2850033E0,1.0236641E0,1.3885196E0,1.4064507E0,1.1533656E0,1.6249878E1,5.2695937E0,1.1081462E2,9.205262E1,1.9274454E1,2.6960242E2,1.5164057E1,1.26834206E2,1.0097098E0,2.6035185E1,8.747392E1,4.1986507E1,1.3765201E2,1.7356126E0,9.679906E1,1.7568946E0],"tree_param":{"num_deleted":"0","num_feature":"16","num_nodes":"51","size_leaf_vector":"1"}},{"base_weights":[-5.556476E-1,3.764534E-1,-1.1168219E0,9.024803E-1,-5.737666E-1,-3.6618876E-1,-1.1216862E0,2.268779E0,7.3176223E-1,-1.1148707E-1,-8.493067E-1,4.946716E-1,-6.2384236E-1,-1.12334E-2,-4.657487E-1,6.5372914E-1,2.3523107E0,9.8668224E-1,2.9280338E-1,-3.5898823E-1,-2.4801293E-2,-6.250215E-1,-9.227547E-1,-1.3896185E-3,8.308429E-3,-7.171218E-1,-9.039588E-2,2.8938837E-3,-7.658159E-3,1.3203584E-2,-2.1473442E-4,2.4106272E-2,5.180878E-3,6.7593483E-3,1.3534132E-2,4.3223443E-4,6.401621E-3,-4.607012E-3,2.620935E-3,1.4554039E-3,-2.4183816E-3,-6.6076713E-3,6.6409695E-5,-3.9537814E-3,-9.379971E-3,-8.724769E-3,2.225418E-4,2.663007E-3,-3.8869681E-3],"categories":[],"categories_nodes":[],"categories_segments":[],"categories_sizes":[],"default_left":[0,0,0,0,0,0,0,0,0,0,0,0,0,0,0,0,0,0,0,0,0,0,0,0,0,0,0,0,0,0,0,0,0,0,0,0,0,0,0,0,0,0,0,0,0,0,0,0,0],"id":28,"left_children":[1,3,5,7,9,11,13,15,17,19,21,23,25,-1,27,29,31,33,35,37,39,41,43,-1,-1,45,47,-1,-1,-1,-1,-1,-1,-1,-1,-1,-1,-1,-1,-1,-1,-1,-1,-1,-1,-1,-1,-1,-1],"loss_changes":[1.4702755E3,5.29474E2,5.5827637E0,1.555885E2,4.7950844E1,3.7807307E0,8.432617E-1,7.004486E0,6.751947E1,3.0597422E0,2.74234E0,1.1683576E0,4.6058846E-1,0E0,2.2100182E0,2.9572814E0,5.018982E0,4.1947235E1,1.9573738E1,2.5826325E0,4.077376E0,1.4660206E0,6.565857E-1,0E0,0E0,1.1654224E0,6.3837105E-1,0E0,0E0,0E0,0E0,0E0,0E0,0E0,0E0,0E0,0E0,0E0,0E0,0E0,0E0,0E0,0E0,0E0,0E0,0E0,0E0,0E0,0E0],"parents":[2147483647,0,0,1,1,2,2,3,3,4,4,5,5,6,6,7,7,8,8,9,9,10,10,11,11,12,12,14,14,15,15,16,16,17,17,18,18,19,19,20,20,21,21,22,22,25,25,26,26],"right_children":[2,4,6,8,10,12,14,16,18,20,22,24,26,-1,28,30,32,34,36,38,40,42,44,-1,-1,46,48,-1,-1,-1,-1,-1,-1,-1,-1,-1,-1,-1,-1,-1,-1,-1,-1,-1,-1,-1,-1,-1,-1],"split_conditions":[1.4991277E-1,1.5177213E-1,1.5067597E-1,6.182545E-2,1.6724339E-1,9.347321E-2,2.5681448E-1,4.5366905E-4,4.959844E-3,3.368165E-1,1.7589328E-1,1.0585611E-3,1.6449007E-1,-1.12334E-2,1.5470998E-1,3.62611E-2,7.167668E-1,5.6330576E-3,1.2034855E-1,2.2127707E-1,4.668643E-1,1.4795028E-1,1.5984857E-1,-1.3896185E-3,8.308429E-3,1.5756676E-1,1.4044754E-1,2.8938837E-3,-7.658159E-3,1.3203584E-2,-2.1473442E-4,2.4106272E-2,5.180878E-3,6.7593483E-3,1.3534132E-2,4.3223443E-4,6.401621E-3,-4.607012E-3,2.620935E-3,1.4554039E-3,-2.4183816E-3,-6.6076713E-3,6.6409695E-5,-3.9537814E-3,-9.379971E-3,-8.724769E-3,2.225418E-4,2.663007E-3,-3.8869681E-3],"split_indices":[0,12,0,12,12,12,15,15,8,13,12,15,12,0,0,12,1,15,12,15,13,0,2,0,0,14,14,0,0,0,0,0,0,0,0,0,0,0,0,0,0,0,0,0,0,0,0,0,0],"split_type":[0,0,0,0,0,0,0,0,0,0,0,0,0,0,0,0,0,0,0,0,0,0,0,0,0,0,0,0,0,0,0,0,0,0,0,0,0,0,0,0,0,0,0,0,0,0,0,0,0],"sum_hessian":[2.8072441E3,1.0552124E3,1.7520317E3,6.7927625E2,3.759362E2,1.226277E1,1.739769E3,7.2717865E1,6.0655835E2,1.4144316E2,2.3449303E2,2.400963E0,9.861807E0,1.7339718E3,5.797198E0,4.444152E0,6.827371E1,3.8213983E2,2.2441855E2,3.5059734E1,1.0638343E2,6.2539192E1,1.7195383E2,1.2389647E0,1.1619983E0,7.8078713E0,2.0539355E0,1.6687826E0,4.128415E0,1.2746689E0,3.1694832E0,6.556081E1,2.7129085E0,2.0993709E2,1.7220273E2,1.3189783E2,9.252073E1,3.0569845E1,4.4898887E0,5.9972656E1,4.6410778E1,5.9102444E1,3.4367454E0,6.343731E0,1.6561009E2,6.1546435E0,1.653228E0,1.0331204E0,1.020815E0],"tree_param":{"num_deleted":"0","num_feature":"16","num_nodes":"49","size_leaf_vector":"1"}},{"base_weights":[-5.601285E-1,3.6260062E-1,-1.1181294E0,8.865729E-1,-5.6330377E-1,-6.4760965E-1,-1.1207465E-2,-1.3969523E-1,1.4015642E0,-8.618538E-1,-1.9550519E-1,-7.54517E-1,2.198377E-3,2.1715431E0,-4.015618E-1,1.6339264E0,9.0536857E-1,-5.069125E-1,-1.050008E0,1.3667431E-1,-6.2527466E-1,-8.0047E-1,-9.4694365E-4,2.4370886E-2,4.4254223E-3,-1.2834747E-3,-7.4427985E-3,1.1512924E-2,1.9119559E-2,6.2306523E-3,1.5409734E-2,-9.963214E-3,-1.9640368E-3,-1.0819329E-2,-6.002861E-3,-2.3207786E-3,2.7164044E-3,-4.5992061E-4,-6.771671E-3,-8.522274E-3,-1.2565784E-3],"categories":[],"categories_nodes":[],"categories_segments":[],"categories_sizes":[],"default_left":[0,0,0,0,0,0,0,0,0,0,0,0,0,0,0,0,0,0,0,0,0,0,0,0,0,0,0,0,0,0,0,0,0,0,0,0,0,0,0,0,0],"id":29,"left_children":[1,3,5,7,9,11,-1,13,15,17,19,21,-1,23,25,27,29,31,33,35,37,39,-1,-1,-1,-1,-1,-1,-1,-1,-1,-1,-1,-1,-1,-1,-1,-1,-1,-1,-1],"loss_changes":[1.4317678E3,5.098335E2,6.816406E-1,3.5479816E2,4.1417717E1,1.6596923E0,0E0,1.384542E2,4.8542908E1,1.2913361E1,2.4862392E1,2.4862576E-1,0E0,8.540672E0,1.8964806E1,3.608661E1,2.444728E1,1.1215576E1,6.381836E-1,5.0629735E0,2.2151165E0,2.0745182E-1,0E0,0E0,0E0,0E0,0E0,0E0,0E0,0E0,0E0,0E0,0E0,0E0,0E0,0E0,0E0,0E0,0E0,0E0,0E0],"parents":[2147483647,0,0,1,1,2,2,3,3,4,4,5,5,7,7,8,8,9,9,10,10,11,11,13,13,14,14,15,15,16,16,17,17,18,18,19,19,20,20,21,21],"right_children":[2,4,6,8,10,12,-1,14,16,18,20,22,-1,24,26,28,30,32,34,36,38,40,-1,-1,-1,-1,-1,-1,-1,-1,-1,-1,-1,-1,-1,-1,-1,-1,-1,-1,-1],"split_conditions":[1.4991277E-1,1.5177213E-1,1.5067597E-1,1.355866E-1,1.7326939E-1,6.0940856E-1,-1.1207465E-2,6.182545E-2,1.3183932E-1,1.6800098E-1,1.7499097E-1,1.7299417E-1,2.198377E-3,4.6289513E-1,1.3431875E-1,9.242981E-2,2.4024242E-1,9.201323E-2,5.8300334E-1,1.17967725E-1,2.1493861E-1,2.3292722E-1,-9.4694365E-4,2.4370886E-2,4.4254223E-3,-1.2834747E-3,-7.4427985E-3,1.1512924E-2,1.9119559E-2,6.2306523E-3,1.5409734E-2,-9.963214E-3,-1.9640368E-3,-1.0819329E-2,-6.002861E-3,-2.3207786E-3,2.7164044E-3,-4.5992061E-4,-6.771671E-3,-8.522274E-3,-1.2565784E-3],"split_indices":[0,12,0,11,11,7,0,12,12,12,12,12,0,2,11,12,11,11,4,0,2,11,0,0,0,0,0,0,0,0,0,0,0,0,0,0,0,0,0,0,0],"split_type":[0,0,0,0,0,0,0,0,0,0,0,0,0,0,0,0,0,0,0,0,0,0,0,0,0,0,0,0,0,0,0,0,0,0,0,0,0,0,0,0,0],"sum_hessian":[2.7771848E3,1.0468231E3,1.7303617E3,6.68565E2,3.7825812E2,1.2319604E1,1.718042E3,2.238791E2,4.4468588E2,2.0730095E2,1.7095717E2,1.1199688E1,1.1199164E0,2.1299988E1,2.0257912E2,2.9973706E2,1.4494884E2,7.437862E1,1.3292233E2,9.719596E1,7.37612E1,1.0071916E1,1.1277717E0,1.7754171E1,3.5458164E0,1.14248985E2,8.833013E1,1.13314735E2,1.8642232E2,1.031122E2,4.1836643E1,2.7157278E1,4.7221336E1,1.2148667E2,1.1435662E1,2.565708E1,7.153888E1,6.3744845E0,6.738672E1,8.8660755E0,1.2058401E0],"tree_param":{"num_deleted":"0","num_feature":"16","num_nodes":"41","size_leaf_vector":"1"}},{"base_weights":[-5.441815E-1,-1.1149771E0,3.8026962E-1,-4.5855567E-1,-1.1198572E-2,8.6666596E-1,-6.8469906E-1,1.0560292E-1,-6.453225E-1,-8.714489E-2,1.3287487E0,-9.377452E-1,-3.5506985E-1,-5.246255E-3,6.101965E-3,-8.889679E-3,-2.2490649E-2,2.0532925E0,-3.285211E-1,1.6130064E0,7.895057E-1,-3.992904E-1,-9.945215E-1,7.1683146E-2,-5.7089365E-1,7.194022E-3,-6.0778838E-3,2.3623683E-2,7.04002E-3,-3.280265E-4,-7.369034E-3,1.0958812E-2,1.9023502E-2,4.251403E-3,1.0509798E-2,1.0849717E-3,-8.030647E-3,-9.993876E-3,-8.303417E-4,-1.9674741E-4,9.783706E-3,-2.2518623E-3,-6.6895913E-3],"categories":[],"categories_nodes":[],"categories_segments":[],"categories_sizes":[],"default_left":[0,0,0,0,0,0,0,0,0,0,0,0,0,0,0,0,0,0,0,0,0,0,0,0,0,0,0,0,0,0,0,0,0,0,0,0,0,0,0,0,0,0,0],"id":30,"left_children":[1,3,5,7,-1,9,11,13,15,17,19,21,23,-1,-1,-1,25,27,29,31,33,35,37,39,41,-1,-1,-1,-1,-1,-1,-1,-1,-1,-1,-1,-1,-1,-1,-1,-1,-1,-1],"loss_changes":[1.4709858E3,4.4924316E0,5.52879E2,1.8329036E0,0E0,3.2285706E2,2.7280212E1,2.4603953E0,1.8384447E0,1.2574368E2,7.305859E1,4.962982E0,1.3779572E1,0E0,0E0,0E0,3.276909E0,6.9644547E0,2.6290182E1,4.38703E1,1.5700333E1,4.5423536E0,5.8369446E-1,4.3233027E0,3.054779E0,0E0,0E0,0E0,0E0,0E0,0E0,0E0,0E0,0E0,0E0,0E0,0E0,0E0,0E0,0E0,0E0,0E0,0E0],"parents":[2147483647,0,0,1,1,2,2,3,3,5,5,6,6,7,7,8,8,9,9,10,10,11,11,12,12,16,16,17,17,18,18,19,19,20,20,21,21,22,22,23,23,24,24],"right_children":[2,4,6,8,-1,10,12,14,16,18,20,22,24,-1,-1,-1,26,28,30,32,34,36,38,40,42,-1,-1,-1,-1,-1,-1,-1,-1,-1,-1,-1,-1,-1,-1,-1,-1,-1,-1],"split_conditions":[1.788635E-3,1.5067597E-1,1.5626398E-1,1.1726025E-1,-1.1198572E-2,1.3502328E-1,1.7326939E-1,1.0585611E-3,1.6984144E-1,6.182545E-2,1.3326377E-1,1.6029444E-1,1.6724339E-1,-5.246255E-3,6.101965E-3,-8.889679E-3,1.9891106E-1,5.6772437E-2,1.3431875E-1,9.242981E-2,1.9604415E-1,1.9280935E-3,5.397006E-1,3.352245E-1,6.6565067E-1,7.194022E-3,-6.0778838E-3,2.3623683E-2,7.04002E-3,-3.280265E-4,-7.369034E-3,1.0958812E-2,1.9023502E-2,4.251403E-3,1.0509798E-2,1.0849717E-3,-8.030647E-3,-9.993876E-3,-8.303417E-4,-1.9674741E-4,9.783706E-3,-2.2518623E-3,-6.6895913E-3],"split_indices":[8,0,12,12,0,11,11,15,11,12,12,12,12,0,0,0,11,12,11,12,11,15,14,11,6,0,0,0,0,0,0,0,0,0,0,0,0,0,0,0,0,0,0],"split_type":[0,0,0,0,0,0,0,0,0,0,0,0,0,0,0,0,0,0,0,0,0,0,0,0,0,0,0,0,0,0,0,0,0,0,0,0,0,0,0,0,0,0,0],"sum_hessian":[2.784079E3,1.7210297E3,1.0630493E3,1.4102021E1,1.7069276E3,7.300093E2,3.3304007E2,3.7235627E0,1.0378459E1,2.3877118E2,4.912381E2,1.8631902E2,1.4672107E2,1.6203617E0,2.103201E0,6.845838E0,3.532621E0,2.2675936E1,2.1609525E2,3.1906372E2,1.7217436E2,1.9304487E1,1.6701453E2,4.9728195E1,9.6992874E1,1.3558158E0,2.1768053E0,1.722796E1,5.4479756E0,1.2658962E2,8.950563E1,1.1790856E2,2.0115517E2,7.412821E1,9.804615E1,9.1987295E0,1.0105759E1,1.6593578E2,1.0787567E0,4.6953735E1,2.77446E0,2.289044E1,7.410243E1],"tree_param":{"num_deleted":"0","num_feature":"16","num_nodes":"43","size_leaf_vector":"1"}},{"base_weights":[-5.5726E-1,-1.1122643E0,3.4025195E-1,-4.951438E-1,-1.1166151E-2,8.4732336E-1,-5.768385E-1,-6.537242E-1,5.893035E-3,2.3899953E0,7.035675E-1,-1.2949E-1,-8.528271E-1,2.7961924E-3,-8.583822E-1,2.5421088E0,9.4932985E-1,1.1028088E0,4.5441702E-1,-2.1670325E-1,2.0348711E-1,-6.1029667E-1,-9.3241173E-1,-4.0304507E-3,5.8264467E-3,-6.564983E-4,-9.25779E-3,2.5946042E-2,4.71815E-3,1.4752713E-2,-1.1723719E-3,3.8841318E-3,1.7581556E-2,-7.664376E-3,8.323435E-3,-8.006579E-4,-5.1096184E-3,-5.28211E-3,4.9020573E-3,4.532834E-3,-6.583741E-3,-9.468426E-3,-1.0931545E-4],"categories":[],"categories_nodes":[],"categories_segments":[],"categories_sizes":[],"default_left":[0,0,0,0,0,0,0,0,0,0,0,0,0,0,0,0,0,0,0,0,0,0,0,0,0,0,0,0,0,0,0,0,0,0,0,0,0,0,0,0,0,0,0],"id":31,"left_children":[1,3,5,7,-1,9,11,13,-1,15,17,19,21,23,25,27,29,31,33,35,37,39,41,-1,-1,-1,-1,-1,-1,-1,-1,-1,-1,-1,-1,-1,-1,-1,-1,-1,-1,-1,-1],"loss_changes":[1.3706761E3,3.458252E0,4.9035898E2,3.4349267E0,0E0,1.4710251E2,4.6186836E1,1.9483538E0,0E0,7.664917E0,6.101602E1,4.3215284E0,3.34198E0,1.7477468E0,4.6796417E-1,3.0254517E0,5.190163E0,1.1014279E2,1.7997525E2,4.601772E0,7.081862E0,3.8252602E0,2.2528381E0,0E0,0E0,0E0,0E0,0E0,0E0,0E0,0E0,0E0,0E0,0E0,0E0,0E0,0E0,0E0,0E0,0E0,0E0,0E0,0E0],"parents":[2147483647,0,0,1,1,2,2,3,3,5,5,6,6,7,7,9,9,10,10,11,11,12,12,13,13,14,14,15,15,16,16,17,17,18,18,19,19,20,20,21,21,22,22],"right_children":[2,4,6,8,-1,10,12,14,-1,16,18,20,22,24,26,28,30,32,34,36,38,40,42,-1,-1,-1,-1,-1,-1,-1,-1,-1,-1,-1,-1,-1,-1,-1,-1,-1,-1,-1,-1],"split_conditions":[1.788635E-3,1.5067597E-1,1.5125786E-1,6.893485E-1,-1.1166151E-2,5.7987142E-2,1.6724339E-1,3.7818396E-1,5.893035E-3,4.9324632E-1,1.1994218E-1,3.9241335E-1,1.7589328E-1,3.1223994E-1,8.7172024E-2,8.979515E-1,3.19752E-1,9.537203E-2,1.2034855E-1,3.1145784E-1,1.4668632E-2,9.757959E-2,3.0921325E-1,-4.0304507E-3,5.8264467E-3,-6.564983E-4,-9.25779E-3,2.5946042E-2,4.71815E-3,1.4752713E-2,-1.1723719E-3,3.8841318E-3,1.7581556E-2,-7.664376E-3,8.323435E-3,-8.006579E-4,-5.1096184E-3,-5.28211E-3,4.9020573E-3,4.532834E-3,-6.583741E-3,-9.468426E-3,-1.0931545E-4],"split_indices":[8,0,12,4,0,12,12,2,0,4,12,4,12,2,4,6,3,12,12,7,15,0,15,0,0,0,0,0,0,0,0,0,0,0,0,0,0,0,0,0,0,0,0],"split_type":[0,0,0,0,0,0,0,0,0,0,0,0,0,0,0,0,0,0,0,0,0,0,0,0,0,0,0,0,0,0,0,0,0,0,0,0,0,0,0,0,0,0,0],"sum_hessian":[2.7481628E3,1.6977981E3,1.0503646E3,1.3493458E1,1.6843047E3,6.764813E2,3.7388327E2,1.2465039E1,1.0284177E0,5.5001263E1,6.2148004E2,1.4377596E2,2.3010733E2,3.4311051E0,9.033935E0,4.8365494E1,6.6357665E0,2.3617622E2,3.8530383E2,1.14487755E2,2.9288198E1,6.113582E1,1.6897151E2,2.3771458E0,1.0539594E0,1.0172328E0,8.016702E0,4.6675457E1,1.6900371E0,3.9309564E0,2.7048104E0,1.14521416E2,1.216548E2,9.059369E1,2.9471014E2,7.992102E1,3.456673E1,7.7713637E0,2.1516836E1,1.9150144E0,5.9220802E1,1.6631192E2,2.6595917E0],"tree_param":{"num_deleted":"0","num_feature":"16","num_nodes":"43","size_leaf_vector":"1"}},{"base_weights":[-5.3983057E-1,3.7268552E-1,-1.1119373E0,-3.9841282E-1,7.9615086E-1,-4.5969117E-1,-1.1158E-2,-1.032967E0,-1.9654967E-1,5.959545E-1,1.0731758E0,-5.610358E-1,2.4498913E-3,-1.0865864E-2,-6.890897E-1,6.835685E-2,-6.639254E-1,-7.593827E-1,6.17919E-1,7.6291037E-1,1.5011216E0,1.2351351E-3,-6.6841215E-1,2.6627686E-3,-7.785451E-3,5.040683E-3,-2.8472312E-3,-8.054963E-3,1.6169647E-3,-9.406854E-4,-8.396611E-3,2.854554E-3,7.1279774E-3,9.721762E-3,2.803755E-3,1.535012E-2,-5.14492E-3,-8.291772E-3,-2.3149278E-3],"categories":[],"categories_nodes":[],"categories_segments":[],"categories_sizes":[],"default_left":[0,0,0,0,0,0,0,0,0,0,0,0,0,0,0,0,0,0,0,0,0,0,0,0,0,0,0,0,0,0,0,0,0,0,0,0,0,0,0],"id":32,"left_children":[1,3,5,7,9,11,-1,13,15,17,19,21,-1,-1,23,25,27,29,31,33,35,-1,37,-1,-1,-1,-1,-1,-1,-1,-1,-1,-1,-1,-1,-1,-1,-1,-1],"loss_changes":[1.4382612E3,3.475878E2,3.2392578E0,4.801252E1,3.679599E1,1.2295499E0,0E0,1.7589569E-1,3.590168E1,1.2936478E1,3.561853E1,1.0688336E0,0E0,0E0,1.9281225E0,2.8965866E1,1.2512306E1,2.332406E-1,1.2138199E1,1.6578552E1,9.635315E0,0E0,3.8451672E-1,0E0,0E0,0E0,0E0,0E0,0E0,0E0,0E0,0E0,0E0,0E0,0E0,0E0,0E0,0E0,0E0],"parents":[2147483647,0,0,1,1,2,2,3,3,4,4,5,5,7,7,8,8,9,9,10,10,11,11,14,14,15,15,16,16,17,17,18,18,19,19,20,20,22,22],"right_children":[2,4,6,8,10,12,-1,14,16,18,20,22,-1,-1,24,26,28,30,32,34,36,-1,38,-1,-1,-1,-1,-1,-1,-1,-1,-1,-1,-1,-1,-1,-1,-1,-1],"split_conditions":[1.4991277E-1,1.3785362E-1,1.5067597E-1,7.561535E-2,1.3464893E-1,6.677984E-1,-1.1158E-2,6.645974E-2,1.3436145E-1,6.8050355E-4,5.6330576E-3,9.395609E-2,2.4498913E-3,-1.0865864E-2,6.763217E-2,7.183093E-4,1.3502328E-1,1.8964273E-1,1.2223058E-1,3.022741E-1,3.2055244E-1,1.2351351E-3,1.7148118E-1,2.6627686E-3,-7.785451E-3,5.040683E-3,-2.8472312E-3,-8.054963E-3,1.6169647E-3,-9.406854E-4,-8.396611E-3,2.854554E-3,7.1279774E-3,9.721762E-3,2.803755E-3,1.535012E-2,-5.14492E-3,-8.291772E-3,-2.3149278E-3],"split_indices":[0,11,0,11,0,4,0,11,11,15,15,4,0,0,11,15,11,3,1,7,11,0,11,0,0,0,0,0,0,0,0,0,0,0,0,0,0,0,0],"split_type":[0,0,0,0,0,0,0,0,0,0,0,0,0,0,0,0,0,0,0,0,0,0,0,0,0,0,0,0,0,0,0,0,0,0,0,0,0,0,0],"sum_hessian":[2.7514036E3,1.0605356E3,1.6908679E3,3.759952E2,6.8454047E2,1.1367598E1,1.6795002E3,8.875638E1,2.8723883E2,4.010314E2,2.8350906E2,1.0294732E1,1.0728656E0,7.304684E1,1.5709542E1,1.8441864E2,1.028202E2,5.324647E0,3.9570676E2,1.6757838E2,1.1593069E2,1.3550972E0,8.939634E0,1.0065458E0,1.4702996E1,8.216691E1,1.0225173E2,8.781171E1,1.5008492E1,1.0409814E0,4.2836657E0,8.963494E1,3.0607184E2,1.15471306E2,5.2107075E1,1.14482666E2,1.4480212E0,5.2224617E0,3.7171729E0],"tree_param":{"num_deleted":"0","num_feature":"16","num_nodes":"39","size_leaf_vector":"1"}},{"base_weights":[-5.489652E-1,-1.113826E0,3.309805E-1,-1.1178478E-2,-8.158966E-1,8.3003116E-1,-5.483435E-1,-8.9777154E-1,5.7810422E-2,-1.4243452E-1,1.3028734E0,-2.2394204E-1,-8.7019795E-1,-9.5455396E-1,-1.9892585E-1,4.476132E-3,-3.9795167E-3,2.2207737E-2,-3.473408E-1,1.5029918E0,8.150042E-1,-1.0264679E0,-3.0714573E-2,-1.0021874E0,-5.105977E-1,-5.1925983E-4,-9.892968E-3,2.7061808E-3,-4.902612E-3,-7.40756E-5,-7.6711145E-3,2.1145629E-2,